/* Auto-generated by export_weights.py — DO NOT EDIT */
/* Total arrays: 30 */

#ifndef CNN_WEIGHTS_H
#define CNN_WEIGHTS_H

#include <stddef.h>

// /* [48] float32 */
static const float cls_head_0_bias[48] = {
    -0.00099254f, -0.03911325f, -0.01703186f, 0.04201387f, -0.05316845f, 0.03548814f, -0.01247823f, -0.02839481f,
    0.02381967f, 0.00890204f, -0.02308750f, 0.00018752f, 0.02830111f, 0.04835406f, 0.01178401f, -0.03319416f,
    -0.03749798f, 0.02278611f, -0.00102730f, -0.02361651f, -0.01446024f, -0.02954112f, -0.01532935f, -0.00767451f,
    0.01391144f, -0.02453353f, 0.03659815f, 0.03897703f, 0.05365453f, 0.01272643f, -0.03402472f, -0.01821669f,
    0.03844678f, -0.01567613f, -0.02657522f, -0.00928289f, -0.02815791f, -0.00009467f, 0.04066264f, 0.01554622f,
    -0.00666592f, -0.01065284f, -0.03498329f, 0.02287197f, -0.03402125f, -0.01044875f, 0.04482156f, 0.02345452f
};

// /* [48 × 48] → transposed to [48 × 48] float32 */
static const float cls_head_0_weight[2304] = {
    -0.01902825f, -0.13943598f, -0.20385568f, -0.15127566f, -0.13619851f, -0.28065008f, -0.12699690f, 0.22174661f,
    -0.30128971f, 0.11134954f, -0.01883465f, -0.08497422f, 0.03449450f, -0.29599452f, -0.31370568f, 0.07995037f,
    -0.00149905f, 0.14407025f, -0.38573191f, 0.10386515f, 0.04224661f, -0.06496478f, 0.21663265f, -0.00206659f,
    0.29066142f, -0.37815434f, 0.38022077f, -0.07372884f, 0.06033222f, 0.06933431f, 0.10016000f, 0.17344908f,
    -0.06619965f, -0.08568766f, -0.03877965f, -0.30579910f, -0.04043445f, 0.08729198f, 0.06868001f, 0.15167296f,
    0.33212838f, -0.13566244f, -0.03449510f, -0.01597313f, 0.12067089f, 0.25841120f, 0.28064904f, 0.28409269f,
    0.03459496f, 0.23457420f, -0.03757230f, -0.01693069f, 0.09817821f, -0.02284805f, 0.17243655f, -0.03374154f,
    0.26134938f, -0.03566036f, 0.25905862f, -0.31038436f, -0.01558994f, -0.15891148f, -0.06565697f, 0.14516781f,
    -0.41363519f, 0.12835422f, 0.15154140f, 0.36804336f, -0.55814576f, 0.03665478f, -0.34514177f, -0.22266172f,
    -0.08672560f, -0.04616535f, 0.00093036f, -0.03459041f, 0.05701077f, 0.03766355f, -0.07551220f, 0.01563822f,
    -0.35184482f, -0.03899642f, 0.02897202f, -0.03658660f, -0.05276194f, 0.08040245f, -0.38854015f, -0.29152122f,
    0.10029767f, 0.14344805f, -0.19904920f, -0.21563752f, -0.19602986f, 0.31086358f, 0.10179018f, -0.04950208f,
    -0.13817704f, -0.37501702f, 0.01150853f, 0.24703148f, -0.10856898f, -0.14336012f, 0.06592993f, 0.25923389f,
    -0.05042592f, 0.19742534f, 0.28147924f, -0.13088992f, 0.33225256f, 0.05972030f, -0.06751190f, -0.18424401f,
    0.20119339f, -0.64818102f, -0.14536758f, 0.14478219f, -0.32816017f, 0.14629744f, 0.09161711f, 0.05457939f,
    0.40851173f, -0.19522263f, -0.13565041f, -0.39242867f, 0.10111106f, 0.26048759f, -0.25620970f, -0.03742021f,
    0.05540163f, 0.03352201f, 0.25652125f, -0.09293599f, 0.05370124f, 0.33513686f, -0.11733700f, 0.10341660f,
    -0.37795848f, -0.30261898f, 0.08720673f, -0.22860087f, 0.64855391f, -0.28248259f, -0.14251232f, 0.29017901f,
    -0.27633244f, -0.16791968f, -0.41267473f, -0.37593079f, 0.09231493f, -0.26440695f, -0.12039883f, -0.13129456f,
    -0.17720541f, 0.03729178f, -0.29476395f, 0.24004987f, 0.05709185f, -0.08562954f, -0.12989867f, -0.17203765f,
    -0.06317391f, -0.13403578f, -0.08365750f, -0.19839354f, -0.07227230f, -0.29956439f, -0.17615238f, -0.54344273f,
    0.24642545f, -0.31933081f, -0.17133541f, 0.73834836f, -0.11506158f, -0.05991643f, -0.15050375f, -0.34147885f,
    -0.29459858f, -0.31756601f, 0.06606758f, 0.15373008f, 0.08454197f, -0.28446460f, 0.07590907f, 0.16955437f,
    -0.05240114f, 0.01671872f, 0.00934221f, 0.25225422f, 0.08687001f, 0.35908037f, 0.16143987f, -0.19152518f,
    -0.01000513f, 0.30540478f, -0.18073954f, -0.18806566f, 0.06652418f, -0.45979097f, -0.10085359f, -0.02818630f,
    0.20004699f, 0.42239979f, -0.07865292f, 0.07651967f, -0.47693372f, 0.05247345f, 0.00669370f, -0.37182826f,
    0.35489643f, 0.06633964f, 0.03405613f, -0.09854707f, 0.20170434f, -0.02391228f, -0.07103222f, -0.17220655f,
    -0.09369549f, 0.20322357f, -0.23554657f, -0.21265811f, -0.11981798f, 0.00860494f, -0.10111090f, -0.08600536f,
    0.05042765f, 0.24020639f, -0.23921697f, -0.06992724f, 0.20302989f, 0.20538130f, -0.28307131f, 0.12052687f,
    0.39199492f, 0.61770719f, 0.05061916f, 0.01575576f, 0.00938217f, -0.19589195f, -0.11289010f, -0.44958088f,
    -0.08374937f, 0.20722993f, 0.23170812f, -0.00186846f, 0.18452746f, 0.34706682f, -0.15791650f, -0.05092258f,
    0.24341881f, -0.03768024f, 0.04095396f, -0.02470801f, 0.11286313f, 0.28326115f, -0.07578485f, -0.43913046f,
    0.32631630f, 0.27769607f, -0.04953189f, 0.16222145f, 0.19718328f, 0.21397515f, 0.07101914f, -0.47149435f,
    -0.00861957f, 0.23988734f, -0.19952956f, 0.12044979f, 0.08751839f, 0.01066236f, -0.42131481f, 0.20687838f,
    0.10407785f, 0.04969434f, 0.01168461f, -0.17150138f, 0.14774419f, 0.12007476f, 0.03470226f, -0.15294147f,
    0.09947413f, 0.17707935f, -0.17119256f, 0.51862490f, -0.29169190f, 0.35218245f, 0.02450776f, 0.28853419f,
    0.33821312f, -0.50479245f, -0.10294609f, -0.17475897f, 0.08386777f, -0.48821762f, -0.12253775f, 0.11315677f,
    -0.18362999f, -0.00794118f, 0.07928253f, -0.32508302f, 0.07983064f, 0.04571938f, -0.29628372f, 0.24970742f,
    -0.00353031f, -0.20411508f, -0.21900760f, 0.24653246f, 0.51334941f, -0.04659883f, -0.08772705f, 0.07303824f,
    -0.28565198f, -0.25243574f, 0.34502527f, 0.04259234f, -0.13626356f, 0.26845488f, 0.03503774f, -0.00436262f,
    -0.47059214f, -0.24554607f, -0.40735114f, -0.08198878f, 0.32013518f, 0.08059608f, 0.05625517f, 0.14335141f,
    0.28339124f, 0.02860548f, -0.15090173f, 0.20904471f, -0.13507016f, 0.35889554f, 0.23381716f, -0.06143595f,
    0.04913618f, -0.11580642f, -0.06401866f, 0.11616592f, -0.20788814f, 0.04732142f, -0.07580236f, -0.45341432f,
    -0.08023595f, 0.03523856f, -0.35639733f, -0.00345692f, -0.22078986f, 0.21034200f, -0.18061049f, 0.23174046f,
    -0.03677654f, -0.00597017f, 0.03550774f, -0.05514061f, 0.01122428f, 0.06444707f, 0.19151013f, 0.04216818f,
    -0.21316624f, 0.15430708f, -0.10119291f, -0.19244133f, -0.11849944f, 0.01101356f, 0.02717937f, 0.02360808f,
    -0.02735507f, 0.30754125f, 0.34874815f, -0.11259201f, 0.01801218f, -0.06330661f, 0.14569484f, -0.03246667f,
    0.20528138f, -0.09704672f, 0.38207260f, -0.16391718f, -0.13141692f, -0.13636085f, -0.17436627f, 0.11931437f,
    0.23919871f, -0.19516104f, 0.34809810f, -0.30734694f, -0.07684916f, -0.25364706f, -0.50803053f, -0.14376119f,
    0.55162024f, 0.19041027f, 0.17436688f, -0.27846453f, 0.07624556f, -0.09547524f, 0.27344909f, 0.10239150f,
    0.20634775f, 0.16924380f, 0.33947816f, -0.25072452f, -0.00903458f, -0.10634627f, -0.20865668f, 0.07634108f,
    -0.01047597f, -0.19678064f, 0.08127630f, -0.16564871f, 0.16093437f, -0.16828990f, 0.03160851f, -0.00612621f,
    0.14590436f, 0.17910214f, -0.12088983f, 0.03411275f, -0.10416400f, 0.02693978f, 0.05663444f, 0.13964479f,
    0.04217613f, 0.04715982f, -0.10506313f, 0.16849998f, -0.14090756f, -0.04588696f, -0.04647376f, -0.14883991f,
    0.19194692f, -0.61394078f, -0.28654379f, -0.21122599f, 0.10808920f, 0.32310152f, 0.30259904f, 0.32195818f,
    0.02855204f, -0.05638864f, -0.18058796f, 0.01469529f, -0.18824425f, -0.08526633f, -0.18485601f, 0.17091289f,
    -0.15253872f, 0.23515999f, -0.08398777f, 0.10995876f, 0.34726033f, -0.16005547f, 0.40325516f, 0.05450160f,
    -0.14982815f, 0.22583582f, 0.27959231f, 0.23753221f, 0.16218577f, 0.04075675f, -0.32603431f, -0.05690376f,
    -0.03744232f, -0.20099106f, 0.10597148f, 0.15405968f, -0.45288271f, 0.02067832f, -0.16000786f, 0.17034221f,
    0.10398753f, 0.31977651f, 0.05794505f, 0.08703265f, -0.03019481f, -0.16482650f, 0.38416037f, 0.00672022f,
    0.27570328f, -0.22982873f, 0.28033221f, 0.00015629f, 0.06602643f, 0.18504916f, 0.13302106f, -0.06154172f,
    -0.21596603f, 0.13145873f, 0.06419029f, 0.10825170f, -0.35997951f, -0.14802060f, 0.09481604f, 0.07110733f,
    0.12273531f, -0.21276978f, -0.19508301f, -0.24790595f, 0.14312927f, 0.25334215f, 0.33096421f, 0.08047078f,
    0.21791515f, -0.27501497f, 0.24826846f, -0.20637047f, 0.25308928f, -0.05356895f, -0.01263129f, -0.03121687f,
    0.03140133f, 0.24928044f, -0.09290061f, -0.30101362f, -0.32025802f, -0.10719768f, 0.37349397f, 0.04591355f,
    -0.06273111f, 0.06400524f, -0.14454988f, 0.01845092f, -0.22210404f, 0.24339530f, -0.32226199f, 0.01121460f,
    0.22360626f, -0.13371766f, 0.13337474f, -0.11686692f, 0.10807133f, -0.07535990f, -0.36073372f, 0.04223586f,
    -0.05032031f, 0.02180134f, -0.04350905f, 0.08827284f, -0.14340906f, -0.22179836f, 0.15609922f, -0.12862219f,
    -0.02933360f, -0.15490174f, -0.14157361f, -0.04773489f, -0.01007739f, 0.09421571f, -0.09406537f, -0.16136371f,
    -0.16514760f, 0.08030868f, -0.11633205f, -0.19049451f, -0.09700207f, -0.11122500f, -0.00534085f, 0.17821775f,
    -0.32134214f, 0.32546958f, -0.48311976f, 0.25830141f, 0.10877635f, -0.09276727f, 0.13418420f, -0.11463612f,
    0.10125373f, -0.51889050f, 0.24063638f, 0.10124657f, 0.13611072f, 0.31841093f, -0.01509068f, -0.23178609f,
    -0.23159915f, 0.05159307f, -0.10844693f, 0.09971915f, -0.20924340f, 0.12673219f, -0.03022069f, -0.01720402f,
    0.15708403f, 0.03410320f, 0.20746994f, -0.05957195f, -0.36666739f, -0.32660460f, -0.19369936f, -0.00200070f,
    0.07779887f, -0.09402703f, 0.29869801f, -0.37413299f, 0.00853800f, 0.00779904f, 0.00999506f, -0.29395431f,
    -0.09224792f, -0.18347123f, 0.21736364f, -0.56199700f, -0.16857640f, -0.05486646f, -0.48315841f, 0.25684488f,
    0.01343897f, 0.16070136f, -0.00263450f, 0.04896599f, -0.03207847f, 0.01684775f, 0.05712839f, 0.35656282f,
    -0.03658247f, 0.11343639f, 0.22399493f, 0.44911951f, -0.05579724f, 0.01546948f, -0.13783549f, 0.06753136f,
    -0.12605698f, -0.13797614f, -0.08135397f, -0.18666844f, -0.01173014f, 0.13636260f, -0.22001864f, 0.28294876f,
    -0.34432325f, -0.28240275f, -0.17351766f, -0.07871955f, -0.16999844f, 0.03895544f, 0.18476087f, -0.33720464f,
    0.21602660f, -0.04807552f, -0.21346863f, 0.31714597f, -0.06212407f, 0.02895495f, 0.32120988f, 0.14748119f,
    -0.01639643f, -0.08499673f, -0.12677264f, 0.22255909f, -0.05394382f, -0.17954139f, 0.26296610f, 0.10268860f,
    0.13536799f, -0.32849690f, 0.17341609f, 0.13336794f, -0.03864544f, -0.22384280f, -0.36660665f, 0.15639623f,
    0.21730447f, 0.12305872f, -0.27034897f, 0.10177044f, 0.18377660f, 0.18034598f, 0.00192582f, 0.18238357f,
    -0.49925387f, 0.05138307f, 0.01086875f, -0.39234188f, -0.17524949f, -0.37500179f, -0.24969676f, -0.42713863f,
    -0.05040473f, -0.56302899f, 0.17336029f, 0.02337744f, 0.34400365f, 0.15443003f, -0.18192835f, 0.02106560f,
    0.13722321f, 0.18828638f, -0.11847378f, 0.18219768f, 0.07431107f, -0.06653889f, -0.36157361f, -0.02028691f,
    0.03915277f, -0.45248479f, -0.42645276f, -0.16687404f, -0.08652987f, 0.13158046f, -0.23800802f, -0.17378752f,
    0.04944144f, 0.07141040f, -0.24953242f, -0.10735562f, 0.19464940f, 0.01447515f, 0.21778753f, 0.14410847f,
    -0.07453415f, -0.20972876f, -0.23932834f, -0.20533814f, -0.12627880f, 0.04224771f, -0.14802650f, 0.18705894f,
    0.18027829f, 0.25538528f, -0.25696439f, -0.36248949f, 0.24294491f, -0.00413412f, -0.29582459f, 0.28313890f,
    0.21562721f, -0.57166970f, -0.06889042f, 0.06418967f, -0.30859196f, 0.13094294f, -0.08518892f, 0.09191888f,
    0.25729549f, 0.03542885f, -0.04327672f, -0.03643947f, -0.24828160f, -0.21079209f, -0.00660705f, -0.09270446f,
    -0.05324626f, -0.13024741f, 0.01965821f, 0.07132654f, -0.45096815f, -0.07895683f, -0.06843449f, 0.09596641f,
    0.08373556f, 0.12785080f, -0.03545728f, -0.08535739f, -0.17865683f, -0.07186751f, 0.02719039f, -0.16731545f,
    0.07533660f, 0.11218038f, 0.17394707f, 0.24566868f, 0.05585625f, -0.20787755f, 0.09333494f, -0.20122452f,
    -0.25361449f, 0.05880474f, 0.09468759f, 0.12893058f, -0.32661742f, 0.30954665f, 0.16577701f, -0.32314211f,
    -0.01266855f, 0.08766592f, -0.19299887f, 0.03932436f, -0.06725051f, 0.14405254f, -0.03224113f, -0.07667582f,
    0.12484454f, -0.03940260f, 0.10668836f, -0.15643166f, -0.25707328f, 0.12374017f, 0.10136382f, 0.24413700f,
    0.34856713f, 0.05393543f, 0.47514662f, -0.09781719f, 0.26328796f, 0.37696004f, 0.29092523f, -0.07582491f,
    -0.09860246f, 0.14499506f, -0.13663918f, -0.11739884f, -0.02423430f, -0.24283676f, 0.10687067f, -0.04507950f,
    0.09848981f, -0.28154245f, 0.33387089f, -0.41695267f, 0.00013245f, 0.17880556f, -0.23119961f, 0.03890745f,
    -0.08389834f, -0.63144958f, -0.37889233f, 0.52062559f, -0.05060063f, 0.10946014f, 0.14447856f, 0.26249206f,
    0.28258082f, -0.33654213f, -0.06485907f, -0.37526622f, 0.01163249f, -0.06798206f, 0.02053108f, 0.06733937f,
    -0.14300664f, 0.13071595f, 0.04113410f, 0.35043329f, -0.25710857f, -0.21560787f, 0.17098224f, -0.03123832f,
    -0.07656605f, -0.28886405f, 0.35938028f, 0.38197309f, -0.10731752f, 0.09184930f, -0.01340817f, 0.15239927f,
    -0.28967309f, -0.56154746f, 0.07568394f, -0.14637880f, 0.05947940f, 0.23981433f, 0.29359630f, -0.11590891f,
    0.01387744f, -0.00969167f, -0.25081316f, -0.31352806f, 0.15623127f, 0.01838871f, 0.24588314f, -0.13450785f,
    -0.04430580f, -0.23604047f, -0.07602758f, -0.13006888f, -0.09397207f, -0.14965026f, 0.02946820f, 0.14538705f,
    0.27102494f, 0.26969340f, 0.23102492f, 0.02036832f, -0.01932127f, 0.10399360f, 0.16486391f, -0.25383759f,
    -0.17853020f, 0.07223027f, -0.02522851f, -0.17298785f, -0.00281716f, 0.20240961f, 0.01367369f, 0.01256398f,
    0.07854801f, 0.10155364f, -0.03471814f, 0.12514792f, -0.18995047f, 0.26002935f, 0.03178037f, -0.20299427f,
    -0.32190171f, -0.09027550f, 0.29282090f, -0.08661580f, -0.39570957f, -0.06168807f, -0.13704965f, 0.14512390f,
    -0.30943441f, 0.15178038f, 0.07279985f, 0.00411357f, 0.04282377f, 0.41066468f, -0.16912268f, 0.34537706f,
    -0.11748670f, 0.45458323f, -0.33296287f, -0.13258782f, 0.08798473f, -0.01155786f, -0.24028879f, -0.14483103f,
    -0.11580036f, 0.10940763f, -0.24348232f, -0.47237316f, -0.33936229f, -0.12901562f, 0.27446669f, 0.14032973f,
    0.05770874f, 0.10981629f, -0.25427431f, 0.42178613f, 0.12807766f, 0.26950011f, -0.11428403f, -0.18560167f,
    -0.05808566f, -0.21589217f, -0.15335882f, -0.41451877f, 0.23406881f, -0.08068282f, 0.22284588f, -0.20514823f,
    0.02811863f, 0.33397546f, -0.20080847f, 0.32086083f, 0.04667351f, 0.30211794f, 0.03920105f, 0.00385474f,
    0.04433249f, 0.08844081f, -0.06036329f, 0.18392906f, -0.13157879f, -0.01435282f, 0.04551243f, -0.11676534f,
    0.01127568f, 0.10700201f, -0.29671994f, 0.07400693f, -0.09097512f, -0.01901239f, -0.13752492f, -0.13616802f,
    0.17091675f, 0.20509264f, 0.13852079f, 0.10670561f, -0.21821226f, 0.03895465f, 0.10985152f, -0.18041250f,
    0.06230348f, -0.45942834f, -0.44568375f, 0.06066281f, -0.41354358f, 0.41056845f, 0.11063132f, -0.00669372f,
    0.06141039f, -0.00311985f, 0.17790850f, 0.05715048f, -0.13942431f, -0.09103470f, 0.09822921f, -0.20255886f,
    -0.31739375f, 0.50754225f, 0.30304867f, 0.26092142f, 0.07730682f, -0.01339107f, 0.01013561f, 0.03390080f,
    0.18182668f, 0.00738179f, 0.17092262f, -0.10410952f, -0.03486011f, -0.08465628f, 0.09535072f, 0.03492738f,
    0.16759102f, -0.41497362f, -0.00220220f, 0.07915367f, -0.23825292f, -0.04073298f, 0.05485234f, 0.01294994f,
    -0.52776283f, -0.25190538f, -0.15907556f, 0.14482622f, 0.11813985f, -0.06528335f, -0.12445433f, -0.66525942f,
    0.06336951f, -0.24507059f, 0.24929610f, 0.30957526f, 0.27659184f, -0.16302125f, 0.08568175f, -0.14901394f,
    -0.00240775f, -0.15013839f, -0.03469992f, 0.02548684f, 0.16412124f, -0.16087762f, -0.12625957f, -0.08073970f,
    0.47341242f, -0.00910134f, -0.09170684f, 0.10917602f, -0.16573404f, 0.09265118f, 0.01357892f, 0.15668058f,
    0.01007297f, 0.06305385f, -0.27323088f, -0.02131580f, 0.16456626f, 0.01246040f, 0.04234581f, -0.24514258f,
    0.02618308f, -0.49314022f, 0.29988652f, 0.15908726f, 0.04640042f, -0.20452233f, 0.04027608f, -0.08129951f,
    0.31322080f, -0.40662402f, -0.31634954f, 0.27918965f, -0.20768841f, -0.02172683f, 0.38746995f, 0.44356081f,
    0.07408634f, -0.01061714f, -0.02804967f, 0.09508479f, -0.22079873f, 0.15943077f, -0.23180863f, -0.01793389f,
    -0.48609275f, -0.02211057f, -0.07812583f, 0.16022834f, -0.23620644f, -0.15613611f, 0.17715399f, -0.25208867f,
    -0.20592397f, -0.14884940f, 0.09209517f, 0.03108889f, -0.07497738f, -0.01401343f, 0.03866168f, -0.13994367f,
    0.07931284f, 0.46370363f, 0.05074163f, 0.05270921f, 0.06794696f, -0.21673456f, 0.08080218f, -0.20757595f,
    -0.01299332f, -0.12229008f, 0.09303564f, 0.11206380f, 0.29276246f, -0.25464141f, -0.11345865f, 0.22218809f,
    0.07214107f, 0.08444574f, -0.12839749f, 0.07549545f, 0.13045290f, -0.11170196f, 0.15427755f, 0.02003260f,
    -0.19151041f, 0.04719898f, -0.01449772f, 0.16301683f, -0.27899075f, 0.04226227f, -0.03027888f, -0.06468026f,
    -0.01054133f, -0.40274507f, -0.27418372f, -0.18840688f, 0.21170273f, -0.07891143f, -0.00256711f, -0.31487212f,
    0.02913310f, -0.14671455f, 0.46323493f, 0.27156442f, -0.10750256f, -0.06374845f, 0.21049599f, -0.19687706f,
    -0.29520786f, -0.12781103f, 0.30409139f, -0.08482003f, -0.48838520f, -0.39171085f, -0.08067454f, -0.14218093f,
    0.19533931f, 0.05797053f, 0.12104771f, -0.20482700f, -0.04102239f, -0.68705463f, 0.05672057f, 0.22613412f,
    -0.10905919f, 0.03309150f, -0.09223740f, -0.07346275f, -0.27984381f, -0.23623389f, -0.30413529f, -0.04272761f,
    -0.20118468f, 0.16932292f, -0.04005087f, 0.06168231f, 0.05586164f, -0.25246623f, -0.23822834f, -0.00207858f,
    0.17399666f, -0.04374256f, -0.06303286f, -0.03478912f, 0.00404443f, -0.12513110f, 0.07002798f, 0.04821501f,
    -0.19395219f, -0.12866917f, 0.37330857f, 0.00000485f, -0.11905755f, -0.26659811f, 0.07975017f, -0.04841015f,
    0.13093403f, -0.18509452f, -0.13158764f, 0.15383200f, 0.25598809f, -0.20408872f, 0.09259265f, -0.06717848f,
    0.18919677f, -0.22085178f, -0.08851429f, 0.08246868f, -0.20045473f, -0.02711139f, -0.08798714f, 0.08763076f,
    -0.15795420f, 0.12146935f, -0.08556542f, -0.03551057f, 0.29812643f, -0.11513283f, -0.04292399f, -0.15052411f,
    -0.23498589f, 0.18775657f, 0.07557492f, -0.04861435f, -0.15310264f, 0.03629746f, -0.22073914f, 0.01457858f,
    -0.06359015f, 0.01335100f, 0.07014976f, 0.15722595f, -0.15819219f, -0.20678714f, -0.18554886f, 0.29521394f,
    0.32917562f, 0.08273724f, 0.20880045f, 0.32555756f, -0.01609916f, 0.33772311f, 0.22923990f, -0.18331899f,
    0.04322511f, -0.44490221f, -0.44560215f, -0.16284259f, -0.04273392f, 0.09756231f, -0.18681936f, 0.01620620f,
    -0.07610708f, 0.04419044f, 0.14739837f, -0.08364741f, -0.21183200f, -0.01029664f, 0.31990832f, -0.20084217f,
    -0.10326715f, -0.31918138f, -0.40717033f, -0.20171787f, -0.10417199f, 0.06649236f, -0.13618270f, 0.05005796f,
    -0.04093631f, 0.13122213f, 0.01069816f, 0.28079188f, 0.14434886f, -0.08494015f, 0.44225875f, 0.05239249f,
    -0.02095758f, 0.22875588f, 0.13243873f, -0.15805176f, 0.11931757f, -0.07959170f, 0.00442995f, -0.35068744f,
    -0.30160904f, 0.01631318f, -0.08283015f, -0.20384884f, 0.04163454f, 0.30155441f, 0.41524208f, -0.14653590f,
    0.11758059f, -0.37424904f, 0.05042703f, 0.03874694f, 0.19829077f, 0.09607413f, 0.28188589f, 0.68408161f,
    -0.29156125f, 0.03896201f, 0.05547884f, -0.15024893f, 0.03711105f, -0.06032508f, -0.12845759f, -0.69354439f,
    0.39820799f, 0.18198773f, 0.40808988f, -0.21258038f, 0.17284743f, -0.08056041f, -0.55797452f, -0.13564427f,
    -0.42239907f, -0.35178518f, -0.17308204f, -0.27879280f, -0.15049571f, -0.26018921f, -0.17298368f, 0.42577255f,
    -0.08418588f, 0.22426601f, -0.05446901f, -0.16226594f, -0.03664408f, 0.05209569f, 0.00670635f, 0.18644261f,
    -0.05908803f, -0.07994942f, 0.13576904f, -0.10013469f, 0.18519494f, -0.02181119f, 0.13339937f, -0.23904136f,
    0.09062295f, -0.13072619f, -0.20218606f, -0.21683857f, 0.33986619f, -0.35894096f, -0.05099697f, 0.01918132f,
    -0.01105336f, 0.25759029f, -0.27886838f, -0.07536839f, 0.05836628f, 0.48301074f, -0.26696435f, -0.27870688f,
    -0.28619638f, 0.06056533f, 0.18901259f, 0.02519164f, -0.13868308f, -0.01241899f, 0.08095646f, -0.28706378f,
    -0.05627876f, 0.02836443f, 0.03172442f, -0.20487617f, 0.07326703f, 0.15442154f, 0.11266001f, 0.23691908f,
    -0.15103801f, 0.08017966f, -0.31742531f, -0.14015900f, -0.21579683f, 0.01979063f, -0.40206072f, -0.12538192f,
    -0.00916283f, 0.23111661f, -0.19368136f, 0.20795088f, 0.05807414f, 0.05086753f, 0.00728842f, -0.35638312f,
    -0.05389032f, 0.05519574f, -0.03856032f, 0.35559383f, -0.10280871f, -0.08162403f, -0.13570137f, -0.24001810f,
    0.36172336f, -0.17590539f, 0.09233702f, -0.49703464f, 0.16411477f, 0.13247705f, 0.06439324f, 0.01283832f,
    -0.07212745f, -0.28963834f, -0.10842318f, -0.36133391f, 0.00838744f, -0.04202200f, -0.08289168f, 0.39990509f,
    0.38147905f, 0.55652010f, 0.15469036f, 0.14120114f, -0.05044409f, 0.38358727f, 0.07532182f, -0.35656831f,
    0.31081986f, -0.17986423f, 0.22215994f, 0.20046429f, -0.08237461f, -0.04310679f, 0.15772434f, 0.17459165f,
    -0.13168408f, 0.13510431f, -0.08807086f, -0.04468879f, -0.00526296f, 0.06519780f, -0.10045592f, 0.39531371f,
    0.32877427f, 0.05526324f, -0.01137044f, 0.04605634f, 0.10236087f, -0.23461509f, -0.08062994f, -0.01603822f,
    -0.08698981f, -0.13736627f, 0.30210471f, -0.11716253f, 0.19426198f, 0.02053805f, -0.04140637f, 0.14496970f,
    -0.31476656f, -0.03706519f, -0.29274637f, 0.16320927f, -0.04289205f, -0.10321656f, 0.15028007f, -0.05390410f,
    0.15099275f, 0.00552335f, -0.21147619f, 0.18336670f, 0.24191742f, 0.06333549f, 0.13550593f, 0.45704004f,
    -0.10372748f, 0.04997636f, -0.40038031f, 0.20498641f, -0.08636879f, 0.18913713f, 0.01335526f, -0.02073878f,
    -0.13154078f, -0.26975423f, 0.13052824f, -0.38039520f, 0.10930417f, -0.33354065f, -0.06870250f, -0.04842398f,
    -0.00438153f, 0.14235565f, 0.23516482f, 0.08971492f, -0.03144777f, -0.09464959f, -0.19444501f, 0.02716932f,
    -0.18906797f, 0.07705712f, 0.03562512f, -0.13916549f, -0.05911375f, -0.23221447f, 0.21248451f, -0.08706417f,
    -0.02420473f, -0.39421132f, 0.31104368f, 0.02409977f, 0.07060971f, 0.04831263f, 0.28259870f, -0.13000129f,
    0.23360808f, 0.15812935f, 0.10587627f, -0.35786727f, 0.21318957f, -0.34295994f, 0.13029712f, 0.11675026f,
    0.13557269f, 0.12412976f, 0.38928363f, 0.11471734f, -0.18860838f, 0.23111491f, 0.44175354f, 0.04360116f,
    -0.06517721f, -0.49720141f, -0.16642551f, 0.24620697f, -0.20303227f, 0.00570827f, -0.27466801f, -0.03029734f,
    -0.01433624f, -0.03845216f, 0.11229587f, -0.13317777f, -0.07601609f, -0.03207478f, 0.53681087f, -0.30259547f,
    -0.38878429f, -0.16832939f, -0.10387953f, -0.08035356f, 0.42845058f, -0.24974540f, 0.20600919f, -0.19986637f,
    -0.10588107f, 0.13174158f, -0.35238630f, -0.08597449f, -0.07292213f, -0.16811959f, -0.03282211f, -0.15576938f,
    -0.25552934f, 0.03730767f, -0.15697032f, 0.04518775f, -0.02515427f, -0.21788020f, -0.09475656f, -0.17407961f,
    0.12683994f, -0.19230667f, -0.12635504f, 0.38025978f, -0.33840945f, 0.29149449f, -0.24101537f, -0.07206059f,
    0.03402701f, 0.24029803f, 0.12895599f, -0.18582313f, 0.12490185f, 0.06787828f, -0.41259581f, -0.27673772f,
    -0.29543164f, 0.05325760f, -0.05699189f, 0.18389536f, 0.26244038f, 0.22095528f, 0.07729989f, 0.23063610f,
    0.46845332f, 0.00009013f, -0.29433951f, -0.01391461f, 0.08521387f, -0.45716944f, 0.22753078f, -0.16893946f,
    0.16277705f, -0.04770876f, 0.02677920f, 0.48323873f, 0.34532776f, 0.00766501f, 0.09076983f, 0.01980838f,
    -0.26607326f, -0.14095250f, 0.38781402f, -0.16974857f, -0.00582305f, -0.12967546f, -0.38152725f, -0.01598757f,
    0.25850135f, 0.05207419f, -0.28826174f, -0.11061092f, 0.15424179f, -0.51227492f, 0.06519466f, 0.09415830f,
    -0.26052183f, -0.13502236f, -0.38767749f, 0.36058629f, 0.12108866f, 0.02123506f, -0.17220783f, 0.10205088f,
    -0.13941804f, 0.07868145f, -0.03396750f, -0.31081513f, -0.04793740f, -0.05946788f, 0.21012084f, 0.03211240f,
    -0.13249163f, 0.29723346f, 0.17661597f, -0.06708925f, -0.12330821f, -0.06440514f, 0.38272503f, 0.17604187f,
    -0.18075848f, 0.00895507f, -0.42980140f, 0.36429685f, -0.16827227f, -0.24554126f, 0.03986433f, 0.13941722f,
    0.19559278f, 0.00047101f, 0.38117495f, -0.32561493f, 0.31670630f, 0.18241595f, -0.01663104f, -0.14887343f,
    -0.17281617f, 0.01329157f, -0.37318596f, 0.25864419f, -0.01326874f, -0.01463432f, 0.41725335f, 0.24753322f,
    -0.05486358f, -0.09772737f, 0.03014326f, -0.16400808f, 0.02602947f, -0.03754155f, -0.14341882f, -0.05280965f,
    -0.25242433f, 0.11898301f, -0.32335171f, -0.12575124f, 0.40289316f, 0.04694116f, -0.04049548f, 0.03171327f,
    -0.03554414f, -0.06906955f, 0.14045170f, -0.15563338f, 0.36663318f, -0.31595859f, 0.04760898f, 0.08409197f,
    0.05324389f, 0.07394660f, -0.18828394f, 0.02191978f, -0.04319388f, -0.32407796f, 0.17416403f, 0.04957834f,
    0.37439126f, -0.21882799f, 0.13304305f, 0.08067392f, -0.14277683f, 0.03349373f, -0.17918427f, -0.18355346f,
    0.04664965f, 0.12181990f, 0.06153345f, 0.07789055f, -0.18051475f, 0.09281322f, 0.33730519f, -0.04869526f,
    0.22133276f, 0.19090925f, -0.10552493f, -0.17702901f, -0.04358191f, 0.07387878f, 0.55333877f, 0.19052514f,
    0.09795888f, 0.00647378f, 0.02011087f, -0.14608011f, 0.04973718f, -0.14527678f, 0.01974986f, 0.00976489f,
    0.17182322f, 0.38239345f, 0.08738315f, -0.04407057f, 0.11239696f, 0.19801839f, -0.10474285f, 0.33573017f,
    0.03856394f, 0.12653692f, 0.36244625f, -0.28310969f, -0.13500834f, 0.19714282f, -0.07040320f, -0.13196482f,
    -0.01764019f, -0.36988670f, -0.08585732f, -0.10869364f, -0.10619867f, -0.02943487f, 0.19274159f, -0.25404939f,
    -0.01331455f, 0.23196663f, -0.39274400f, 0.19443098f, 0.15210222f, -0.37069276f, 0.09529147f, 0.08537304f,
    -0.50960916f, -0.36340654f, 0.02358899f, -0.04031065f, -0.44275084f, 0.04767545f, -0.52890080f, -0.05499580f,
    -0.10311105f, 0.12879232f, 0.19340579f, -0.26466620f, 0.23149320f, -0.54260129f, -0.22767732f, 0.03643888f,
    0.14293194f, -0.16253525f, -0.00936467f, 0.24049400f, 0.42475900f, 0.11758834f, -0.09790490f, -0.18610737f,
    0.05743973f, 0.12346614f, 0.04932211f, 0.32701552f, 0.05125082f, -0.33782843f, -0.29904321f, -0.17903006f,
    0.24275194f, -0.47463030f, -0.03808592f, -0.44659072f, -0.25040400f, -0.14215961f, 0.22632547f, 0.17695737f,
    -0.10362311f, -0.00810269f, -0.15358274f, -0.21592785f, -0.10583940f, 0.20323101f, -0.25480667f, 0.02619656f,
    -0.05175260f, 0.41309100f, 0.15953848f, 0.41081595f, 0.07720973f, 0.06789870f, -0.28007233f, -0.31898686f,
    0.34210795f, 0.13281946f, 0.23403098f, -0.04666809f, 0.04298566f, 0.43951902f, -0.02822690f, 0.13111521f,
    -0.00790348f, -0.03269451f, -0.29176328f, 0.04941243f, 0.18250853f, -0.00044497f, -0.44132271f, 0.08686792f,
    -0.18577304f, 0.10693971f, -0.11495640f, 0.20024610f, 0.32282752f, 0.19423577f, -0.36397907f, 0.06675252f,
    -0.21280904f, 0.13330963f, 0.12606317f, 0.31015077f, 0.24083409f, -0.12950779f, 0.08596026f, -0.07446487f,
    -0.04544674f, -0.26468226f, 0.13924927f, -0.05832912f, -0.03070552f, -0.28007516f, 0.10518742f, 0.63064629f,
    0.07667434f, -0.26066938f, -0.01123997f, 0.12062232f, 0.35568172f, 0.06018948f, -0.13193080f, 0.44488248f,
    -0.18608961f, 0.11709851f, -0.26567736f, -0.10217439f, 0.00422515f, -0.03375752f, -0.15125011f, 0.00641969f,
    0.21028413f, 0.10705592f, 0.18882087f, -0.10062610f, -0.12858772f, -0.14987770f, -0.26914975f, 0.13764678f,
    0.12779787f, -0.00169493f, -0.06583777f, -0.03404348f, 0.25248569f, -0.07027297f, -0.05991915f, -0.04995007f,
    -0.29436457f, 0.35596400f, 0.28042874f, -0.06376491f, 0.15025757f, -0.13206293f, 0.06469524f, 0.00717636f,
    0.17133939f, -0.26548830f, 0.25937647f, -0.15341388f, 0.12461731f, -0.12731580f, -0.36574927f, 0.11866827f,
    0.10947283f, -0.05976347f, -0.16171810f, -0.15243822f, -0.01256054f, -0.10851518f, -0.25213853f, 0.02998286f,
    -0.06287685f, -0.11606735f, -0.04240455f, -0.39172402f, 0.26395330f, -0.35072583f, -0.28288537f, -0.32231149f,
    0.00778820f, -0.18564236f, -0.25530300f, 0.29461864f, -0.22667128f, 0.08537906f, 0.13914472f, 0.09363641f,
    -0.12963474f, -0.13524173f, -0.24924438f, -0.02814583f, -0.18991280f, 0.44749865f, 0.06041287f, 0.11901870f,
    -0.23681885f, -0.24091566f, -0.00776018f, -0.11748262f, 0.27722329f, -0.00649430f, 0.27997890f, 0.00207062f,
    0.19883944f, -0.05937324f, 0.06017956f, -0.03388477f, 0.11714796f, 0.09191692f, -0.11112806f, -0.55943036f,
    0.11690126f, -0.17112207f, 0.10486704f, 0.05847673f, -0.28571656f, -0.17688100f, -0.27280888f, -0.16359343f,
    0.10356402f, 0.10134834f, 0.31850260f, -0.09176642f, -0.27093565f, 0.00060638f, -0.42972416f, -0.00672883f,
    -0.10068212f, 0.14438996f, 0.06685680f, -0.24089141f, -0.12850860f, 0.20796113f, 0.01531225f, -0.22594267f,
    0.29352662f, 0.27755043f, 0.08201897f, 0.19306377f, -0.37051567f, -0.27163643f, 0.17412923f, -0.02228308f,
    0.17734715f, -0.02546599f, -0.00757680f, 0.22089432f, 0.14298961f, -0.24782521f, -0.21250927f, 0.30218625f,
    0.23350868f, 0.04938873f, -0.08958669f, 0.01616096f, 0.26010567f, -0.15566789f, 0.23678766f, -0.17600760f,
    -0.32286501f, 0.02444528f, 0.37578380f, 0.07967953f, 0.14251678f, 0.10289486f, 0.17504252f, 0.04091860f,
    -0.44953483f, -0.24263805f, 0.13738559f, -0.00334413f, 0.19100656f, 0.00860277f, 0.08239096f, -0.11578657f,
    0.02867256f, 0.03129213f, -0.05628113f, 0.09615338f, 0.19815381f, 0.11435392f, 0.12385934f, 0.33045432f,
    0.11241503f, -0.32638857f, 0.25059023f, -0.02689145f, -0.03265711f, 0.16839205f, 0.18971430f, -0.10103825f,
    -0.18701118f, -0.07715385f, -0.09259048f, 0.02214094f, 0.28362644f, -0.10891464f, 0.11017248f, 0.05491976f,
    -0.15267932f, -0.16999909f, 0.28502208f, 0.05115415f, -0.22167121f, -0.18208310f, -0.28183588f, -0.07736367f,
    0.12165523f, -0.34802729f, -0.32278419f, -0.09821278f, -0.20198987f, -0.23954272f, 0.15665117f, 0.37063938f,
    -0.04147128f, -0.27336934f, -0.34151801f, -0.03428927f, 0.07978520f, -0.25802904f, -0.04191355f, 0.18823464f,
    0.31826675f, -0.24328110f, 0.13400863f, 0.09261989f, -0.35217941f, 0.01085096f, 0.22058578f, -0.01064817f,
    0.11430642f, -0.11951488f, -0.34719568f, -0.03463247f, -0.22447667f, -0.27207696f, -0.04847833f, 0.01280322f,
    0.09973741f, 0.21412612f, 0.09874472f, -0.06339978f, -0.06278592f, 0.05912921f, 0.24688815f, 0.16630566f,
    -0.55216688f, 0.29353005f, 0.06273779f, 0.12814252f, 0.07036780f, -0.16782300f, -0.11241058f, -0.27550688f,
    -0.46464220f, 0.00279707f, -0.08086691f, -0.06732701f, 0.23120783f, -0.10133375f, -0.09033343f, -0.01707426f,
    0.70081609f, 0.45644760f, 0.26430163f, -0.00581015f, -0.09476592f, 0.06853007f, 0.23099063f, -0.28727320f,
    0.16389208f, 0.41949555f, -0.08589411f, 0.06660418f, 0.20866054f, 0.00027181f, 0.06442346f, 0.03174805f,
    0.15776916f, 0.29816243f, -0.11943837f, -0.10584395f, -0.07522070f, 0.12520805f, 0.08464341f, -0.03266568f,
    0.03731597f, -0.09574807f, -0.13602330f, -0.10818160f, -0.10062709f, -0.16276965f, -0.24929507f, 0.13594192f,
    -0.11923715f, -0.09798863f, 0.13902970f, -0.14387396f, -0.26928136f, 0.11130564f, -0.12165277f, 0.45182529f,
    0.24093366f, 0.00243477f, 0.28375119f, 0.01790359f, 0.19055180f, -0.02478731f, -0.32741192f, -0.19293328f,
    -0.07893127f, -0.45462170f, -0.04690018f, -0.37599549f, -0.23528822f, 0.04664301f, -0.23936889f, -0.08188509f,
    0.27939084f, -0.17722048f, 0.02377286f, 0.17327452f, 0.21751219f, -0.09632046f, 0.16809726f, -0.13274471f,
    0.22055286f, 0.09759089f, 0.08348672f, -0.22584638f, 0.19360562f, 0.03506104f, 0.04746256f, 0.11183516f,
    -0.00588355f, -0.44524041f, 0.15376581f, 0.28714776f, 0.29741195f, -0.20096579f, -0.27986258f, -0.37816125f,
    -0.42300448f, -0.06662026f, -0.06519125f, -0.02959431f, 0.18998601f, 0.03938922f, -0.13589062f, -0.03989533f,
    -0.14656726f, 0.12034056f, 0.32832557f, -0.11128177f, -0.22542250f, 0.14074342f, 0.03293615f, -0.19718678f,
    0.17198153f, 0.28515521f, 0.24524927f, -0.35646698f, -0.15965284f, 0.09320527f, 0.05572448f, 0.01318582f,
    -0.06008636f, 0.01374612f, 0.55460083f, -0.07149643f, -0.00282831f, -0.14004818f, 0.15316941f, 0.22058162f,
    -0.31057611f, -0.24930330f, 0.09213447f, -0.29619166f, -0.44853351f, -0.15431087f, 0.16223453f, 0.01818588f,
    0.11682028f, 0.00520956f, -0.38507318f, 0.06177276f, -0.37373427f, 0.02496146f, 0.01598249f, -0.27595010f,
    0.35201249f, 0.08548839f, 0.05725594f, 0.05250153f, 0.01442597f, -0.06693362f, 0.20507519f, -0.10095328f,
    -0.21920352f, 0.07390156f, -0.44058466f, -0.07778692f, -0.03846066f, -0.02527578f, 0.00008976f, -0.04218446f,
    0.23089866f, 0.28749546f, -0.07072305f, -0.02962795f, 0.01525265f, 0.09314644f, -0.07814625f, 0.02161082f,
    -0.10417579f, -0.33390698f, -0.52667892f, 0.26495728f, -0.30756405f, 0.32273561f, -0.09822477f, 0.29546753f,
    -0.13754164f, -0.04393328f, 0.24984445f, 0.08297128f, 0.05142219f, 0.12890932f, 0.15157425f, 0.08355076f,
    0.11350345f, 0.10666695f, -0.05740358f, 0.00521578f, -0.51421934f, 0.14476661f, 0.01147088f, 0.29042819f,
    0.14441220f, -0.13902761f, -0.08798873f, 0.04013280f, 0.05822468f, 0.08905516f, -0.03652350f, 0.13881755f,
    0.33294746f, -0.12491862f, -0.03908786f, 0.07849686f, 0.14615346f, -0.15287559f, -0.40120292f, 0.12189868f,
    -0.53262854f, 0.24597421f, 0.25748572f, -0.03348527f, -0.15105557f, 0.10068956f, -0.01555531f, 0.16458394f
};

// /* [24] float32 */
static const float cls_head_3_bias[24] = {
    0.02893445f, 0.01733258f, -0.01494014f, 0.06079569f, -0.03584417f, -0.01139476f, 0.03789465f, -0.00839001f,
    0.02625693f, 0.01570831f, -0.02679119f, 0.03136126f, -0.02186359f, 0.01523426f, -0.00749715f, -0.01045055f,
    0.06576245f, 0.00507203f, -0.02846894f, 0.00523956f, -0.00451936f, -0.02203690f, -0.00322101f, 0.05015406f
};

// /* [24 × 48] → transposed to [48 × 24] float32 */
static const float cls_head_3_weight[1152] = {
    -0.09799135f, -0.15608205f, -0.27707371f, 0.08430097f, -0.37181410f, -0.16024289f, -0.03820290f, 0.11642152f,
    0.01519623f, 0.00526672f, -0.11421070f, 0.35160196f, -0.19549763f, 0.03297857f, -0.00360592f, -0.12404904f,
    -0.02930446f, -0.03240556f, -0.13501988f, 0.17871827f, -0.09097381f, 0.35153881f, 0.33552709f, -0.30986694f,
    0.04266670f, -0.03655782f, 0.02092311f, -0.20589916f, -0.23893853f, 0.10934854f, -0.17061190f, 0.02904427f,
    0.15374501f, -0.31475410f, -0.07505865f, -0.29133269f, -0.28615889f, 0.05195590f, -0.25587693f, 0.11710006f,
    0.30704141f, 0.09933054f, 0.12619421f, 0.29396641f, 0.01549184f, -0.15846343f, -0.17690447f, -0.26739889f,
    -0.10781156f, 0.21096778f, -0.08838704f, -0.34244117f, -0.03848538f, 0.08745634f, -0.14093776f, 0.13489433f,
    -0.08776537f, 0.00986906f, -0.23169968f, -0.06388991f, 0.16629583f, -0.03475004f, -0.77480680f, 0.04732087f,
    0.05287436f, 0.32149908f, -0.04818106f, -0.04681439f, 0.15359311f, -0.01303511f, 0.06012506f, 0.03631822f,
    0.30460966f, -0.33026102f, -0.37228373f, -0.02744119f, -0.10310463f, -0.21321587f, 0.08402073f, 0.13916162f,
    0.07432018f, -0.20622043f, -0.08832047f, -0.05854492f, 0.08942728f, 0.36163992f, -0.13202217f, 0.57146913f,
    -0.40110150f, -0.34798110f, 0.17138971f, 0.23817502f, -0.06363413f, 0.38204843f, -0.27996296f, 0.18612438f,
    0.02759349f, -0.27923346f, -0.27505130f, 0.05550003f, 0.20029515f, 0.29781923f, 0.30722773f, 0.22901393f,
    0.12208997f, 0.32237193f, -0.27759817f, -0.08203822f, -0.25558946f, -0.05534064f, 0.39518544f, 0.43845516f,
    0.25718755f, 0.04073758f, 0.09901845f, 0.26785830f, -0.37424624f, -0.03482530f, 0.09482414f, 0.06798103f,
    0.01656031f, 0.11207476f, 0.27431008f, -0.22703287f, -0.24866903f, 0.23128231f, 0.01604405f, 0.07660635f,
    0.17097007f, 0.08641256f, 0.16848339f, 0.39410788f, -0.19679970f, 0.14039454f, -0.32248539f, -0.18756205f,
    -0.00790635f, -0.33434951f, -0.32525933f, 0.25690031f, -0.33190697f, -0.19242133f, -0.12008899f, -0.33224970f,
    0.04303443f, 0.08232250f, 0.27163821f, -0.32463935f, -0.42293516f, -0.16369176f, 0.12878400f, 0.24429961f,
    -0.26705712f, -0.30036294f, 0.39916524f, 0.13651796f, 0.07016935f, -0.27993932f, -0.26717356f, -0.09724898f,
    -0.13661641f, 0.05219441f, 0.23151501f, 0.15185671f, 0.07008853f, 0.06287125f, -0.27120763f, -0.02007119f,
    0.18279152f, -0.21474592f, -0.04512340f, 0.04555276f, 0.06719972f, -0.15762129f, 0.23859690f, 0.27654344f,
    -0.31454846f, 0.01415200f, -0.15475871f, 0.23995563f, -0.40818849f, -0.46759251f, -0.07876699f, 0.37202406f,
    -0.43086630f, -0.08487432f, 0.22271658f, -0.07088316f, 0.18691675f, -0.18770547f, 0.14882313f, -0.27937734f,
    -0.33446488f, 0.29917446f, -0.11902817f, -0.03470438f, -0.04222659f, -0.06696331f, -0.19412898f, -0.21766712f,
    -0.14985082f, -0.17805077f, -0.00896623f, -0.29760957f, 0.07789167f, -0.13811831f, -0.13579504f, -0.32347083f,
    -0.35782173f, 0.14720322f, 0.20579095f, -0.28616187f, -0.20119250f, 0.31542510f, -0.02619461f, -0.11631316f,
    -0.29792073f, -0.05707683f, -0.07334816f, -0.52137679f, -0.25898048f, -0.42875823f, -0.07573643f, 0.37658510f,
    -0.47078222f, -0.18867488f, -0.05286955f, -0.08737633f, 0.32934096f, -0.20632245f, 0.01843737f, -0.05958927f,
    0.20478763f, -0.08172589f, -0.16155827f, -0.03189347f, 0.21216592f, 0.44643956f, 0.38240498f, -0.05925653f,
    0.19434039f, 0.08311318f, 0.04285435f, 0.14409120f, 0.19250268f, 0.19239411f, 0.15164813f, -0.15468775f,
    -0.13029853f, -0.22061020f, 0.05376074f, 0.04992900f, -0.08263348f, 0.22637957f, -0.70245618f, 0.10996937f,
    -0.00545800f, -0.03147719f, 0.24393897f, 0.11784570f, 0.03823459f, -0.25943217f, -0.00637879f, -0.10170420f,
    -0.26134047f, -0.21055956f, 0.14841644f, -0.08153687f, 0.48174670f, -0.16809157f, 0.10808157f, 0.40575498f,
    -0.10501388f, -0.21523260f, 0.55847311f, -0.28724575f, 0.07159549f, 0.11950302f, 0.02049408f, 0.08545107f,
    0.17296128f, 0.12491087f, -0.34847400f, -0.09188039f, -0.34044027f, -0.50799751f, 0.14082339f, 0.70855176f,
    -0.36061987f, -0.32640836f, -0.01916859f, 0.07130840f, 0.00170533f, -0.04605896f, -0.22185893f, 0.06160775f,
    0.46988219f, 0.68119413f, -0.27687407f, 0.26282847f, -0.34837529f, -0.03121623f, -0.07363598f, 0.31233394f,
    -0.10085098f, -0.15130422f, -0.23920493f, -0.04329521f, 0.00794676f, 0.10683787f, 0.03956619f, 0.11456130f,
    0.08838280f, -0.06602141f, 0.07189126f, -0.05108893f, 0.02575659f, 0.18980987f, -0.03658991f, -0.21097194f,
    -0.07017346f, 0.24422346f, 0.10715082f, -0.10181165f, -0.18258688f, -0.06795400f, -0.04168491f, 0.24396367f,
    -0.10313734f, -0.06456287f, -0.02632236f, 0.27858049f, -0.08837514f, 0.18235937f, 0.10968836f, -0.27920762f,
    0.23211718f, -0.02840887f, 0.00729419f, -0.21809778f, -0.04239072f, -0.15286754f, -0.07295956f, 0.19274467f,
    -0.08949064f, 0.36988863f, 0.07022323f, -0.08122537f, 0.16648374f, -0.13385837f, -0.07525712f, -0.44713068f,
    -0.21375430f, -0.04693127f, -0.19101076f, -0.33116949f, -0.13481818f, -0.12651317f, 0.15508612f, -0.24381849f,
    -0.01661869f, -0.07983851f, -0.04952634f, 0.04845328f, 0.01506445f, -0.09285068f, -0.08195630f, -0.04660284f,
    -0.22937967f, -0.04850411f, 0.04393520f, 0.12341459f, -0.20529324f, -0.33279613f, -0.35062057f, 0.02890610f,
    0.01594486f, -0.11916804f, -0.02406289f, 0.20200013f, -0.04141798f, -0.09524041f, -0.33801809f, -0.50575840f,
    0.15251210f, -0.19362064f, -0.13637328f, 0.25204629f, -0.12692022f, 0.23014560f, 0.06520391f, -0.16144730f,
    -0.09329763f, -0.03254383f, 0.13068253f, -0.10653181f, 0.03960720f, -0.28978360f, 0.21212246f, 0.19564897f,
    0.21436007f, 0.10492449f, 0.06430871f, 0.23219174f, 0.26535648f, -0.01452679f, 0.25535560f, -0.21134236f,
    -0.22733843f, 0.08959842f, 0.17847008f, 0.06830695f, -0.12978783f, -0.07673876f, -0.21029860f, -0.12076314f,
    -0.17595758f, -0.16219161f, -0.02615177f, -0.01587210f, 0.04023055f, 0.10581766f, -0.24856552f, 0.33715552f,
    0.17751625f, -0.24873872f, -0.23159763f, 0.10093500f, -0.00143601f, 0.33688250f, 0.11320961f, -0.05340574f,
    -0.01582977f, -0.14751761f, -0.17812160f, -0.09430438f, -0.07303537f, -0.00063513f, 0.07537013f, -0.45345473f,
    -0.05361866f, -0.00595655f, 0.05616584f, 0.05221272f, 0.20209222f, -0.14967893f, 0.10035973f, 0.28388941f,
    -0.02862342f, 0.13113829f, -0.02782947f, 0.20985709f, -0.01451604f, -0.05795162f, -0.23380794f, 0.00838305f,
    -0.42934898f, 0.11443404f, -0.23157376f, 0.02306963f, -0.19075504f, 0.30625716f, -0.44484332f, -0.08445983f,
    0.11395887f, 0.08559869f, 0.02422378f, 0.07676235f, -0.10069817f, 0.00517612f, -0.22107421f, 0.08509973f,
    -0.16468190f, -0.18710336f, -0.01595837f, 0.27612734f, -0.27663606f, 0.00155731f, -0.24092431f, 0.00086845f,
    -0.02260816f, 0.02191673f, 0.39264342f, 0.00247540f, -0.10765484f, 0.05903584f, -0.22625165f, -0.21748742f,
    -0.42851821f, -0.45931795f, -0.43116897f, -0.27562067f, -0.05866219f, 0.30975708f, -0.19785690f, 0.14924262f,
    -0.64630795f, -0.21203509f, 0.48269749f, 0.07668273f, -0.12788895f, -0.40221903f, 0.37543523f, -0.31333059f,
    -0.02640705f, 0.13928552f, -0.19681185f, 0.07588708f, -0.04190899f, 0.28915170f, 0.12242327f, -0.33683860f,
    -0.09301244f, 0.00578720f, -0.22358896f, -0.01369736f, -0.20525461f, -0.13495880f, 0.04531186f, 0.15755844f,
    -0.32219437f, 0.09600151f, 0.27232289f, -0.11615055f, 0.08890235f, 0.22736491f, -0.16554520f, -0.01579648f,
    -0.24411938f, -0.11957451f, -0.24618553f, 0.21245843f, -0.30424166f, 0.05945480f, -0.21901177f, -0.10909820f,
    0.03006945f, -0.32895884f, 0.20954341f, 0.12212872f, -0.07536149f, 0.06971349f, -0.04625399f, -0.05205046f,
    -0.07676441f, -0.10086771f, 0.32423458f, 0.15956327f, 0.04548341f, -0.12729350f, -0.47445223f, -0.04860808f,
    -0.08221703f, -0.08032691f, 0.16486725f, 0.12814660f, -0.08554474f, -0.05270346f, -0.33752224f, 0.07318197f,
    -0.12480908f, 0.09529856f, 0.40189818f, 0.18612298f, -0.21737924f, 0.23039670f, 0.09560564f, 0.27576303f,
    -0.01096489f, -0.16954291f, 0.22937794f, 0.20741683f, 0.08329875f, 0.03367637f, 0.23755489f, -0.51066828f,
    0.19190286f, 0.07830525f, -0.23434751f, 0.07081161f, -0.21601555f, 0.16872688f, -0.14023507f, -0.32457575f,
    0.07604887f, -0.06131444f, 0.07339578f, 0.03792319f, 0.44373214f, -0.01887286f, -0.01272697f, -0.17786217f,
    0.14204037f, -0.40664545f, 0.05967879f, -0.14626378f, -0.04266754f, 0.28369218f, -0.12853520f, 0.14131662f,
    0.43759671f, -0.12528475f, 0.02018260f, -0.14528705f, -0.00884220f, 0.13158454f, 0.12564039f, 0.14703153f,
    0.10088462f, 0.22091907f, -0.27144194f, 0.36220580f, 0.15850745f, 0.05611684f, -0.28310925f, 0.42188564f,
    0.33494437f, 0.09349250f, 0.13052741f, 0.06873367f, -0.17384027f, 0.15143123f, -0.35361430f, -0.29004189f,
    0.17925580f, -0.21744017f, 0.07491105f, 0.12315179f, -0.19787177f, -0.11628917f, -0.41356349f, 0.16424650f,
    -0.16157770f, -0.31472015f, -0.01799239f, -0.03477604f, -0.11968281f, 0.20178075f, -0.02726321f, 0.16847603f,
    0.10666249f, 0.07136134f, 0.10143185f, -0.40403184f, -0.04070218f, -0.32951951f, 0.08208675f, 0.00036009f,
    0.48122072f, 0.00250532f, -0.33249453f, -0.12559922f, -0.04152722f, -0.15068473f, -0.34415981f, -0.29877713f,
    0.12466349f, 0.10000379f, 0.21444416f, 0.24185333f, -0.11162243f, -0.17889225f, -0.55670220f, 0.10606148f,
    -0.17610869f, -0.09467781f, 0.20995830f, 0.23327498f, 0.12121089f, -0.15589844f, 0.21896757f, 0.05924418f,
    0.11483001f, -0.09932508f, 0.07540073f, 0.31312528f, 0.14246523f, 0.07941152f, -0.09560087f, -0.36080673f,
    -0.44302619f, 0.00113526f, 0.29363024f, -0.07391433f, -0.16360818f, 0.31147152f, 0.19098185f, 0.28792071f,
    -0.15398878f, 0.04913860f, -0.26174542f, -0.31124210f, 0.26139501f, 0.16299061f, -0.17131667f, -0.12072565f,
    -0.11237430f, 0.39750022f, -0.00025436f, 0.29777756f, 0.12478512f, 0.27697572f, 0.19784279f, -0.14119749f,
    0.09367672f, -0.32731816f, 0.13538110f, 0.33199605f, -0.04525695f, 0.60547161f, 0.06794364f, -0.11500879f,
    0.03777024f, -0.31130394f, 0.09636608f, 0.07314974f, -0.08859947f, -0.03851666f, 0.20970459f, 0.01364740f,
    0.17802624f, 0.13251768f, -0.07744376f, -0.30925554f, 0.39549467f, 0.09600028f, -0.11066020f, -0.27033603f,
    0.23875092f, -0.28253934f, 0.34847185f, 0.05525476f, -0.00372959f, -0.08681423f, -0.34251773f, -0.09366986f,
    -0.04212934f, -0.04749430f, 0.07416096f, 0.28803554f, -0.37920099f, 0.32208312f, -0.04192603f, -0.26143172f,
    0.03842145f, 0.48026875f, -0.44541737f, -0.36449280f, -0.05412182f, -0.35821790f, 0.12245805f, -0.18154132f,
    0.15545240f, 0.16157205f, 0.30885410f, 0.02731024f, 0.42012501f, -0.32688391f, -0.02886830f, -0.05921163f,
    0.21115236f, 0.03966787f, -0.37034333f, 0.01927496f, -0.19227433f, -0.04067184f, 0.29332978f, 0.26997456f,
    0.04735094f, -0.10249824f, 0.11412992f, -0.01445788f, -0.08120418f, -0.05293762f, -0.28086331f, 0.16760908f,
    -0.01214532f, -0.06117059f, -0.22968450f, -0.05929763f, 0.00924293f, 0.18562634f, 0.04652982f, 0.08598256f,
    0.05270080f, 0.01630126f, 0.21107157f, 0.28869793f, 0.06878956f, -0.24092311f, 0.27144444f, -0.05823351f,
    -0.01680706f, -0.15292832f, -0.18551691f, 0.03574148f, -0.32625717f, -0.13595146f, 0.39866883f, 0.06141456f,
    -0.16261946f, -0.15520643f, 0.19479728f, -0.15375283f, -0.00728795f, 0.18005273f, -0.12387365f, 0.01273808f,
    0.20112108f, 0.13658063f, 0.16335833f, -0.11921305f, -0.01951372f, 0.05782877f, 0.14022565f, 0.10056234f,
    -0.09353403f, -0.12173218f, -0.10657898f, 0.01666197f, 0.13112727f, 0.16100444f, 0.48254892f, 0.05600550f,
    0.07808515f, -0.03364502f, 0.09975592f, 0.10880043f, -0.18498152f, 0.07318991f, -0.22516020f, 0.03898170f,
    0.29512033f, 0.24427539f, 0.16217764f, 0.13532528f, 0.19412757f, 0.59764534f, 0.09860728f, -0.09402200f,
    0.11699101f, -0.27355868f, -0.01085456f, -0.13014084f, -0.20633444f, 0.10252363f, 0.41408902f, 0.21075092f,
    0.01999646f, 0.12218051f, -0.06702879f, -0.03987573f, -0.20214787f, -0.17389596f, -0.18953775f, -0.27364594f,
    -0.09031830f, -0.18653636f, -0.08885296f, -0.17347538f, -0.16498247f, 0.22015119f, 0.24292789f, 0.19175279f,
    0.03269403f, 0.10321113f, 0.20213291f, -0.26674134f, 0.14698705f, -0.17472623f, -0.03525650f, -0.07879051f,
    0.03826945f, 0.18173046f, -0.25825843f, -0.19297454f, -0.05506656f, -0.09032692f, 0.06448022f, 0.24804144f,
    0.63409597f, 0.19424878f, 0.31529087f, -0.17463033f, -0.14717020f, -0.03396811f, 0.00844694f, 0.04240694f,
    0.64408129f, -0.06485371f, -0.25836164f, -0.12301029f, 0.06352065f, -0.04360551f, 0.01475670f, -0.28270975f,
    -0.09535244f, 0.45990607f, 0.11420380f, -0.00047589f, -0.10786070f, 0.07611170f, 0.07232197f, 0.08515292f,
    -0.00787006f, 0.21154249f, -0.29901320f, 0.45347971f, 0.31291443f, -0.02374921f, -0.01861915f, 0.23933540f,
    0.03566318f, 0.24321422f, -0.12713185f, 0.08380043f, 0.16665740f, -0.01336857f, 0.20522265f, 0.13092695f,
    -0.04225489f, -0.00374208f, -0.34438187f, -0.25535920f, -0.14399005f, -0.12388142f, -0.31523409f, -0.00796406f,
    0.27437633f, -0.26135135f, -0.03769214f, 0.06755865f, -0.47364122f, -0.20201898f, 0.09325060f, 0.20366126f,
    0.15984489f, -0.14255746f, -0.40822738f, -0.01041343f, -0.02724980f, -0.19955315f, -0.37865415f, 0.16330311f,
    -0.00136630f, 0.17001636f, -0.24806160f, -0.02566511f, -0.10788279f, 0.00790691f, -0.11357924f, 0.18855862f,
    -0.17197937f, -0.08543669f, 0.24892360f, 0.16852246f, 0.20385295f, -0.09353173f, -0.24163054f, 0.00890135f,
    -0.00902550f, 0.15235768f, 0.06184607f, -0.00421172f, 0.21452788f, -0.31144938f, -0.19146743f, -0.09754666f,
    -0.30389020f, -0.01548771f, -0.09766862f, -0.07253247f, -0.06633440f, 0.15612753f, -0.02192802f, -0.06210331f,
    -0.11027545f, -0.13652258f, -0.03403282f, 0.29783216f, -0.01573594f, 0.13500890f, -0.18627201f, 0.01776805f,
    -0.06921878f, 0.12104733f, -0.05406005f, -0.23987180f, -0.25938022f, -0.17539558f, -0.15268520f, 0.12240703f,
    -0.11712888f, -0.09538321f, -0.24456747f, -0.00202711f, -0.39415097f, -0.10214585f, -0.17197034f, 0.33729535f,
    -0.15547614f, -0.15421858f, 0.42598677f, 0.12149769f, -0.22094257f, -0.06808434f, 0.26888293f, 0.04894837f,
    -0.08242841f, -0.25655058f, 0.26238537f, -0.15344113f, 0.04236347f, 0.16028570f, 0.22565863f, -0.06664404f,
    -0.00604689f, -0.03205118f, 0.37646729f, -0.29691353f, 0.39302829f, 0.08448824f, 0.00213094f, -0.08247726f,
    0.03775937f, 0.21531121f, 0.06600142f, 0.23990381f, 0.02443805f, 0.03545713f, 0.22983909f, -0.02859100f,
    -0.01982424f, -0.13368346f, 0.14529037f, -0.03429413f, -0.21322514f, -0.02053827f, 0.08418351f, -0.26821956f,
    0.00498211f, -0.23182787f, 0.18660361f, 0.05338137f, -0.13124129f, 0.34964842f, -0.12619524f, 0.20764850f,
    0.11605256f, -0.06957293f, 0.23527165f, 0.26042941f, 0.14815538f, -0.27794686f, -0.01973871f, -0.23000224f,
    0.16122253f, 0.23757729f, 0.21782343f, 0.01263241f, -0.32958025f, 0.25393772f, -0.08430838f, 0.18802598f,
    -0.23291406f, 0.18488847f, -0.38941112f, -0.18107530f, -0.05833467f, 0.02155256f, -0.23014770f, -0.22576883f,
    -0.07412528f, -0.03619756f, 0.03067601f, -0.18763743f, -0.20370980f, -0.06344554f, 0.01129180f, 0.04249987f,
    0.09920037f, 0.14610744f, -0.40610746f, -0.06870495f, 0.44027519f, 0.35278335f, -0.24839017f, -0.16179174f,
    0.12677522f, -0.01288598f, 0.16740787f, 0.23054531f, -0.05858313f, -0.08562390f, -0.08599798f, 0.18153802f,
    0.05751270f, -0.35337335f, 0.16586153f, -0.05587933f, -0.08838715f, -0.13758162f, 0.23602386f, 0.16046007f,
    -0.24772809f, 0.13490748f, 0.00140917f, 0.09919942f, -0.05300498f, -0.13112092f, -0.32508388f, -0.12536745f,
    0.30546153f, 0.11116539f, 0.08937638f, -0.02064779f, -0.02458160f, -0.09382997f, 0.07950439f, 0.00200362f,
    -0.56773853f, -0.51320076f, -0.20127004f, 0.06136574f, 0.43485567f, 0.15401907f, 0.00120373f, -0.03211711f,
    0.11061230f, -0.02771490f, 0.05639001f, 0.40263459f, -0.13650095f, -0.43343493f, 0.14043829f, -0.33386099f,
    0.29401988f, 0.27539247f, 0.01452528f, 0.25350064f, 0.00347575f, -0.12353618f, -0.31370875f, -0.04082303f,
    0.15519321f, -0.05998662f, -0.20623811f, -0.26452550f, 0.11239117f, -0.26973155f, -0.08949921f, 0.24656206f
};

// /* [3] float32 */
static const float cls_head_6_bias[3] = {
    -0.00154263f, 0.03001729f, -0.02333714f
};

// /* [3 × 24] → transposed to [24 × 3] float32 */
static const float cls_head_6_weight[72] = {
    0.42891109f, 0.28157157f, -0.09195263f, 0.51367360f, 0.50142068f, -0.08249971f, 0.54635602f, -0.11802743f,
    -0.09882551f, 0.40433589f, 0.10527741f, -0.05979658f, -0.25107935f, -0.16891600f, -0.17784756f, 0.02101426f,
    0.46285620f, -0.36456794f, -0.18665685f, -0.09200615f, 0.16893345f, 0.27519426f, -0.03137242f, 0.41151720f,
    -0.24200778f, 0.29829875f, -0.16050021f, 0.09224740f, 0.37544489f, 0.07115773f, 0.01695338f, -0.26990622f,
    0.14133678f, -0.05819736f, -0.24978052f, -0.45257953f, -0.22914149f, -0.22984548f, -0.03597254f, -0.06669001f,
    -0.22566316f, -0.38098618f, -0.51129234f, -0.56860363f, 0.10794678f, 0.23978591f, 0.03944518f, -0.16630414f,
    -0.45879981f, -0.02156051f, -0.08027080f, -0.40140280f, -0.55109221f, 0.27024120f, 0.29028964f, -0.02328189f,
    0.07490517f, 0.46208268f, 0.30173919f, 0.28806365f, -0.05869393f, -0.10449318f, -0.49603376f, -0.08557005f,
    -0.16381413f, 0.03333987f, 0.05786671f, 0.16855419f, 0.36936510f, -0.51433712f, 0.03525840f, -0.28719473f
};

// /* [16 × 2 × 7] float32 */
static const float onnx__Conv_190[224] = {
    -1.15251088f, 0.38245213f, 0.14720331f, -0.58553886f, 0.21554570f, 0.77437437f, -0.46227214f, 0.27428430f,
    0.19978561f, 0.04336892f, 0.10578147f, -0.72493780f, -0.47983220f, -0.36652780f, -0.72903430f, 0.50166893f,
    -0.15151580f, -0.01988027f, 0.42097199f, -0.10498172f, -1.03198004f, -0.02909901f, 1.21583450f, -0.75890827f,
    0.66294646f, -0.18452820f, -0.56759578f, 0.31623060f, -0.37030986f, -0.44302729f, -0.34667218f, -0.21979211f,
    -0.33633313f, 0.49056923f, 0.36641106f, -0.30337510f, 0.28863713f, -0.28734529f, 0.19985205f, 0.20273647f,
    -0.55715710f, -0.24925597f, -0.41874391f, 0.16437490f, 0.32680503f, 0.01817532f, -0.26904017f, -0.30135116f,
    -0.10214318f, -0.17470166f, 0.74180400f, 0.26511866f, -0.22687356f, -0.45124546f, -0.77382934f, -0.38955235f,
    0.61937743f, 0.48908404f, -0.55654556f, -0.48610708f, 0.14809813f, 0.71233505f, 0.19840162f, -0.29099306f,
    -0.28629622f, 0.55000436f, -0.21573681f, 0.06692602f, -0.03890066f, 0.44713166f, -0.20289235f, 0.39840651f,
    0.81189585f, 1.03617620f, -0.41420460f, -0.49040186f, -0.81852722f, -0.09801213f, 0.73303306f, 0.08768336f,
    -0.08415069f, 0.45856819f, -0.87314546f, 0.76822382f, 0.90390891f, 0.28829557f, -0.06467800f, 0.25455359f,
    -0.24097930f, -0.58716303f, 0.60429370f, -0.27797666f, -0.87493122f, -0.09025674f, 0.21902741f, 0.09235673f,
    0.02814029f, 0.22431891f, -1.01882577f, -0.06707509f, 0.20679718f, -0.31716320f, 0.44605973f, 0.36342302f,
    -0.13206318f, 0.29967430f, -0.25001025f, -0.43301883f, -0.52033907f, -0.41426125f, 0.39519557f, -0.40554926f,
    0.71783733f, 0.18861477f, 0.35549390f, 0.37695360f, 0.57575893f, -1.03467441f, -0.22633414f, -0.23921128f,
    -0.38744622f, -0.28735581f, -0.27790362f, -0.19659513f, -0.21877097f, -0.06174254f, -0.21108116f, 0.12533082f,
    -0.24854624f, -0.13303508f, 0.52112895f, -0.07692856f, 0.02399107f, -0.32113507f, -0.13105153f, -0.94035643f,
    -0.05685414f, 0.10549596f, -0.28036976f, -0.40800625f, -0.10754157f, 0.24797221f, 0.01915293f, 0.40433344f,
    0.05084753f, 0.24638990f, -0.02756472f, -0.24292563f, 0.35676497f, -0.10974333f, 0.15741523f, 0.01910896f,
    0.17717622f, 0.49925822f, 0.57568771f, -0.46831635f, -0.44877264f, -0.29706949f, -0.29632470f, -0.18201080f,
    0.47906080f, 0.35227033f, -0.06314813f, -0.12591524f, -0.01156330f, -0.32024008f, -0.40030730f, -0.50415581f,
    -0.02176297f, 0.06444751f, -0.32113811f, -0.11031224f, -0.31454983f, -0.41526240f, -0.05493128f, 0.03738826f,
    -0.39946502f, 0.17253068f, 0.02517967f, -0.07536914f, 0.08666717f, 0.29075465f, -0.14478360f, -0.25403419f,
    -0.22930846f, -0.03371001f, -0.16204940f, -0.50524038f, 0.26093987f, 0.18479896f, -0.04171504f, -0.12450051f,
    0.12143140f, -0.10891773f, -0.14110520f, -0.25387079f, 0.20983712f, -0.29147646f, -0.76086801f, 0.42980871f,
    0.33770373f, -0.51017582f, 0.52394789f, -1.37094760f, 2.13585424f, -1.21861041f, -0.00241459f, 0.15183282f,
    0.12254833f, 0.72564363f, -0.33972061f, 0.27114099f, -0.68683493f, 0.22152732f, 0.29153597f, -0.01510567f,
    -0.55861586f, -0.45623147f, -0.65628386f, 0.05559860f, 0.04038931f, 0.40098843f, 0.24654290f, -0.37513843f
};

// /* [16] float32 */
static const float onnx__Conv_191[16] = {
    0.02002827f, -0.08180894f, -0.02479809f, 0.06127596f, -0.03919600f, 0.03482970f, 0.01907305f, -0.00246613f,
    0.04196759f, 0.02515416f, 0.05755555f, -0.04183447f, -0.03118646f, 0.02186859f, 0.04012919f, 0.03608524f
};

// /* [16 × 16 × 7] float32 */
static const float onnx__Conv_193[1792] = {
    -0.08768584f, 0.21516159f, -0.38789481f, -0.22228844f, -0.23533243f, 0.13015191f, -0.02178947f, -0.07636520f,
    0.27973476f, 0.13594264f, -0.05659402f, 0.27933648f, 0.14803796f, 0.01731846f, 0.20044589f, -0.28303304f,
    -0.13791326f, -0.05256831f, 0.17120147f, 0.06703792f, -0.08565775f, 0.11570885f, -0.13964194f, -0.21414819f,
    -0.07996452f, -0.08574189f, 0.01597658f, -0.26667231f, -0.02964054f, -0.16168582f, -0.02783844f, -0.30272344f,
    0.01086155f, 0.17904434f, -0.17370026f, 0.04124812f, -0.14279689f, -0.25299552f, 0.32522362f, 0.22344211f,
    0.16226414f, 0.00665111f, 0.18515491f, 0.01006645f, -0.21231122f, -0.26863295f, -0.09935009f, -0.20545049f,
    -0.01527322f, 0.02881766f, 0.05615301f, 0.07091993f, -0.14771466f, 0.04938646f, -0.12136085f, -0.18340939f,
    -0.10981676f, -0.30981815f, 0.07699832f, -0.03399615f, 0.09813312f, 0.27659276f, -0.06022365f, 0.10409153f,
    0.02970757f, 0.02423387f, -0.09845486f, -0.04096980f, -0.03126032f, -0.25632674f, -0.11724976f, -0.02445916f,
    0.02199746f, -0.12843117f, -0.04306273f, -0.04509775f, -0.03373651f, 0.12435745f, 0.23314695f, -0.00792216f,
    -0.03532878f, 0.04286356f, 0.02984677f, 0.05758816f, -0.19154280f, 0.11049478f, -0.13527705f, -0.28385854f,
    0.14545381f, -0.19998124f, -0.10232491f, 0.25510821f, 0.21490784f, 0.04947957f, -0.16643877f, -0.12002955f,
    0.08244696f, -0.17954041f, -0.10039610f, -0.09540533f, -0.09068009f, 0.08792085f, -0.07327788f, 0.16583197f,
    0.04915861f, -0.21929073f, 0.02669759f, -0.27587119f, 0.17613085f, -0.07176089f, 0.28720072f, -0.10891231f,
    0.11392009f, -0.19185697f, -0.14542556f, -0.04097461f, 0.01667151f, -0.00174625f, -0.09135563f, 0.12664430f,
    -0.00109783f, -0.33437896f, -0.04283662f, 0.10312778f, -0.11330220f, -0.13004324f, -0.30338779f, 0.02675203f,
    -0.15927051f, 0.08735661f, 0.00200994f, 0.06360799f, -0.05011077f, 0.10733230f, 0.08809751f, -0.06188164f,
    -0.05286254f, -0.07142866f, -0.11366662f, 0.04059946f, -0.02803448f, -0.18048936f, -0.17353848f, 0.00384451f,
    0.01581511f, -0.15049668f, -0.25444704f, -0.17079607f, 0.31826621f, 0.12377168f, -0.13677162f, -0.26856378f,
    -0.15654321f, -0.23504116f, 0.04987546f, 0.11452419f, -0.26498455f, -0.20927116f, -0.08390664f, 0.46075577f,
    -0.08938745f, 0.03174327f, 0.17254575f, 0.15674908f, -0.04888192f, -0.03489557f, 0.02787277f, 0.08868982f,
    0.34505591f, -0.11428962f, -0.28369269f, 0.03396432f, 0.15906450f, -0.14309698f, -0.17838830f, 0.04737656f,
    -0.04730545f, -0.19269034f, 0.00302875f, 0.26322132f, 0.41047373f, -0.11975586f, -0.12988703f, 0.01403373f,
    -0.15574004f, 0.15443319f, 0.17782889f, 0.11200639f, -0.11101329f, -0.22799401f, 0.00134789f, -0.11825997f,
    0.04358365f, -0.22434627f, 0.05962024f, -0.00114250f, 0.13933326f, -0.11062077f, -0.19760270f, -0.25677356f,
    0.04747433f, 0.14783280f, -0.00151658f, -0.23564635f, 0.03361213f, -0.05928919f, -0.10861707f, -0.06899583f,
    -0.08791251f, 0.10712148f, -0.21020234f, 0.36734229f, 0.18094179f, 0.15178537f, 0.18094350f, 0.03746005f,
    -0.19636108f, 0.34167609f, -0.06397822f, 0.00054209f, -0.04403038f, 0.04546581f, 0.17572783f, -0.00023900f,
    0.20367859f, 0.23228955f, -0.16672046f, 0.14435287f, -0.33448109f, 0.11667974f, -0.09753139f, -0.27868018f,
    -0.39020625f, 0.29882681f, 0.08767858f, 0.20798261f, -0.05940967f, 0.10844573f, 0.38619035f, -0.09406752f,
    -0.36861852f, -0.28812528f, 0.07932185f, -0.14152108f, 0.11516134f, -0.14194344f, -0.24342136f, -0.09773725f,
    0.28825364f, 0.33134729f, 0.00026045f, 0.24406035f, -0.03883599f, 0.29242843f, -0.18181674f, 0.01665151f,
    0.44426003f, -0.14419112f, 0.10788996f, 0.25310585f, 0.28734988f, -0.18405823f, -0.15440618f, 0.00730632f,
    0.01443991f, -0.04505404f, -0.08629623f, 0.07525704f, -0.12367832f, 0.02092250f, -0.21545687f, -0.02174269f,
    0.08442140f, -0.23690768f, 0.05209855f, -0.05847168f, -0.25763509f, 0.10674417f, 0.08373004f, 0.07446641f,
    -0.04850692f, 0.23939294f, 0.12150411f, -0.11688227f, 0.02184470f, -0.00474662f, -0.17328130f, -0.04511502f,
    0.06112808f, 0.10430826f, 0.03563793f, -0.07478850f, -0.10500832f, 0.18161441f, -0.09872779f, 0.07243156f,
    0.10215702f, -0.12144101f, -0.18985881f, 0.10615554f, 0.19608435f, 0.47620133f, 0.18481638f, -0.19941826f,
    0.17522360f, -0.00454857f, -0.14288174f, -0.35088161f, -0.24844483f, -0.04410903f, 0.00171050f, 0.12794252f,
    -0.24329279f, -0.33172715f, 0.20467432f, 0.08739556f, -0.12664147f, -0.10266540f, -0.02414316f, -0.32457349f,
    0.33191544f, -0.02958911f, 0.30399093f, 0.03564054f, 0.13042510f, 0.00083096f, 0.15257162f, 0.17884135f,
    0.33828908f, 0.20425126f, 0.27332571f, -0.09041274f, 0.19037783f, 0.08708533f, 0.03133116f, 0.08214238f,
    -0.18034604f, 0.06792548f, -0.06237467f, 0.08206504f, -0.17774847f, -0.01362476f, 0.09505502f, 0.03505971f,
    -0.02815956f, 0.06569242f, 0.03933708f, 0.00432259f, 0.06273471f, -0.06130888f, -0.14352874f, 0.14562184f,
    0.04273240f, -0.11239442f, -0.12592618f, -0.04910971f, 0.04615779f, -0.10111693f, -0.04009458f, -0.00010673f,
    -0.04407546f, -0.03114274f, -0.01622840f, -0.02635942f, -0.11368734f, 0.02920968f, -0.11514281f, -0.04521861f,
    -0.13353668f, -0.02590080f, -0.14837500f, -0.05759250f, 0.17472771f, 0.09400718f, 0.10118829f, -0.06384087f,
    0.03101365f, -0.02565800f, 0.01933051f, -0.09841095f, 0.01154038f, -0.03385570f, 0.07214725f, -0.14341265f,
    -0.08497486f, -0.08675902f, 0.00195272f, 0.00427739f, 0.03614049f, -0.01787984f, -0.05227384f, -0.03140305f,
    -0.04056760f, 0.06600517f, -0.13105823f, 0.07302333f, -0.17713280f, -0.09855318f, -0.14408214f, -0.10923654f,
    0.00127783f, -0.04212019f, 0.02618826f, -0.16757566f, -0.09705114f, -0.03147009f, -0.14998643f, 0.05386045f,
    -0.00183062f, -0.05545587f, -0.01108496f, -0.09833789f, -0.07087616f, -0.02846435f, 0.07835469f, -0.05274740f,
    -0.29423845f, -0.06600932f, 0.04207190f, 0.05127623f, -0.02568187f, 0.06629335f, 0.09207948f, -0.04837351f,
    -0.18289562f, 0.07474924f, -0.08547951f, 0.06619125f, -0.24163741f, 0.03194157f, -0.00649554f, -0.07251263f,
    0.01837522f, -0.09464539f, 0.09006867f, 0.03352821f, 0.08432568f, 0.12995234f, -0.07800834f, -0.00153759f,
    -0.08728938f, -0.00313980f, -0.00456045f, -0.10888197f, -0.03095074f, 0.18782456f, 0.08659516f, -0.31092486f,
    -0.28841189f, -0.24841461f, 0.04824468f, -0.34723923f, -0.09478637f, -0.04950038f, 0.10590929f, 0.02168567f,
    0.17149210f, -0.19205312f, 0.17098726f, -0.22205183f, 0.14254993f, -0.07779437f, -0.03927044f, 0.17531352f,
    -0.16706471f, -0.12190614f, -0.05620262f, 0.26215059f, 0.18820626f, -0.02863415f, 0.01150131f, -0.24444456f,
    0.10559824f, -0.00645733f, -0.20869292f, -0.51981276f, -0.20521289f, -0.14424843f, -0.21579193f, 0.25261635f,
    -0.04193600f, -0.05978288f, -0.16857356f, -0.12993388f, -0.00090033f, -0.13017641f, -0.08236979f, -0.13793817f,
    -0.08394234f, -0.45488641f, 0.28278118f, -0.00766395f, 0.06214643f, -0.09414057f, -0.18197110f, 0.03334489f,
    0.10578509f, -0.03925855f, 0.25735345f, -0.01393756f, 0.26883161f, -0.09643909f, -0.07818854f, 0.04995810f,
    0.02337369f, 0.04324744f, -0.14992543f, 0.15010172f, 0.02042377f, 0.14284497f, 0.10661007f, -0.33064732f,
    -0.03919770f, -0.05228444f, -0.14423347f, -0.14352345f, -0.15692155f, -0.10223838f, -0.26518354f, 0.06706219f,
    0.23280740f, 0.07871629f, 0.13577537f, -0.01705856f, 0.13407345f, 0.16699457f, 0.10162216f, -0.07064877f,
    0.21885540f, 0.09528162f, -0.27041796f, 0.17416510f, 0.12626813f, -0.20875293f, 0.15549576f, 0.16224982f,
    0.03358210f, 0.04552989f, -0.04450678f, -0.15752164f, -0.11633190f, -0.21545871f, -0.17201926f, -0.12319359f,
    -0.11057272f, 0.10430488f, -0.20931058f, 0.05118874f, -0.00934878f, -0.22490123f, -0.15037321f, -0.05756271f,
    0.15974432f, -0.08222538f, -0.01237315f, 0.05571521f, 0.18842810f, -0.21216127f, -0.02923392f, -0.11658341f,
    0.21318661f, 0.02274420f, 0.28185141f, 0.13023372f, -0.33668083f, -0.00075279f, -0.44365305f, 0.16565512f,
    -0.10630234f, -0.18483429f, -0.22677261f, -0.06930384f, 0.22481015f, -0.35036871f, -0.03866316f, 0.23875618f,
    -0.10732911f, 0.06089868f, -0.18376915f, 0.15602337f, 0.13403253f, -0.14244352f, 0.10516862f, 0.02087598f,
    0.14715983f, 0.17024954f, -0.09472336f, -0.49975887f, -0.23419413f, 0.50789434f, -0.25373110f, -0.03879035f,
    0.10044084f, 0.00135731f, 0.04422077f, -0.28415048f, 0.21329972f, -0.13490161f, 0.01731845f, 0.36709937f,
    0.05942271f, 0.01642213f, -0.04938973f, -0.41395551f, -0.24627887f, -0.02618198f, 0.11517935f, -0.15491042f,
    0.09505437f, -0.29754660f, 0.15573676f, 0.03624253f, -0.02526634f, -0.21806346f, 0.08839951f, -0.28909221f,
    0.10522767f, 0.05731659f, 0.15905899f, 0.04687840f, -0.10877933f, 0.37445077f, 0.17014112f, -0.27311257f,
    -0.17383815f, 0.00559919f, -0.18477041f, 0.06580026f, 0.12480951f, -0.08418318f, 0.10274334f, 0.09108178f,
    0.14865817f, 0.23784745f, -0.03858849f, -0.02995579f, 0.06099102f, 0.15589298f, 0.13554139f, -0.32755342f,
    0.18696891f, 0.10106800f, 0.25866321f, 0.01965684f, -0.29606906f, 0.15504269f, 0.00901614f, -0.01875032f,
    0.25085688f, -0.05648423f, -0.40364459f, -0.20345898f, -0.04770743f, -0.12971810f, 0.03100328f, 0.30353275f,
    0.04688116f, 0.26163030f, -0.18835132f, -0.00463052f, 0.02673997f, -0.24963212f, 0.03557321f, 0.27424315f,
    -0.26132503f, -0.08992198f, 0.01664042f, 0.08407062f, 0.01178563f, 0.06557960f, 0.04526427f, -0.16720444f,
    -0.16811211f, -0.16384134f, -0.29560947f, 0.15536712f, -0.03516927f, -0.04715363f, 0.13559259f, 0.09194171f,
    -0.03105874f, -0.18564118f, 0.11976811f, 0.26711801f, -0.15436983f, -0.35434186f, -0.06124132f, -0.27197036f,
    0.27416098f, -0.07303717f, 0.03248289f, 0.03913720f, -0.03673895f, 0.00882357f, -0.31863409f, 0.06295419f,
    -0.26067132f, -0.26788121f, -0.48838136f, 0.12071756f, -0.26221189f, -0.01619791f, 0.10205479f, -0.10299677f,
    0.20564799f, -0.41284499f, 0.07285206f, 0.24443361f, 0.02298574f, 0.11652309f, 0.13861115f, -0.45701951f,
    -0.01955350f, -0.22176865f, 0.24455570f, 0.24217847f, 0.13478671f, 0.03688715f, -0.15543905f, -0.36407575f,
    0.15210557f, 0.24283533f, -0.49396753f, 0.38268903f, 0.32521212f, 0.15377764f, -0.16305469f, 0.02693287f,
    0.19562815f, -0.08658436f, -0.33476907f, -0.10890882f, -0.29106551f, -0.32782996f, 0.28690928f, 0.15765443f,
    0.00494889f, 0.12456872f, -0.20169574f, 0.16352144f, -0.22551627f, 0.46423042f, 0.36830136f, -0.19502138f,
    -0.14116254f, 0.07987931f, 0.13060258f, -0.00181203f, -0.12905052f, -0.01714279f, -0.07832678f, -0.01047800f,
    0.20952399f, 0.25359371f, -0.02680059f, -0.14166242f, -0.06345596f, -0.10634843f, 0.31076065f, -0.00683291f,
    -0.07919665f, 0.35390377f, -0.11869114f, 0.16929959f, -0.10682689f, -0.09227521f, 0.17075028f, 0.01836335f,
    0.03347734f, -0.02494585f, -0.17685372f, -0.33910927f, 0.04347273f, -0.17353448f, 0.21280354f, 0.34452373f,
    -0.02735165f, -0.04693811f, 0.22876196f, 0.01828128f, -0.37800178f, 0.14511701f, -0.28144461f, -0.11963481f,
    0.28159112f, 0.49888113f, 0.17675491f, -0.74144179f, 0.72607267f, -0.23386869f, -0.35368121f, -0.31276983f,
    0.18516026f, -0.02780090f, -0.11279973f, -0.29456255f, -0.06038625f, -0.06058484f, 0.04023853f, -0.00995035f,
    -0.31403178f, -0.05697039f, -0.09334569f, 0.41064897f, 0.03278162f, 0.54354274f, 0.19182685f, 0.25925454f,
    -0.11237545f, -0.26973706f, 0.04797363f, 0.26683545f, -0.09787612f, 0.04494900f, -0.03384585f, 0.25519517f,
    -0.47029838f, -0.31649607f, 0.15034880f, 0.02192925f, 0.14349183f, -0.06331491f, 0.16164581f, 0.05695248f,
    -0.14242455f, -0.22066884f, -0.06894430f, 0.13323759f, 0.03242428f, -0.02055998f, 0.48034102f, 0.09967052f,
    0.30908433f, -0.06171362f, -0.02478246f, 0.05775140f, -0.24282144f, -0.16419855f, -0.18278602f, 0.18971777f,
    -0.13785654f, 0.36623371f, 0.32814690f, -0.02783818f, -0.23895395f, -0.39162916f, -0.03253576f, 0.10176199f,
    0.14625846f, -0.19625039f, -0.06563420f, -0.30277643f, -0.21023257f, -0.04712666f, 0.39453417f, -0.12507385f,
    -0.28875515f, -0.17420276f, -0.13709667f, -0.13147470f, 0.32247937f, 0.03465327f, -0.19952908f, -0.58536965f,
    0.24314649f, 0.00811690f, 0.38096720f, 0.12738869f, -0.44729227f, -0.10014580f, 0.04014474f, -0.12008180f,
    0.29380429f, -0.03693988f, -0.11832005f, 0.62972099f, 0.17641149f, 0.67072201f, -0.47046417f, -0.23774467f,
    -0.01854963f, -0.26991349f, 0.02436175f, -0.28171328f, -0.09901389f, 0.28073221f, 0.14726317f, 0.22959945f,
    -0.09255232f, -0.52467841f, 0.11105844f, -0.13584338f, 0.13134335f, -0.26081264f, -0.16436769f, -0.32911423f,
    0.02909285f, -0.02745291f, 0.09880603f, -0.21789077f, -0.05000665f, 0.18244603f, -0.17146693f, -0.00675663f,
    -0.05107200f, -0.00632180f, -0.19076623f, -0.31447142f, 0.14274544f, 0.37700006f, -0.17344822f, -0.44223791f,
    0.04136669f, -0.18512174f, -0.27163488f, -0.07732517f, -0.14475484f, 0.19141531f, -0.05950223f, -0.22474757f,
    -0.24690898f, 0.15217930f, 0.29103610f, -0.26717439f, -0.05189575f, 0.03494256f, -0.31721684f, 0.09086479f,
    0.11806623f, -0.17933771f, -0.00716348f, 0.19638076f, -0.21627581f, 0.21313472f, -0.02917360f, 0.02002010f,
    -0.02287000f, -0.04241843f, -0.10109483f, -0.06029708f, 0.18964204f, 0.11951321f, -0.43403947f, 0.02098679f,
    0.06194404f, -0.18264616f, 0.10087572f, 0.18478867f, 0.48928365f, 0.20474049f, -0.28689936f, -0.16051517f,
    0.25921977f, 0.23987219f, -0.07116574f, -0.08765571f, -0.16436313f, 0.09364568f, 0.09983384f, -0.33746451f,
    0.17390500f, 0.30607274f, -0.60803503f, 0.06195669f, 0.01744052f, 0.22818260f, 0.11885586f, 0.32535088f,
    -0.03431170f, -0.16275020f, -0.29433078f, 0.09994742f, 0.01401664f, 0.27219975f, 0.12164789f, -0.19703530f,
    -0.23332949f, -0.11150613f, -0.09378969f, -0.10391195f, -0.04990026f, -0.11606080f, -0.02931094f, -0.14596078f,
    -0.12977739f, -0.47701511f, 0.30475426f, 0.36850479f, 0.39519554f, -0.04803614f, -0.33689940f, 0.03576538f,
    0.03434290f, 0.14893021f, 0.21357296f, 0.05100542f, 0.43634593f, -0.32785743f, 0.03084319f, 0.22913037f,
    -0.07020462f, -0.26337063f, -0.32374111f, 0.15227883f, -0.20663446f, -0.37959445f, -0.01023009f, 0.31756607f,
    0.38281140f, 0.22809908f, 0.41431531f, 0.27782643f, -0.23550484f, -0.30163032f, -0.17696002f, 0.04644234f,
    -0.07967174f, -0.24548702f, 0.21801797f, -0.17242748f, -0.32076967f, -0.19448234f, 0.31874278f, -0.22419673f,
    0.26760411f, 0.09705648f, 0.15670916f, 0.25324798f, 0.06216019f, 0.28691259f, 0.31709662f, 0.52019703f,
    0.09436635f, 0.20357504f, -0.24821375f, -0.10805093f, -0.10861108f, 0.42012921f, 0.06832382f, 0.34616292f,
    -0.21971224f, -0.22131391f, -0.25936413f, -0.28974408f, -0.11761528f, -0.15634790f, -0.04291848f, -0.15514006f,
    -0.09039725f, -0.03181023f, -0.11417723f, 0.34854448f, -0.35870370f, 0.32191551f, -0.06974365f, 0.00766452f,
    -0.24372867f, -0.48646075f, 0.22793627f, 0.20793352f, 0.04271968f, -0.07036965f, -0.00260949f, 0.00228174f,
    -0.16783515f, 0.04552859f, 0.18339685f, 0.42131934f, -0.02312894f, -0.14936574f, 0.05723580f, -0.20973566f,
    -0.38272321f, -0.17077681f, 0.22060542f, -0.08779554f, -0.12261393f, -0.18455663f, -0.43950704f, 0.27629322f,
    -0.07826498f, 0.20565209f, 0.07133775f, -0.08859319f, 0.21819291f, 0.00648760f, 0.21314785f, 0.12948729f,
    0.14526373f, 0.15273789f, -0.25992757f, 0.12061819f, 0.18502557f, -0.30125880f, -0.04494434f, -0.27943403f,
    0.17793870f, 0.03161234f, -0.27869183f, -0.07511432f, 0.01373939f, 0.00530095f, -0.05478534f, -0.17488916f,
    -0.11529293f, -0.14601335f, 0.01457749f, -0.20744826f, 0.16292472f, -0.68285483f, -0.19643418f, 0.13344626f,
    -0.03730740f, 0.06245540f, 0.05131619f, 0.21744767f, -0.00479728f, 0.18344283f, -0.14680722f, 0.15403375f,
    -0.11819307f, 0.21648243f, 0.35291004f, -0.00466705f, -0.11315063f, -0.02958011f, 0.01549544f, 0.30871639f,
    -0.17021276f, 0.01282521f, -0.21026962f, 0.05828541f, -0.06248379f, 0.26735699f, -0.12225545f, -0.34667906f,
    -0.21633720f, 0.00325782f, 0.04685834f, -0.20070632f, 0.08900087f, 0.03403659f, -0.26532304f, 0.01247412f,
    -0.01092921f, 0.17283754f, 0.04426320f, -0.13802053f, 0.09027417f, 0.34772754f, -0.10854167f, -0.29800078f,
    0.06241389f, -0.10473020f, -0.13015459f, -0.32945991f, -0.30664283f, 0.07097687f, -0.09405266f, 0.07973275f,
    0.05888459f, -0.05163000f, 0.29563272f, 0.00037685f, -0.02585465f, 0.11975550f, -0.24772607f, -0.10686222f,
    -0.39846215f, -0.24707414f, -0.09568074f, -0.12658700f, 0.03427418f, -0.32306594f, 0.15620677f, -0.25671381f,
    0.21906918f, 0.29200542f, 0.32664040f, 0.27188000f, 0.03812656f, -0.26407921f, -0.24160397f, 0.34777820f,
    0.02333508f, -0.12492791f, -0.07487361f, -0.08758540f, -0.42862245f, 0.00725387f, 0.06040899f, 0.08815612f,
    -0.21596643f, -0.11636368f, -0.03355996f, 0.22043739f, 0.07151388f, -0.31526721f, -0.02897888f, -0.06594425f,
    0.09138609f, -0.09939113f, 0.00510174f, -0.00116123f, -0.11444337f, 0.35032737f, -0.20280682f, -0.17109065f,
    -0.05595839f, -0.11872259f, 0.01066160f, 0.14411005f, 0.13001612f, 0.25918198f, -0.17115544f, 0.29121888f,
    -0.03511423f, 0.24848211f, 0.10447022f, -0.03567989f, 0.03189569f, -0.08320981f, -0.29624167f, 0.05391565f,
    0.25112954f, 0.15365195f, 0.18842144f, 0.09305444f, 0.05744126f, -0.28809834f, -0.03197343f, -0.45348069f,
    -0.08270521f, -0.03227642f, -0.03509162f, -0.28277636f, -0.40430441f, 0.11580296f, -0.33569747f, -0.18985884f,
    -0.08300010f, 0.13476418f, 0.16324359f, 0.29136273f, -0.08826588f, -0.00615705f, -0.25364742f, -0.10727604f,
    0.14479432f, 0.04067649f, -0.15504213f, 0.19989069f, -0.03917020f, 0.02004751f, -0.29413095f, -0.02002167f,
    0.29466373f, -0.20729767f, -0.11069563f, 0.15320030f, 0.12973295f, 0.07357576f, -0.19070502f, 0.17776714f,
    0.15132828f, 0.11478875f, 0.27265540f, -0.05882553f, -0.19060329f, -0.31003451f, 0.04726611f, -0.03235693f,
    -0.10874850f, -0.25626522f, -0.20282993f, -0.18596396f, -0.10835153f, 0.00545033f, -0.20218515f, 0.17447956f,
    0.12699689f, 0.01667285f, -0.35337520f, -0.32683200f, 0.03677528f, 0.03670215f, -0.07164809f, -0.09715276f,
    -0.04224590f, -0.28338826f, -0.14699219f, -0.11342595f, 0.03667997f, -0.30666772f, 0.15012743f, 0.01378461f,
    -0.09317271f, 0.26121002f, -0.15644161f, 0.08758256f, -0.06911290f, -0.02203007f, 0.22269115f, 0.11858606f,
    -0.17201889f, -0.15736693f, 0.17811643f, -0.27767900f, 0.04313274f, 0.03141751f, -0.06706987f, -0.04068856f,
    -0.17693441f, 0.06450516f, 0.14116967f, -0.32283011f, 0.06458488f, -0.17953503f, 0.00199784f, -0.01267039f,
    0.10375652f, 0.00781281f, 0.23997274f, -0.16875817f, -0.10505831f, -0.13424543f, 0.04095501f, -0.02052570f,
    -0.10202261f, -0.04978356f, -0.14847009f, 0.37801409f, 0.12231375f, 0.16651978f, -0.00276088f, -0.17739309f,
    -0.39586449f, 0.01907666f, 0.02122718f, 0.02329173f, -0.07667376f, -0.10692236f, -0.11918908f, 0.03390319f,
    -0.08216166f, -0.03040180f, -0.06268214f, 0.06125540f, -0.14694102f, -0.22822866f, -0.00093121f, -0.14858840f,
    0.04400385f, 0.10054226f, 0.04804970f, -0.15155336f, 0.12980399f, -0.38453019f, -0.00324847f, 0.03307058f,
    0.03020829f, 0.13385980f, -0.21508150f, 0.06982640f, -0.02502592f, 0.09518553f, 0.12795839f, -0.43855283f,
    -0.09468061f, 0.04706680f, 0.02118060f, 0.29251564f, 0.14687370f, -0.33641732f, 0.08454698f, -0.10298648f,
    0.07577974f, 0.33414701f, 0.17491680f, -0.14151995f, -0.18582399f, -0.46979165f, -0.15157558f, -0.01003806f,
    -0.20101945f, -0.11733222f, 0.18594842f, -0.07235860f, 0.07843198f, -0.14038154f, -0.25000870f, -0.09117476f,
    -0.13722591f, 0.18277833f, -0.03397862f, 0.00553635f, -0.04669402f, 0.14126216f, 0.22406310f, -0.17940883f,
    0.08691231f, 0.22537954f, 0.15333368f, -0.17364322f, 0.11104634f, -0.07703626f, -0.13402781f, 0.19980791f,
    0.01960917f, -0.00556165f, 0.53436023f, -0.14508499f, 0.07913509f, -0.22031535f, -0.15654188f, 0.12734258f,
    -0.11729018f, 0.08810019f, 0.06021715f, -0.19033770f, 0.07368294f, -0.05702475f, 0.02509882f, 0.07203761f,
    0.15602036f, 0.19389792f, 0.12617415f, 0.00058989f, 0.06706716f, -0.15563193f, 0.15108812f, 0.27455947f,
    -0.06235171f, -0.07107587f, 0.14394727f, -0.09032892f, -0.11815289f, -0.26256749f, -0.20251760f, -0.30689457f,
    -0.03428417f, -0.00432665f, 0.03678110f, -0.14622046f, 0.07031871f, -0.01232304f, -0.20396686f, -0.17678992f,
    0.00813130f, 0.00235461f, 0.02279540f, -0.00056971f, -0.01428298f, 0.01798259f, 0.09701931f, 0.16171449f,
    -0.13700971f, -0.01516715f, 0.06065313f, -0.14633621f, 0.04208134f, -0.17640921f, -0.02565871f, -0.15261726f,
    -0.10960862f, 0.16533914f, 0.26645756f, -0.09536373f, -0.13507871f, -0.32851329f, 0.08000536f, 0.19591425f,
    -0.16836134f, -0.04879767f, -0.39341679f, 0.08328393f, 0.07361185f, -0.05282729f, -0.28343341f, 0.22326532f,
    0.34607619f, 0.16150501f, -0.23662657f, -0.05748526f, 0.18159685f, -0.09934532f, -0.00719376f, -0.13770324f,
    -0.03270440f, -0.03110084f, -0.01522619f, -0.05855519f, -0.09839603f, -0.27633321f, -0.20738500f, 0.45192873f,
    0.03049522f, 0.26099589f, 0.10755859f, 0.05592586f, -0.07486000f, 0.02792957f, 0.00251912f, 0.12194718f,
    0.00376697f, 0.18301761f, 0.13897565f, 0.08649756f, -0.11850714f, 0.19681582f, -0.30289480f, 0.03933419f,
    -0.24894820f, 0.21383353f, -0.07360502f, -0.34309435f, -0.02673825f, 0.17458439f, 0.03934829f, 0.21556225f,
    -0.11527878f, 0.11252214f, 0.04258974f, -0.08164800f, 0.43299234f, -0.21436493f, 0.21693772f, -0.22842130f,
    -0.01757530f, -0.42662448f, -0.27894205f, -0.07999906f, -0.04222183f, 0.17818217f, -0.16334666f, -0.02911827f,
    0.04015384f, -0.32626003f, -0.20302927f, 0.08904359f, 0.04724894f, -0.13456737f, -0.08485766f, -0.13778059f,
    -0.06020894f, -0.22061162f, -0.15086892f, -0.03532772f, -0.09211605f, 0.20160422f, -0.11089030f, -0.08951224f,
    0.53183091f, -0.01159149f, 0.25756061f, -0.08399481f, 0.19170055f, 0.11936611f, 0.16328613f, 0.02477744f,
    -0.29729649f, 0.16638502f, 0.36023167f, -0.15954344f, -0.12716532f, -0.16131087f, 0.33502030f, -0.12428100f,
    -0.20822243f, -0.05871109f, 0.00113971f, -0.03680091f, -0.12914267f, 0.03406309f, 0.22074196f, 0.14973456f,
    0.12610866f, 0.10524763f, 0.21596608f, -0.02118227f, 0.10895187f, -0.02229147f, 0.37046364f, -0.00250878f,
    0.06764197f, -0.05166762f, -0.02522272f, 0.26148641f, 0.13292842f, -0.32433340f, 0.14688410f, -0.17742777f,
    -0.25376898f, -0.17266460f, 0.19294249f, 0.15534094f, -0.24824719f, -0.17820798f, 0.10588017f, -0.01033175f,
    -0.16037963f, -0.05190229f, -0.00300793f, 0.10597555f, 0.15857485f, 0.05824738f, -0.32968122f, 0.14321809f,
    -0.28594396f, -0.09874117f, 0.10425802f, 0.27202082f, 0.29661131f, 0.23576102f, 0.11586097f, -0.24381879f,
    0.12933004f, -0.09208257f, -0.12284792f, 0.15175371f, 0.02602347f, 0.03071304f, -0.11641395f, -0.14049451f,
    0.10169276f, -0.03463909f, -0.10460068f, -0.05345281f, 0.10722362f, 0.22584769f, -0.06514994f, 0.28323933f,
    -0.11995937f, 0.16404726f, 0.06028672f, -0.04739294f, 0.31022105f, -0.04936351f, -0.44124287f, -0.10966852f,
    -0.03235571f, -0.10265873f, 0.06622422f, -0.06973657f, 0.08415848f, 0.24861071f, -0.07731909f, 0.25996122f,
    0.09588312f, -0.03277321f, 0.00343307f, -0.30401114f, 0.06791252f, 0.37579250f, -0.11788972f, -0.08761953f,
    0.03472762f, -0.09245096f, 0.03899090f, 0.18618628f, 0.14803126f, -0.03987557f, -0.11559095f, 0.17205624f,
    -0.00364757f, -0.15004404f, -0.27775037f, 0.39125749f, -0.23408996f, 0.18045284f, -0.17043941f, -0.06738450f,
    0.07034047f, -0.24368602f, -0.06751104f, -0.02981384f, -0.10808851f, -0.13662924f, 0.13975474f, 0.07457959f,
    0.08013589f, 0.20970300f, 0.26358613f, 0.19343065f, 0.15738371f, -0.43327099f, -0.26257122f, 0.22108990f,
    0.10883166f, -0.38538516f, 0.01975119f, -0.35392761f, -0.15260983f, -0.51435560f, -0.30488116f, -0.01376686f,
    0.21159215f, 0.12268569f, -0.04029924f, 0.11879697f, 0.10118968f, -0.17804980f, 0.41031161f, 0.40850836f,
    0.10278498f, -0.29840165f, -0.06486280f, 0.00192296f, 0.15387759f, -0.17663354f, 0.18078542f, 0.13002345f,
    -0.24339706f, -0.23141298f, -0.49425519f, -0.06084941f, 0.17466113f, 0.02886816f, 0.03592083f, 0.00963145f,
    0.20259312f, 0.22627512f, -0.16481094f, -0.04639796f, 0.15692312f, -0.18022887f, 0.26911244f, 0.06765256f,
    -0.19970660f, -0.26759648f, -0.13080454f, -0.20326667f, 0.00122642f, 0.01084342f, 0.05739228f, -0.18500349f,
    -0.09445677f, 0.16624442f, -0.13749199f, -0.26571193f, 0.04374230f, 0.22925034f, 0.03035581f, 0.05582920f,
    -0.65127558f, -0.22302982f, -0.09746525f, 0.01353438f, 0.02755510f, 0.55345803f, 0.23117937f, -0.01920119f,
    0.13041233f, -0.14110737f, 0.02100712f, 0.01651127f, -0.03091434f, -0.07508697f, 0.01404738f, 0.34116650f,
    0.14513251f, -0.07526815f, -0.01045747f, -0.00361783f, -0.28245887f, 0.13264649f, -0.09128423f, 0.19278984f,
    0.18576980f, -0.04367898f, 0.15613462f, 0.05004940f, 0.09621800f, -0.08663670f, -0.26064080f, -0.15309733f,
    -0.04789721f, 0.08685276f, -0.20426096f, -0.25904721f, -0.24556828f, 0.18632823f, 0.13560574f, 0.35794899f,
    -0.21624270f, -0.03693694f, -0.05104480f, -0.20290403f, -0.34768084f, -0.00392004f, 0.12461671f, 0.26005408f
};

// /* [16] float32 */
static const float onnx__Conv_194[16] = {
    0.54239792f, 0.31374282f, -0.31562805f, 0.58768910f, 0.61905968f, -0.05792145f, 0.35774201f, 0.13769786f,
    0.42083740f, -0.04156299f, 0.27185810f, 0.71144295f, 0.21042168f, 0.22291359f, -0.21687055f, 0.14497912f
};

// /* [16 × 16 × 7] float32 */
static const float onnx__Conv_196[1792] = {
    0.09514810f, 0.17596298f, -0.35079345f, 0.24383701f, 0.00248775f, -0.05990015f, 0.18289919f, -0.38239172f,
    0.29060251f, -0.06384853f, -0.08823747f, -0.35589969f, 0.06125360f, 0.04005231f, -0.01611472f, -0.03302475f,
    -0.06084277f, 0.19739127f, 0.03459384f, -0.46040252f, -0.10308838f, 0.17466071f, -0.04680439f, 0.06229246f,
    -0.03754050f, 0.09322585f, -0.24140829f, -0.05654217f, -0.05391636f, 0.09157510f, -0.04684320f, 0.21087202f,
    -0.00634545f, -0.03905324f, -0.27091113f, -0.16027881f, 0.16760576f, 0.09820557f, 0.10683399f, 0.33010885f,
    -0.01147208f, 0.46208116f, -0.22329138f, -0.32087374f, 0.10454326f, 0.02132820f, 0.05275647f, 0.26797634f,
    0.08682378f, -0.21474439f, 0.18755341f, -0.07349344f, 0.29299974f, -0.11844258f, 0.26237425f, -0.02631507f,
    0.18728800f, -0.32082063f, 0.15606347f, -0.15993214f, -0.09822656f, -0.01868949f, 0.00974337f, -0.05692219f,
    0.04711001f, 0.27680957f, -0.09077174f, 0.21400911f, -0.13049662f, -0.19245355f, 0.00136796f, 0.13195972f,
    -0.16207287f, -0.20040159f, 0.11252998f, -0.07958755f, -0.03160889f, 0.13110268f, 0.03085235f, 0.02497192f,
    -0.21262893f, -0.35210145f, -0.25634667f, -0.03115214f, -0.07667785f, -0.16292329f, -0.02590119f, -0.39672250f,
    -0.08349321f, -0.14358035f, -0.23941089f, -0.04219286f, -0.34296888f, -0.26218382f, -0.13357013f, -0.08938333f,
    -0.06337647f, -0.08149963f, 0.25574926f, -0.16974488f, -0.08890902f, 0.27649274f, 0.26617011f, 0.11245399f,
    -0.22612701f, 0.06864133f, 0.49109572f, -0.00578080f, -0.14906693f, -0.05716813f, 0.03344289f, -0.07038742f,
    -0.35793507f, -0.06808016f, -0.35791868f, -0.06254327f, -0.03489658f, 0.01748891f, -0.04170530f, -0.12710892f,
    -0.01871891f, -0.09083807f, -0.37591007f, 0.08447082f, -0.07758944f, 0.22586291f, 0.28204015f, -0.15034772f,
    -0.10736819f, 0.34626871f, -0.12073698f, 0.21935327f, -0.02854593f, -0.11445816f, 0.31899288f, -0.03269149f,
    0.06854358f, 0.29633048f, -0.15004233f, -0.10336373f, -0.12431338f, 0.05935828f, -0.21091360f, 0.17036465f,
    -0.24268636f, 0.03626489f, 0.01069413f, -0.03539108f, 0.03649855f, -0.10766092f, -0.01333949f, 0.27605903f,
    -0.28986496f, -0.01301340f, -0.10478657f, 0.09208900f, -0.08974047f, -0.14066343f, 0.08734755f, -0.08633132f,
    -0.22049724f, 0.19574186f, 0.03079348f, -0.06903300f, -0.08220702f, 0.20930441f, 0.04968232f, 0.15150367f,
    -0.00373219f, 0.06238211f, -0.36579141f, -0.01020961f, 0.23884179f, 0.22182620f, 0.03249830f, 0.02903638f,
    -0.15762016f, -0.14819309f, 0.05112594f, 0.04992477f, -0.24483621f, 0.45730570f, 0.08303153f, 0.05432479f,
    -0.21734637f, 0.03159975f, -0.15577000f, -0.16905023f, -0.12706751f, -0.36438236f, 0.12277825f, -0.21656665f,
    -0.21262981f, -0.06672905f, 0.35411876f, -0.13496637f, 0.12895578f, 0.12949063f, -0.05689844f, 0.16005351f,
    -0.47988826f, 0.00848220f, 0.10102989f, -0.05446505f, -0.05844031f, -0.24655908f, 0.05601410f, 0.26100025f,
    0.09425353f, 0.06348573f, 0.10854038f, 0.10362773f, -0.02452223f, -0.10508203f, -0.08385550f, -0.16596511f,
    0.22136644f, -0.27118462f, -0.36176234f, -0.10291313f, -0.20118473f, 0.11053322f, 0.11773045f, 0.12101121f,
    0.07548226f, 0.13147028f, 0.17965478f, 0.14192963f, -0.05198166f, -0.03211287f, -0.07234429f, -0.03389702f,
    -0.15304516f, -0.02139288f, 0.05676376f, 0.06926171f, 0.11334344f, -0.01507853f, -0.03698227f, 0.18145627f,
    0.01855037f, 0.34582284f, 0.02416275f, -0.05497753f, 0.09107214f, 0.22360215f, 0.09975711f, -0.09462473f,
    0.00385643f, 0.23478837f, -0.10927178f, 0.02184015f, 0.13697253f, -0.13384470f, -0.05995541f, -0.03283017f,
    -0.08421662f, 0.39270166f, 0.18149519f, 0.12400417f, -0.24430603f, -0.18817401f, 0.01044792f, 0.05434631f,
    -0.07701190f, 0.14462538f, 0.06480213f, 0.05937589f, 0.14586045f, 0.22719818f, 0.13014038f, 0.14559877f,
    0.33137104f, -0.03751121f, -0.11836004f, -0.00613173f, -0.04707381f, 0.01304074f, 0.11455483f, -0.04008890f,
    0.05068709f, 0.09005842f, -0.16594674f, 0.22626778f, 0.15696956f, 0.14405875f, -0.12304445f, 0.00680612f,
    -0.00055270f, -0.06640953f, -0.12615840f, 0.13502246f, -0.24062939f, -0.21243796f, 0.08269437f, 0.13220079f,
    -0.03707852f, -0.12719132f, 0.00697986f, 0.08722315f, 0.00016800f, 0.22467069f, 0.43706578f, 0.03717755f,
    0.11362041f, 0.17080091f, -0.02651832f, -0.11569609f, -0.13267337f, -0.05749135f, -0.08430296f, -0.00881256f,
    0.00032048f, -0.10034610f, 0.35507035f, 0.06471081f, 0.16018543f, -0.04721771f, 0.08010470f, 0.19506989f,
    0.01844537f, 0.11633068f, -0.07676157f, -0.44101962f, 0.17167275f, -0.06643231f, -0.04932574f, 0.31678873f,
    -0.13669930f, 0.06216225f, -0.10115396f, -0.04599472f, 0.21798639f, 0.14939782f, 0.19779137f, -0.01583032f,
    0.08913412f, 0.00546096f, -0.15733214f, 0.07109895f, 0.29448369f, -0.13116401f, -0.24008997f, 0.20006728f,
    0.06743450f, 0.06594555f, 0.15643300f, -0.11957583f, 0.14647251f, -0.01808716f, -0.01592012f, -0.20195130f,
    -0.11804669f, -0.04294140f, -0.05929540f, -0.10576978f, -0.13040973f, -0.21251526f, -0.24766779f, -0.00496159f,
    -0.10885577f, -0.03484972f, 0.02761347f, 0.17171249f, 0.12250414f, 0.40868378f, -0.20563143f, -0.08904423f,
    0.20605305f, 0.02546554f, -0.25659388f, -0.05186907f, 0.04428321f, -0.11960460f, 0.05544893f, -0.07708538f,
    0.01532196f, 0.00736114f, 0.07016434f, 0.13340794f, -0.22301868f, -0.00402257f, 0.14957783f, 0.03526718f,
    0.21017785f, -0.12823071f, -0.13836028f, -0.09991791f, -0.05392105f, -0.19725515f, 0.10803295f, 0.18045016f,
    -0.01314796f, -0.13174839f, -0.05171641f, 0.34789002f, -0.08517226f, -0.35897911f, -0.33762717f, 0.34323326f,
    0.15982966f, -0.15566567f, -0.15033484f, 0.04586269f, 0.00494602f, 0.06350930f, 0.05743851f, -0.09709477f,
    0.06952653f, 0.11808874f, -0.04510698f, -0.15581946f, -0.09447958f, 0.24672145f, -0.00752776f, -0.26835415f,
    -0.18570033f, 0.01798511f, -0.10780548f, -0.18089096f, 0.11613567f, -0.25890118f, 0.04569403f, 0.02098278f,
    0.11089868f, 0.09536371f, 0.04395571f, 0.18663280f, -0.05359023f, 0.28724164f, 0.09345698f, -0.03717744f,
    0.14144398f, 0.03381092f, 0.02005870f, 0.21615744f, 0.17915362f, -0.07703503f, 0.03052640f, 0.04012229f,
    0.03259477f, -0.09830183f, -0.17766987f, 0.31838003f, -0.01731334f, -0.28332803f, 0.04252548f, 0.22831924f,
    0.22401683f, -0.16798012f, 0.12632883f, -0.10138312f, 0.04975427f, -0.16268128f, 0.02617924f, -0.05725960f,
    -0.11110535f, -0.09522623f, -0.03594270f, 0.02509638f, -0.09453971f, -0.03547049f, -0.04027517f, -0.20380823f,
    -0.13134535f, -0.41024143f, -0.00170523f, -0.07930671f, -0.08549327f, -0.10739581f, 0.23370257f, 0.09075186f,
    0.14820379f, -0.17173302f, 0.11707158f, 0.03271208f, 0.01200080f, 0.13920511f, -0.07509691f, -0.00589509f,
    0.02472400f, 0.19582477f, -0.10660696f, -0.15779869f, 0.19685951f, -0.06391116f, 0.06093933f, -0.08313515f,
    -0.04573789f, -0.07493464f, -0.00436757f, -0.10518304f, -0.05691865f, 0.12245724f, -0.00765882f, -0.08588579f,
    0.12847666f, 0.25852227f, 0.03133054f, -0.23562320f, -0.03522453f, -0.08127476f, -0.01095301f, 0.19772857f,
    -0.04761664f, 0.02429193f, 0.00439342f, -0.18381219f, 0.04339949f, -0.00713941f, -0.11374541f, -0.02322481f,
    0.03175650f, 0.18832016f, 0.03073733f, -0.02007554f, 0.03965448f, -0.07143351f, -0.06460412f, -0.04324496f,
    0.02567071f, -0.25363073f, -0.28015944f, 0.03567193f, -0.06599005f, 0.03098257f, 0.08616799f, 0.04983243f,
    0.20871107f, 0.07732131f, 0.01441212f, 0.01357122f, -0.14890258f, 0.05972304f, -0.11430255f, -0.14131662f,
    -0.04487722f, 0.01668109f, -0.06175514f, -0.05855647f, -0.02369703f, 0.08211960f, -0.24133207f, 0.18483777f,
    -0.09261687f, -0.04436102f, -0.16239107f, -0.07074358f, 0.18605007f, -0.04224022f, -0.21025792f, 0.13686016f,
    -0.05406776f, 0.04466018f, 0.10165300f, 0.12440246f, 0.04082679f, 0.29088628f, 0.04398639f, 0.08127733f,
    -0.44759771f, 0.05022459f, 0.17200470f, -0.08414468f, -0.08343233f, -0.08397572f, -0.06312122f, 0.23411676f,
    0.02190140f, 0.04341362f, 0.05122293f, 0.10231768f, -0.10499424f, 0.07305824f, 0.42331758f, -0.00635531f,
    0.23991007f, 0.00096925f, 0.10408594f, 0.16253239f, -0.13190462f, -0.17481968f, 0.08053517f, 0.09791385f,
    -0.47301081f, 0.01850230f, -0.19252056f, -0.37049413f, -0.20982327f, -0.14795548f, 0.07950814f, -0.03125679f,
    0.03767200f, 0.06597739f, 0.14526325f, -0.05203543f, 0.02624852f, 0.07034304f, 0.08505505f, -0.08835147f,
    -0.17442617f, -0.08519818f, 0.02946487f, -0.13482146f, -0.01824464f, -0.06106451f, 0.03417958f, 0.05908498f,
    -0.31147715f, -0.02544024f, -0.09755030f, 0.21203017f, 0.13473371f, -0.06556280f, -0.02251141f, 0.08357632f,
    0.00827784f, -0.04472033f, -0.02121201f, 0.06652574f, 0.16432503f, -0.22288661f, 0.00971435f, 0.35636362f,
    0.17586605f, 0.08357016f, 0.23771732f, 0.13453485f, -0.02224381f, -0.04170050f, 0.27152729f, 0.01722320f,
    -0.36118260f, -0.12123638f, -0.03036609f, 0.03482604f, 0.12377976f, -0.06186161f, 0.01490832f, 0.00851818f,
    -0.21310396f, -0.12088378f, 0.03571441f, -0.08613787f, -0.01667602f, -0.06060396f, -0.13128872f, 0.28717184f,
    0.21279985f, 0.12733909f, -0.11075764f, -0.06225250f, -0.23684524f, -0.22588782f, -0.06705341f, 0.13767426f,
    0.12678787f, 0.00813994f, 0.02543732f, -0.01271864f, -0.27432692f, -0.04528385f, -0.04650781f, -0.00440589f,
    -0.23334979f, 0.03507642f, -0.07707351f, -0.09598621f, 0.06295849f, -0.06686583f, -0.04775591f, 0.11449262f,
    -0.11103509f, -0.23477085f, -0.24675532f, 0.05386561f, 0.24770604f, 0.00759160f, -0.09898134f, 0.07800953f,
    -0.19492663f, -0.14210631f, -0.19190615f, -0.00940437f, -0.07684507f, 0.26727951f, 0.11882745f, 0.03949117f,
    0.23487601f, -0.17099983f, -0.19637586f, 0.09607188f, -0.18408599f, 0.02494694f, 0.24351478f, -0.07331397f,
    -0.30955032f, -0.02639013f, -0.27529952f, 0.05663292f, 0.03935840f, 0.14955036f, 0.11576023f, -0.03133177f,
    0.08801793f, -0.11172106f, 0.01765894f, 0.21308228f, 0.03792518f, -0.39468721f, 0.08955029f, 0.05307617f,
    -0.13998117f, 0.12973878f, -0.23042676f, 0.08587431f, 0.11328769f, -0.00112568f, 0.13947639f, -0.18425091f,
    0.12370706f, 0.23137335f, -0.14490327f, 0.09955356f, -0.04391718f, 0.02885998f, 0.07931777f, -0.01339931f,
    -0.03328100f, 0.04708483f, 0.24438836f, -0.07376166f, -0.08414868f, -0.09673892f, 0.04373568f, 0.01689576f,
    0.07050946f, 0.17541707f, -0.20467643f, -0.00752544f, -0.05813758f, 0.09448282f, 0.21639849f, 0.11921943f,
    0.05330862f, 0.32984647f, 0.21643706f, -0.08059309f, 0.28310898f, -0.08417267f, 0.18852101f, 0.33472943f,
    0.07081279f, -0.15285149f, -0.03105219f, -0.03548097f, -0.24479152f, 0.10561569f, 0.14853117f, -0.06500717f,
    -0.07298789f, 0.16748741f, 0.13414177f, -0.18966258f, -0.16946951f, 0.02370992f, -0.16237424f, -0.13115533f,
    0.06832679f, -0.12993042f, 0.22350539f, 0.18735313f, 0.02314047f, 0.27979794f, -0.18824644f, 0.39388993f,
    -0.01385350f, -0.14435670f, -0.02198521f, -0.22490224f, 0.24487092f, 0.05778307f, -0.01105929f, -0.22606878f,
    0.13368823f, 0.02131176f, 0.06116310f, 0.05118706f, -0.05687606f, 0.04472293f, -0.11238120f, -0.02302619f,
    -0.01886180f, 0.25511453f, 0.12901568f, 0.10388162f, -0.05197843f, 0.16772982f, 0.05367295f, -0.14724301f,
    0.30915046f, 0.06266634f, -0.00395996f, 0.11924378f, 0.04114619f, 0.06211928f, 0.08500700f, 0.06064601f,
    0.00465514f, 0.08603441f, -0.01804351f, 0.09737815f, 0.03991457f, 0.06762037f, 0.04004709f, -0.21468338f,
    0.00455207f, -0.10426659f, 0.13168861f, 0.07070195f, 0.11046521f, -0.02981227f, 0.00643286f, -0.14390144f,
    0.01777361f, 0.18576746f, -0.06239761f, 0.06971361f, 0.08186078f, 0.21848716f, 0.15873541f, 0.02906403f,
    -0.12246618f, 0.01013929f, 0.17478593f, 0.12986165f, 0.10239178f, 0.00986806f, 0.04731647f, -0.10924848f,
    -0.02801515f, -0.09963109f, -0.09060134f, -0.05582824f, -0.00232032f, 0.09861093f, -0.04232648f, 0.09513504f,
    0.07241579f, 0.15652816f, 0.04154553f, -0.12125063f, -0.12545040f, -0.12881765f, 0.19931443f, 0.32324412f,
    0.21278746f, 0.09983689f, -0.07119253f, 0.04895841f, -0.11324427f, 0.06744563f, -0.05665546f, -0.07391781f,
    0.02284479f, 0.09672970f, -0.07096443f, 0.01032922f, 0.01456191f, -0.07546045f, -0.15876505f, -0.02579384f,
    -0.00501037f, 0.12487476f, -0.02657608f, -0.18130445f, -0.03200055f, 0.14655086f, 0.05037618f, 0.03077481f,
    0.10442736f, 0.15617381f, 0.15826228f, -0.09370440f, 0.07635024f, 0.18928500f, 0.01141915f, 0.22993107f,
    0.12988906f, 0.04878925f, 0.01109979f, 0.29147297f, -0.01085491f, -0.06605255f, -0.13601342f, 0.01116907f,
    0.06259640f, -0.10596722f, 0.06822921f, -0.07622603f, -0.40385252f, 0.17064330f, -0.22922869f, 0.29826337f,
    0.11027137f, -0.11596897f, -0.19846468f, 0.12275750f, 0.01876664f, 0.11493132f, -0.26716179f, -0.02189121f,
    0.09482781f, 0.10667224f, -0.13399109f, -0.06419586f, -0.11133547f, 0.01340174f, 0.05276896f, -0.03315756f,
    -0.07442959f, 0.06075242f, -0.37892517f, -0.18234493f, -0.09037306f, -0.17340963f, -0.28749928f, -0.02568641f,
    -0.04886619f, -0.38125223f, -0.29629946f, -0.06241713f, 0.18022893f, -0.10670994f, 0.19468965f, -0.19467908f,
    0.08847892f, -0.12788637f, 0.06656822f, 0.07650945f, 0.18087418f, -0.09910339f, -0.01994073f, 0.30786431f,
    0.16182092f, -0.42557281f, -0.12240220f, -0.05703815f, -0.15026022f, -0.05450089f, 0.04323343f, -0.22365268f,
    -0.15173897f, -0.23276967f, -0.00652650f, 0.09190829f, 0.01495577f, -0.16214301f, -0.08892805f, -0.00209147f,
    -0.13743304f, 0.22396114f, -0.14549898f, 0.03708111f, 0.20380829f, 0.07102832f, -0.03638856f, 0.20082209f,
    0.15037425f, -0.20691173f, 0.13038428f, 0.21594621f, 0.00529629f, 0.49811676f, 0.08445790f, 0.07236299f,
    0.19883648f, 0.38308224f, 0.03028472f, -0.04074361f, -0.15736322f, 0.06110995f, -0.13829947f, 0.27324906f,
    0.21404426f, 0.20720427f, 0.25219479f, 0.43708086f, -0.22519889f, 0.04259603f, -0.04331511f, -0.36038020f,
    -0.13768499f, 0.10228174f, 0.10695329f, 0.09263533f, 0.06963586f, -0.03914868f, 0.04180721f, -0.29346883f,
    0.02326275f, 0.13884920f, 0.44567499f, -0.10704938f, -0.13008867f, 0.02076594f, -0.00150381f, 0.02322799f,
    0.02974467f, -0.02263580f, 0.12432932f, -0.15588076f, -0.07913242f, -0.02497003f, -0.41893974f, -0.15484543f,
    0.26392230f, 0.19164877f, -0.04585565f, -0.01536077f, -0.25471187f, 0.45178378f, -0.08940221f, -0.03469652f,
    -0.04605317f, -0.10247944f, 0.00466663f, -0.05311555f, -0.24346448f, 0.19656464f, 0.29691201f, -0.16576377f,
    -0.05875018f, 0.05237977f, -0.16390979f, -0.05977456f, 0.29571477f, -0.01287752f, -0.19792145f, -0.17286322f,
    -0.16079105f, -0.10897306f, -0.33691210f, 0.16958888f, 0.18668911f, 0.23631708f, -0.39741990f, -0.12077290f,
    -0.03999651f, 0.17582120f, -0.06537072f, 0.15095377f, 0.10653006f, -0.12682320f, 0.09300036f, -0.12920205f,
    -0.04240226f, -0.10460881f, -0.16133776f, -0.19302312f, -0.26890999f, -0.19406949f, 0.02261086f, -0.18524656f,
    -0.24323028f, 0.06817917f, -0.15452744f, -0.16948292f, -0.07078253f, 0.11239999f, -0.04045092f, -0.08056902f,
    -0.25937387f, 0.18654615f, -0.07832308f, -0.12330449f, 0.17077784f, 0.19902311f, 0.10053350f, -0.19103752f,
    -0.15920255f, -0.00698743f, -0.11361825f, 0.17460212f, 0.01456094f, -0.22157474f, 0.04870452f, -0.04959917f,
    0.29002061f, 0.05732398f, 0.01544844f, -0.27020538f, -0.05274779f, 0.08317727f, 0.07838215f, 0.15329498f,
    0.20055518f, 0.46232930f, 0.04878863f, -0.09110904f, 0.25222617f, 0.11217052f, 0.26351941f, 0.07011510f,
    0.21565366f, 0.11747687f, -0.09947417f, -0.30728900f, 0.15444537f, 0.05076709f, 0.07273550f, 0.22470212f,
    0.23720273f, 0.07505272f, 0.12841618f, -0.10039169f, -0.21096784f, -0.03867303f, -0.07042309f, 0.10650998f,
    0.04292391f, -0.11850642f, -0.01176704f, 0.04049717f, -0.15565653f, -0.11719713f, -0.21716726f, 0.41614595f,
    -0.05412507f, 0.01474379f, 0.24652685f, -0.36648226f, 0.15185133f, 0.11105581f, -0.21647407f, 0.03621335f,
    -0.09497788f, 0.28472090f, 0.09566826f, -0.02678901f, -0.10747007f, -0.22861575f, 0.18555447f, 0.33215746f,
    0.21217355f, -0.10114312f, -0.07297888f, 0.33205557f, -0.14413936f, -0.01495118f, 0.22377820f, 0.06597837f,
    -0.18121096f, 0.13705115f, 0.03938343f, -0.07025838f, 0.23243350f, 0.19593585f, 0.26814198f, -0.02871390f,
    -0.24249522f, 0.03107009f, -0.01099237f, -0.20137665f, -0.16487657f, -0.18395364f, -0.16866627f, -0.25615111f,
    0.21838591f, -0.22432421f, 0.23424275f, 0.11301372f, 0.04838463f, 0.18693629f, -0.19905101f, -0.12639044f,
    0.02869269f, -0.27120769f, 0.16671401f, 0.29290509f, 0.00119821f, 0.23648931f, -0.26228434f, 0.00220698f,
    0.07813527f, 0.08608676f, -0.30897033f, -0.20130602f, 0.28720057f, 0.06918523f, 0.02096181f, -0.21490438f,
    -0.04540700f, -0.19737732f, 0.07414440f, 0.11297429f, 0.09006822f, 0.15494518f, 0.02666156f, -0.12621142f,
    0.29040286f, -0.28485280f, -0.42909858f, -0.18390949f, -0.06236241f, 0.03718140f, 0.42786089f, -0.32065484f,
    -0.54343295f, -0.21576777f, -0.02056100f, 0.24552079f, -0.14733158f, -0.04386369f, -0.17595348f, 0.07480162f,
    0.46302330f, 0.17614834f, -0.18020925f, -0.22154257f, -0.01662921f, 0.29686779f, -0.23082811f, -0.06845672f,
    -0.00092498f, -0.05548802f, -0.22230510f, -0.07543845f, -0.14907463f, -0.02416058f, -0.03238807f, 0.17763261f,
    -0.07685667f, 0.04621670f, -0.15075894f, -0.29728559f, 0.08371726f, -0.31375960f, 0.10242584f, 0.07379972f,
    0.13306005f, 0.01340027f, -0.24062133f, -0.12606493f, -0.12975037f, 0.05150694f, -0.05585319f, -0.06788515f,
    -0.10473848f, -0.16640502f, 0.03774520f, -0.08946767f, 0.04540753f, -0.13712513f, -0.10475675f, -0.00189315f,
    -0.29215735f, 0.01232816f, 0.10514326f, -0.15609305f, -0.13605066f, 0.06433100f, 0.00058295f, -0.04934055f,
    -0.20236416f, 0.02015239f, 0.18919601f, -0.07917421f, 0.18821010f, 0.20155877f, 0.14287268f, -0.33259514f,
    0.27845436f, -0.20129895f, 0.16628897f, -0.19307280f, 0.15467204f, 0.01731979f, 0.20455822f, 0.12148160f,
    -0.01071715f, -0.00887182f, 0.19235936f, -0.13843438f, -0.13281319f, 0.40709496f, 0.07537218f, 0.10534558f,
    0.04326942f, 0.02441199f, 0.02407900f, 0.01167252f, -0.02862849f, 0.18824834f, 0.00460572f, -0.23745124f,
    -0.08112320f, -0.08284978f, 0.40310344f, 0.20659815f, 0.21714537f, -0.01118504f, -0.22270437f, -0.20107600f,
    -0.12263570f, -0.32280362f, -0.17589512f, 0.05659030f, 0.01276729f, -0.10603335f, 0.22961052f, -0.26686591f,
    -0.11927755f, -0.10001671f, 0.01842725f, -0.46401805f, 0.12645586f, 0.18034703f, -0.00492735f, 0.05002401f,
    0.06201642f, -0.60486424f, 0.06451353f, -0.12673835f, 0.20918304f, 0.44959992f, 0.03109097f, 0.27018857f,
    0.26615500f, -0.04324847f, -0.14107043f, 0.10259839f, -0.04247184f, -0.18466684f, 0.02857439f, 0.02363984f,
    -0.21149750f, -0.19841360f, -0.03944706f, 0.14112175f, 0.07721286f, 0.06222738f, -0.07832982f, 0.01777859f,
    0.15301260f, 0.06155334f, 0.10208742f, -0.16348086f, -0.26745927f, 0.07601679f, 0.16747627f, -0.40786588f,
    0.31264839f, -0.20506687f, -0.05326999f, 0.23106672f, -0.06836266f, 0.10646965f, -0.15609661f, -0.04685227f,
    -0.22598049f, 0.01720028f, 0.01860565f, -0.28395078f, 0.00365538f, 0.26411840f, -0.17938809f, 0.19139045f,
    0.10361501f, 0.37400189f, 0.02523736f, -0.18843740f, 0.08380949f, 0.03156585f, 0.18310621f, -0.32135651f,
    0.21848005f, 0.01769741f, 0.04745138f, 0.01053436f, -0.03575395f, 0.06702051f, -0.03093355f, -0.02108464f,
    -0.06212491f, 0.02989654f, -0.07165946f, 0.01471869f, 0.24768212f, -0.14595000f, -0.07338744f, 0.11347025f,
    -0.04131214f, 0.26748148f, 0.06234880f, 0.09668988f, -0.27741075f, -0.16875656f, -0.14390688f, 0.03475030f,
    -0.03296745f, 0.32074282f, 0.23073384f, 0.05043159f, 0.03730552f, -0.01480445f, 0.24913326f, -0.11503449f,
