/* Auto-generated by export_weights.py — DO NOT EDIT */
/* Total arrays: 26 */

#ifndef PINN_WEIGHTS_H
#define PINN_WEIGHTS_H

#include <stddef.h>

// /* [1] float32 */
static const float aux_resistance_bias[1] = {
    0.0000000000e+00f
};

// /* [1 × 64] → transposed to [64 × 1] float32 */
static const float aux_resistance_weight[64] = {
    0.21076016f, -0.20879653f, 0.09246457f, -0.09200487f, 0.02880781f, -0.14169875f, -0.41901919f, 0.25361189f,
    -0.15860137f, 0.30194229f, 0.09877811f, 0.29450390f, 0.07482126f, -0.06721022f, -0.08843442f, 0.17633903f,
    -0.01335487f, -0.26428494f, -0.02942237f, 0.07014737f, -0.08067643f, 0.01155275f, -0.13398884f, 0.06453338f,
    0.11162037f, -0.20701195f, 0.51629180f, -0.45772201f, 0.07843021f, -0.12503636f, -0.02965371f, -0.17941362f,
    0.22121997f, 0.10117325f, 0.00819349f, -0.07434564f, -0.15514864f, 0.14377537f, 0.14516862f, 0.18560547f,
    -0.00367880f, -0.16052662f, 0.16618583f, 0.19885784f, -0.01057311f, 0.09868685f, -0.13592879f, 0.18155050f,
    -0.05063768f, 0.18089134f, 0.29704693f, 0.01842451f, 0.05851144f, -0.20014977f, -0.08789104f, 0.06869628f,
    0.02997800f, -0.06301124f, 0.19346958f, -0.14297166f, 0.08554273f, 0.14175463f, -0.27577677f, -0.16181463f
};

// /* [128] float32 */
static const float encoder_0_bias[128] = {
    -0.02945722f, -0.02271796f, 0.09380341f, -0.26345891f, 0.03117044f, 0.00105654f, 0.05846239f, 0.02276083f,
    0.04491202f, -0.05024637f, -0.07610919f, -0.01821652f, -0.01155389f, -0.03373436f, -0.09553929f, 0.00450628f,
    0.01620513f, 0.01853531f, 0.03138067f, 0.02069271f, 0.04420629f, -0.06588318f, -0.02631799f, 0.00136170f,
    -0.00251227f, -0.02781121f, 0.07643476f, 0.03370250f, 0.00950217f, 0.02834969f, -0.10457769f, 0.02959548f,
    0.01406478f, 0.03372871f, -0.07948743f, -0.00925379f, 0.03788295f, 0.00277631f, -0.09115808f, 0.00109322f,
    0.05292498f, 0.01151502f, 0.09865858f, -0.01421927f, -0.01502794f, 0.03683280f, 0.00624368f, 0.04207264f,
    0.01642180f, 0.00282158f, 0.02111054f, 0.01711503f, -0.02746012f, 0.04190574f, -0.00338342f, 0.01249235f,
    -0.02879822f, 0.05406140f, 0.01409159f, 0.02819251f, 0.04554746f, 0.03048803f, 0.04635719f, -0.00421408f,
    0.01188276f, -0.14029914f, 0.09684587f, -0.01931794f, -0.02052002f, 0.06136399f, 0.05495283f, 0.03670722f,
    -0.04507816f, 0.08265468f, -0.03576322f, -0.10099527f, 0.01165446f, 0.04340096f, 0.06259739f, -0.01052848f,
    0.05689527f, 0.02434549f, 0.03378617f, 0.03809211f, -0.00414727f, 0.02673828f, 0.05246395f, 0.00037143f,
    0.02606224f, 0.02121250f, -0.03952471f, -0.01078463f, -0.01276114f, -0.00505982f, 0.02159032f, 0.01377698f,
    0.04274638f, -0.00556910f, 0.02423909f, 0.03171264f, 0.02893415f, 0.03176716f, 0.11323322f, -0.11611215f,
    -0.00810098f, -0.01898025f, 0.01353289f, -0.16808748f, 0.02547829f, 0.02083368f, 0.00737470f, 0.00088386f,
    0.02364487f, -0.00079054f, 0.00376726f, 0.05007701f, 0.04003136f, 0.07428068f, 0.07423411f, -0.00697472f,
    0.04118608f, -0.00025537f, -0.01964312f, 0.01544169f, 0.05496828f, 0.02464402f, 0.01319471f, 0.09587442f
};

// /* [128 × 132] → transposed to [132 × 128] float32 */
static const float encoder_0_weight[16896] = {
    0.14319557f, 0.17243302f, 0.08745682f, 0.02716187f, 0.23949294f, 0.02206706f, -0.08810493f, -0.12612027f,
    0.07084578f, -0.23228724f, -0.03485302f, -0.14163500f, 0.02730544f, 0.00346515f, -0.01471607f, 0.03106451f,
    0.03365412f, -0.17179792f, -0.04616429f, 0.02543453f, 0.01286614f, 0.02472733f, 0.11583915f, 0.11428066f,
    -0.10464723f, -0.03108147f, 0.05392201f, 0.37852132f, -0.15677010f, 0.36719123f, -0.23829430f, -0.06334322f,
    0.06799612f, 0.05132300f, -0.17667209f, 0.06180038f, 0.18523884f, -0.01621007f, 0.02291977f, 0.00017611f,
    0.12601940f, -0.09038132f, -0.15052521f, -0.17773359f, -0.02607087f, 0.15395950f, -0.05949299f, -0.20161961f,
    -0.15475453f, 0.09845565f, -0.17115463f, 0.12644733f, 0.05705013f, -0.15140824f, 0.18478639f, 0.11742351f,
    0.12780765f, 0.00190102f, 0.02920580f, 0.07153328f, -0.00286338f, 0.10166337f, -0.05681792f, -0.27629861f,
    -0.00226602f, 0.09334177f, -0.15576181f, -0.11342524f, -0.02839256f, 0.05682399f, -0.06963693f, 0.17748161f,
    0.13748015f, -0.09945340f, -0.00940775f, -0.05837257f, 0.02921447f, 0.23008564f, -0.18349896f, 0.18622671f,
    -0.10810875f, 0.18685184f, 0.11997060f, 0.08764777f, -0.19153431f, -0.10989314f, -0.09697326f, 0.10237800f,
    0.04766292f, 0.02588880f, 0.15335609f, -0.08141982f, -0.00164685f, 0.03054039f, 0.10076715f, 0.07882793f,
    0.19132100f, 0.09970115f, -0.06623822f, 0.14412680f, 0.00902036f, 0.13439533f, 0.00094526f, 0.21897359f,
    0.01173030f, -0.00277290f, -0.30563748f, -0.17832665f, 0.11556808f, 0.03806581f, 0.02205750f, 0.01397169f,
    -0.01023119f, 0.17381348f, -0.08419155f, -0.20650795f, -0.02178281f, 0.02929396f, -0.15776393f, -0.05307484f,
    0.04359897f, -0.09256239f, -0.29366431f, -0.01675885f, 0.06601565f, -0.09605192f, -0.04708435f, -0.11364077f,
    0.01622202f, -0.11636963f, 0.15160087f, 0.14008714f, 0.13542379f, 0.00862990f, -0.06138212f, 0.22882888f,
    -0.03515875f, 0.37586752f, 0.06130015f, -0.07129907f, -0.20541759f, 0.09663507f, 0.03551859f, -0.26911876f,
    0.04631229f, 0.08938802f, -0.15201055f, -0.00328274f, 0.06832894f, -0.14301157f, 0.10019662f, -0.09675284f,
    -0.19341251f, -0.08357184f, -0.12293287f, 0.10562891f, -0.05143134f, 0.08286207f, -0.03446013f, 0.25660419f,
    0.08706386f, 0.32939062f, 0.06649525f, 0.02923501f, -0.08410762f, 0.05000593f, -0.11642718f, -0.00803194f,
    -0.11898381f, 0.04070884f, 0.00380063f, -0.00280816f, 0.14162667f, 0.12333634f, 0.26608154f, -0.05201437f,
    -0.00118876f, -0.09259522f, -0.01048326f, -0.06072256f, -0.03262920f, -0.12373812f, -0.03978243f, -0.15074754f,
    -0.17556646f, -0.02077522f, 0.09867960f, -0.01408097f, 0.19581325f, -0.05126619f, -0.04047572f, 0.06886864f,
    0.00023340f, 0.15178876f, 0.18553570f, 0.26542047f, -0.26365396f, -0.02345168f, -0.04527425f, -0.16008890f,
    0.16110300f, 0.09079668f, -0.16784661f, -0.11378841f, -0.20628932f, -0.17529149f, -0.22281566f, -0.11320489f,
    0.01149581f, -0.09577037f, 0.11459480f, 0.06684145f, -0.19896472f, 0.12897803f, 0.01588142f, 0.11944633f,
    -0.17232776f, -0.12872306f, 0.09123971f, 0.03917902f, -0.02466412f, 0.14421801f, 0.11698207f, -0.02226253f,
    -0.01148267f, -0.15873854f, -0.12435260f, 0.01994334f, -0.00008468f, 0.08283671f, -0.07791541f, -0.12433752f,
    -0.05447676f, -0.12134099f, -0.09388477f, -0.03514746f, -0.18172041f, -0.10425714f, -0.30210042f, 0.03222617f,
    -0.02760883f, 0.00006713f, -0.12224328f, -0.17646225f, 0.03749437f, 0.11752606f, 0.02346001f, 0.22921407f,
    0.24502984f, 0.06821646f, -0.05944753f, -0.03016172f, 0.12169652f, -0.21585113f, -0.09133051f, -0.06770696f,
    -0.11396603f, 0.11880978f, -0.03376520f, -0.28212127f, 0.09605887f, 0.04357135f, -0.34441268f, 0.20687033f,
    0.20289280f, 0.05288349f, 0.10588783f, 0.08138414f, 0.01878523f, 0.08798464f, -0.05968478f, -0.19949974f,
    0.14167549f, -0.06594422f, 0.07508668f, 0.01318541f, 0.02675998f, 0.06357510f, 0.03836190f, -0.25895870f,
    -0.10308868f, 0.22094728f, 0.08868828f, 0.14506848f, -0.16665843f, -0.05762987f, 0.17533553f, 0.19396164f,
    -0.05623768f, -0.12342884f, -0.10357101f, 0.09664558f, -0.16481325f, -0.05853909f, 0.12617703f, 0.00735227f,
    -0.05842423f, -0.02880201f, -0.03915408f, 0.01586706f, -0.02308777f, 0.07047661f, 0.06482785f, -0.04614395f,
    0.23233676f, 0.03710409f, -0.14555539f, 0.00830021f, -0.05149562f, 0.02966185f, -0.09180373f, -0.07383323f,
    -0.23151550f, 0.05608092f, 0.06900124f, 0.25431934f, -0.13618346f, -0.06429909f, 0.13637313f, 0.01570559f,
    0.13474910f, -0.07325575f, 0.11204354f, -0.14899918f, -0.18496707f, -0.21851896f, -0.08745869f, -0.02250097f,
    0.14621229f, 0.31130484f, 0.09816048f, -0.15119253f, -0.12396960f, 0.24523444f, 0.04455471f, -0.08106082f,
    0.07619002f, -0.09432980f, 0.23089716f, -0.39931411f, 0.16417590f, -0.01531435f, -0.12725936f, -0.00066002f,
    0.10707686f, -0.00721755f, -0.08876667f, 0.02117438f, 0.17302179f, -0.20172763f, -0.05739421f, 0.08814122f,
    -0.06997602f, 0.05761416f, -0.12948892f, -0.08076203f, -0.01647719f, 0.07929811f, 0.16058953f, 0.05816379f,
    -0.09902951f, -0.28424329f, 0.01064284f, -0.00206825f, 0.05867769f, -0.01224962f, -0.16887012f, 0.13783033f,
    -0.08607096f, 0.04088196f, 0.06533697f, -0.24576397f, -0.17876631f, -0.24776998f, 0.02672304f, 0.27463371f,
    0.01528937f, -0.36703810f, 0.04504840f, 0.05941637f, 0.03033617f, -0.15404153f, -0.11042194f, 0.20607026f,
    0.07529593f, 0.24525644f, 0.04434427f, -0.00062019f, 0.18677153f, -0.06726862f, 0.00878765f, 0.03210781f,
    -0.10150315f, 0.29287603f, -0.09899525f, 0.18023604f, -0.18429139f, -0.01824807f, -0.07814681f, 0.12837659f,
    0.23649012f, 0.11448406f, 0.04200138f, 0.05104006f, 0.02522057f, 0.09988108f, 0.10207447f, -0.18088348f,
    -0.08446417f, -0.16632217f, -0.09458420f, 0.16496339f, -0.00589754f, 0.28483969f, 0.27051529f, 0.02813399f,
    0.06169258f, 0.16970274f, 0.05229165f, -0.06562752f, -0.06752214f, -0.03965140f, 0.04185675f, 0.11627273f,
    0.12839912f, 0.01128650f, 0.01304236f, 0.05011276f, 0.08536340f, 0.00269901f, -0.03029339f, 0.19746588f,
    0.25854111f, 0.07541035f, 0.11550327f, -0.05193500f, -0.11236238f, 0.13511203f, -0.03216538f, -0.08683046f,
    0.15925653f, -0.09043715f, 0.09558897f, 0.01355516f, 0.22453327f, 0.11926425f, 0.06105428f, 0.11669203f,
    -0.24330957f, 0.08808535f, 0.01660532f, -0.07034672f, 0.06185336f, -0.05581475f, -0.13361603f, 0.04503164f,
    0.12630735f, 0.07038584f, -0.04222721f, 0.05336359f, 0.00723582f, 0.09640523f, -0.01419206f, -0.08262270f,
    0.09594452f, -0.09801167f, -0.03387775f, -0.15386628f, 0.06657257f, -0.05335827f, -0.20666403f, 0.09128657f,
    -0.11645928f, -0.01363501f, -0.12716970f, -0.05425567f, -0.09733323f, 0.02153220f, -0.13112120f, 0.08322161f,
    -0.09902170f, 0.16590247f, -0.10115010f, -0.07156793f, -0.18689661f, -0.04417739f, 0.03256886f, 0.09110026f,
    -0.05095702f, -0.02167412f, 0.12984271f, -0.04242229f, 0.03137367f, -0.18544380f, -0.04814893f, -0.05130637f,
    0.18196796f, 0.05728037f, -0.03033391f, -0.28999308f, -0.15943848f, -0.04349474f, -0.05014593f, -0.07383909f,
    0.14907619f, 0.28359598f, 0.11940964f, 0.04524327f, -0.13835676f, -0.14883062f, -0.02521309f, -0.06866697f,
    0.00284755f, 0.09433044f, 0.11451980f, 0.17882621f, 0.11446007f, -0.05797844f, 0.09846186f, 0.10869716f,
    -0.01037868f, 0.08262443f, -0.09268831f, -0.12027128f, -0.27167463f, 0.09633334f, 0.03229005f, -0.01798443f,
    0.11925030f, 0.10265830f, -0.08234276f, -0.09853855f, 0.16778748f, 0.17684059f, -0.03901665f, 0.16612293f,
    -0.12192738f, -0.09653527f, -0.02735077f, -0.01875009f, -0.18068449f, 0.12699768f, -0.12509927f, -0.00030576f,
    -0.10235088f, 0.03721381f, 0.19834739f, -0.03824732f, 0.03011726f, -0.17769666f, -0.11039644f, -0.02593320f,
    -0.02472954f, 0.00248967f, 0.04356206f, -0.14287660f, -0.22889300f, -0.01832647f, 0.05484068f, 0.08828461f,
    0.06748274f, 0.07116789f, -0.16261503f, 0.06567962f, -0.12263367f, 0.15013577f, -0.04813397f, -0.14584808f,
    0.09166307f, 0.10471666f, 0.07793839f, -0.21347931f, 0.11547958f, -0.04579538f, -0.23816629f, -0.03339762f,
    0.03325578f, -0.07876741f, 0.01776331f, 0.07989191f, 0.19475536f, -0.05022558f, -0.06909845f, 0.08624820f,
    -0.05911176f, 0.23679647f, 0.04783135f, 0.02325003f, 0.08816401f, 0.11493105f, -0.10968175f, 0.12924586f,
    -0.17540497f, -0.03041949f, 0.25484031f, -0.18950374f, -0.01409716f, 0.13019605f, -0.05789560f, -0.20015751f,
    -0.21819074f, -0.12772414f, 0.08928173f, -0.13696018f, -0.02320812f, -0.08318174f, -0.07225330f, -0.20554446f,
    -0.11844840f, -0.02851940f, 0.21676640f, 0.01180259f, -0.11583152f, 0.17974113f, -0.00273422f, 0.16212662f,
    -0.12320191f, 0.07967445f, 0.09073485f, -0.04011253f, -0.16284932f, -0.05446715f, -0.06191251f, 0.15700981f,
    -0.06662373f, -0.06778772f, -0.12962416f, 0.16299139f, -0.07145012f, 0.09714408f, -0.06955788f, -0.02455729f,
    0.07980113f, 0.14785118f, -0.10016011f, 0.02160279f, 0.08830789f, 0.06479317f, 0.02674496f, -0.04490432f,
    -0.23279032f, -0.12993738f, 0.02460689f, -0.02217700f, -0.04472039f, 0.00025621f, -0.16106826f, -0.02516443f,
    -0.15903138f, 0.08344455f, 0.18436798f, -0.09479134f, -0.03929849f, 0.05923016f, -0.14579855f, 0.06741603f,
    0.02452127f, 0.05571402f, -0.21456495f, 0.22621191f, 0.04273788f, -0.01623427f, 0.02761286f, 0.23654217f,
    -0.24943453f, -0.09430402f, -0.15181588f, 0.06933981f, -0.14513619f, -0.06249065f, 0.13571036f, 0.11343186f,
    0.06208752f, 0.05817470f, 0.22406325f, -0.12956454f, -0.00916988f, 0.17980614f, 0.02341476f, -0.06625684f,
    -0.06748572f, -0.23209566f, -0.16267657f, -0.00395282f, -0.12340869f, 0.12786138f, -0.05750006f, 0.08695338f,
    -0.14731695f, -0.03470103f, 0.11377816f, 0.09890232f, -0.01131148f, -0.06287757f, 0.14026891f, -0.08367845f,
    0.15900661f, -0.13918062f, 0.10333353f, -0.04798626f, 0.03322071f, 0.07280060f, -0.00219848f, -0.11841485f,
    0.08882170f, 0.15288194f, 0.02994350f, -0.09167416f, -0.01673539f, 0.19831946f, -0.11681764f, 0.07145467f,
    -0.15505692f, -0.01979991f, 0.06307373f, -0.18796362f, 0.17008546f, -0.09406250f, 0.16024111f, 0.21040174f,
    -0.06974054f, 0.09132650f, -0.13286896f, 0.14264847f, 0.14276038f, -0.19973204f, -0.15690213f, -0.09225037f,
    0.03707470f, 0.04352584f, -0.13126343f, 0.20216052f, 0.03127854f, -0.03131668f, -0.24255987f, -0.08544122f,
    -0.01257791f, 0.30102429f, -0.02943847f, 0.08848448f, -0.00614772f, 0.25491691f, -0.05390811f, 0.05721452f,
    -0.07494356f, -0.18387498f, -0.03406609f, -0.06923154f, 0.23378743f, -0.15846913f, -0.14884579f, 0.03437178f,
    0.03145118f, -0.15246731f, -0.15009214f, -0.03332518f, 0.02857176f, -0.06080654f, -0.16567434f, 0.01964928f,
    -0.05969452f, 0.09832047f, -0.02270739f, -0.15809740f, 0.05864877f, -0.11475315f, -0.12626623f, 0.23843136f,
    0.05991680f, -0.14550468f, -0.02652490f, 0.10724357f, 0.09212913f, 0.05225934f, -0.18390499f, -0.11009866f,
    -0.13399273f, 0.07839192f, 0.00156571f, 0.04734356f, 0.14965376f, -0.12012605f, -0.01615104f, 0.00881951f,
    -0.16692750f, -0.00119075f, -0.21734753f, -0.13069803f, 0.15045823f, 0.13259712f, -0.11836763f, 0.22619800f,
    0.30611041f, 0.12447348f, 0.01921286f, -0.06484802f, 0.10919894f, -0.08270440f, -0.01966540f, -0.06123695f,
    0.00667488f, 0.16010733f, 0.26425931f, 0.06171272f, -0.06155847f, -0.00543231f, 0.13470721f, 0.04834963f,
    -0.20287311f, -0.01946003f, -0.05887285f, 0.10140434f, 0.23467831f, 0.14390622f, -0.06625543f, -0.06592403f,
    -0.21050858f, -0.09359810f, 0.15577210f, 0.08787365f, 0.12934734f, 0.27415782f, 0.06209398f, 0.02388401f,
    0.10665144f, -0.10489769f, -0.06460512f, -0.04908412f, -0.14653969f, -0.00832908f, -0.04982048f, 0.10825672f,
    -0.17983463f, 0.37191007f, 0.12983359f, -0.16170806f, 0.07026257f, -0.01159489f, -0.03773837f, 0.04837621f,
    -0.01642968f, 0.13250025f, 0.05460488f, 0.08401128f, 0.15636414f, -0.10810907f, -0.07295223f, -0.15573032f,
    -0.04002547f, -0.11616911f, -0.02296693f, -0.19179976f, -0.03885486f, -0.26633519f, -0.17395641f, 0.12133925f,
    0.00541558f, -0.23988119f, -0.00003007f, 0.16147014f, -0.06664189f, -0.06473908f, 0.03994378f, 0.10450756f,
    0.17751215f, 0.10401831f, -0.31928173f, -0.14579169f, 0.11353162f, 0.26839995f, 0.09440342f, -0.01301729f,
    -0.01941163f, -0.19535953f, 0.07336451f, -0.17292489f, -0.20057797f, 0.05753097f, 0.11531315f, -0.13679200f,
    -0.07154799f, -0.08168098f, 0.01591306f, 0.12346073f, 0.03818545f, -0.01920251f, -0.19187284f, -0.19422248f,
    0.12767591f, -0.08309352f, -0.07267089f, -0.18040240f, 0.03129024f, 0.08276772f, -0.12553781f, 0.05056528f,
    -0.21878293f, -0.05459986f, -0.08633773f, 0.02355476f, 0.03886422f, 0.17128205f, 0.10175481f, 0.08875511f,
    0.17120439f, -0.03122817f, 0.01799758f, 0.08391880f, 0.09852327f, 0.04041158f, 0.32299635f, 0.00954808f,
    0.01751805f, -0.05522370f, -0.01082741f, 0.12524448f, 0.18580568f, 0.00676280f, -0.09100364f, 0.05336869f,
    -0.02322408f, -0.02729406f, -0.07467624f, 0.08585784f, 0.17318758f, 0.14699562f, -0.03560483f, -0.02266446f,
    -0.07918895f, 0.16933452f, -0.01776448f, 0.02761399f, -0.09868103f, -0.04788474f, -0.14894748f, -0.11911971f,
    -0.34744170f, 0.16206393f, 0.08264717f, 0.13663767f, -0.21640138f, -0.13209046f, 0.05409488f, 0.10713813f,
    -0.14787009f, -0.16329058f, 0.11131977f, 0.05666267f, 0.02904815f, 0.00995907f, -0.11762155f, 0.07341212f,
    0.10604569f, 0.16413501f, -0.10670238f, -0.18763143f, -0.09373669f, -0.10399303f, 0.04216244f, -0.13433735f,
    -0.00173145f, -0.20306641f, 0.05224273f, 0.05008919f, 0.00270007f, 0.08485383f, -0.05754585f, -0.12298239f,
    0.04530356f, 0.14040692f, -0.02360386f, 0.23588921f, 0.00256549f, 0.09807028f, -0.02408303f, 0.01660074f,
    -0.28496918f, -0.00659850f, 0.11805672f, -0.03690834f, -0.02640119f, 0.14702474f, -0.01692959f, -0.02614423f,
    -0.03657774f, 0.08764715f, -0.00844796f, 0.08686910f, 0.00068172f, 0.00504409f, -0.14678341f, 0.23784624f,
    0.17654371f, -0.01824536f, -0.00184934f, 0.12240382f, -0.01136412f, 0.05549838f, -0.04957840f, -0.03670945f,
    -0.05792729f, 0.13874447f, -0.03444042f, -0.06000369f, -0.11874630f, 0.08448195f, 0.04286976f, 0.16685008f,
    -0.28229037f, -0.17260060f, -0.13580416f, 0.11979809f, -0.15968274f, -0.03015156f, -0.14852273f, -0.01433779f,
    0.11004729f, 0.15800518f, -0.03265496f, 0.10671655f, 0.27245694f, 0.13363986f, 0.01813163f, -0.01068546f,
    -0.04384437f, 0.25050887f, -0.03400183f, 0.07944708f, -0.01657608f, -0.09842814f, -0.11707382f, -0.15870014f,
    -0.11356082f, -0.03935857f, -0.16936553f, -0.09142540f, 0.09473459f, 0.14242747f, 0.14751790f, -0.03038616f,
    0.19907965f, 0.27973095f, 0.02614502f, 0.19853094f, -0.01465581f, 0.14764245f, 0.09447816f, -0.00086477f,
    0.03195410f, -0.15897301f, -0.03864315f, -0.00780546f, 0.23116377f, 0.05413634f, 0.10498387f, 0.04125553f,
    -0.05497183f, -0.00635581f, 0.06845429f, 0.14288221f, 0.01745891f, 0.00187606f, -0.17716600f, -0.05075732f,
    -0.17529838f, -0.07310790f, 0.00930594f, 0.07142624f, -0.04298624f, 0.08515967f, -0.13823995f, 0.15336843f,
    0.09056138f, -0.16077128f, -0.01945594f, 0.19050805f, -0.00590872f, 0.03532469f, -0.17875145f, 0.00989323f,
    -0.01937747f, -0.01997987f, 0.08790753f, 0.02762560f, 0.10915766f, -0.11821666f, -0.05195909f, 0.17227630f,
    -0.04446509f, 0.01613497f, 0.00248548f, -0.21145660f, -0.12334915f, -0.31944486f, -0.12976287f, 0.03952307f,
    -0.08286982f, 0.09197613f, 0.00666096f, 0.10130812f, -0.04437871f, 0.00154258f, 0.01712278f, 0.24035841f,
    0.11606518f, 0.05049409f, -0.03723134f, 0.04532237f, 0.04716280f, -0.04345994f, -0.26103005f, 0.05909969f,
    0.20779049f, -0.23946929f, 0.04188883f, 0.09195949f, -0.01121496f, 0.01580352f, 0.06308094f, -0.08231802f,
    0.00866893f, -0.01008936f, 0.10125050f, -0.14428245f, 0.10880686f, -0.14535794f, -0.04003869f, -0.06016323f,
    0.05256166f, 0.08354805f, 0.09254992f, 0.13289091f, 0.24335685f, -0.16977854f, 0.03989796f, -0.03376548f,
    -0.07016623f, -0.06937272f, -0.04584794f, -0.08884450f, -0.07527375f, 0.14052424f, 0.04182611f, -0.20177920f,
    -0.09290278f, -0.23673710f, 0.11544774f, -0.12096478f, 0.11025503f, 0.06983534f, -0.01821403f, 0.05361130f,
    0.02568491f, -0.06712558f, -0.20077096f, -0.06037615f, 0.11149217f, 0.15699723f, -0.05308233f, 0.23990656f,
    -0.32340723f, -0.13628657f, 0.01286019f, -0.04928169f, -0.06112690f, -0.02530631f, -0.19604193f, -0.00389796f,
    -0.13247038f, 0.04143614f, 0.03883307f, -0.18893673f, 0.12485149f, 0.19604042f, -0.09885164f, 0.07901647f,
    0.10351180f, 0.11480813f, 0.14251833f, 0.15433805f, 0.00177834f, 0.12254198f, -0.07650428f, 0.18907835f,
    0.09168915f, -0.25434044f, -0.16278261f, 0.11572042f, -0.09450345f, -0.08155984f, 0.13991228f, -0.00137331f,
    0.14468545f, 0.13667756f, -0.01286378f, -0.05119893f, -0.08829986f, 0.00357287f, 0.00063934f, 0.09826949f,
    -0.06794190f, -0.03981375f, 0.02397086f, -0.09331384f, -0.05991081f, -0.04780747f, 0.08144739f, 0.02739125f,
    0.01258759f, 0.20604920f, 0.03196315f, 0.09661562f, -0.20838387f, -0.01054425f, 0.03578495f, -0.00860179f,
    -0.13921010f, -0.04067041f, 0.07848847f, 0.04866242f, 0.01531311f, -0.09642382f, -0.04179179f, 0.01492329f,
    -0.07185507f, 0.01512608f, 0.03946621f, -0.17582841f, -0.07501514f, -0.02423065f, -0.13884018f, -0.02042295f,
    0.01153684f, 0.02865849f, 0.29050145f, -0.07231359f, -0.21252406f, -0.11620881f, -0.06551889f, 0.06455268f,
    0.06295512f, -0.20454074f, 0.09574039f, -0.13837972f, 0.08706688f, 0.16950195f, 0.07388413f, 0.04585521f,
    -0.05683180f, 0.11262562f, 0.06492527f, 0.06973936f, 0.04386497f, 0.07731162f, -0.15386058f, 0.12988667f,
    0.15158473f, 0.00436225f, -0.25253507f, 0.07995085f, -0.07248495f, 0.12712321f, 0.27384186f, 0.02350665f,
    -0.10917962f, -0.04653643f, -0.05983549f, -0.04032608f, 0.22643650f, 0.04298738f, 0.09099068f, 0.14683270f,
    -0.20573586f, -0.22006372f, -0.02647006f, 0.09959451f, -0.07853148f, 0.06578503f, 0.08168165f, -0.01880514f,
    -0.03049106f, 0.10413375f, 0.10677756f, -0.10846697f, 0.14209507f, -0.01510113f, 0.13043635f, -0.03681003f,
    -0.21303758f, -0.00826607f, 0.13205566f, 0.12254456f, 0.02504020f, -0.02346821f, 0.09366022f, 0.08348300f,
    -0.01879532f, 0.19175078f, -0.05430852f, 0.00765690f, 0.11554094f, 0.07953949f, -0.07140019f, 0.04592406f,
    -0.00246166f, -0.04206821f, 0.16678391f, 0.03376378f, -0.02141511f, -0.01057350f, -0.09460542f, 0.06661198f,
    0.07605135f, -0.04617102f, -0.21051647f, -0.14487356f, -0.05694490f, -0.01550508f, 0.13185456f, -0.02926030f,
    -0.08482724f, -0.08182196f, 0.03821130f, 0.01887358f, 0.01582086f, 0.00391463f, 0.12447522f, 0.18385221f,
    0.09258485f, -0.07418186f, -0.15584360f, -0.08344897f, -0.00113334f, 0.02826944f, 0.27912042f, -0.01037745f,
    -0.00692384f, 0.15572749f, 0.02867778f, 0.11935931f, -0.03312556f, -0.01588133f, 0.06369844f, -0.07111504f,
    -0.09109813f, 0.11499860f, -0.09455137f, 0.07328214f, 0.03025224f, -0.18298735f, -0.17868012f, 0.13274737f,
    0.26692811f, 0.06301355f, 0.14401849f, -0.00237124f, -0.08001033f, 0.03047568f, -0.05323863f, -0.11069441f,
    0.04481691f, -0.04161835f, 0.03400681f, 0.08991028f, 0.02192372f, -0.20079349f, -0.12785174f, -0.16952232f,
    0.13310993f, -0.04959294f, -0.02864404f, 0.01539159f, -0.15654728f, -0.12480110f, 0.04641860f, 0.19894601f,
    0.03089226f, -0.07327331f, -0.13047346f, 0.01187049f, -0.19831702f, -0.02741812f, 0.00348516f, -0.12365628f,
    0.23501506f, 0.23842438f, -0.02196259f, 0.05493529f, -0.07711104f, 0.29356137f, -0.09398998f, 0.15366125f,
    -0.22593543f, 0.15102533f, 0.18711509f, -0.04678020f, -0.07911383f, 0.27113447f, 0.02097912f, 0.17544362f,
    0.22352828f, -0.01275620f, 0.01159297f, -0.02694959f, 0.00921190f, -0.09061673f, 0.14294149f, -0.13122272f,
    0.22982399f, -0.01998454f, 0.18514600f, 0.05523974f, -0.17497362f, -0.16152012f, 0.16853335f, -0.01483073f,
    -0.15811746f, -0.01572843f, -0.01768053f, 0.05394688f, -0.11899175f, 0.08148584f, -0.20320870f, -0.03979395f,
    0.05770883f, 0.21661882f, -0.05978965f, 0.12461605f, 0.08512139f, 0.00105978f, -0.00184009f, 0.08732360f,
    -0.21924855f, 0.08098899f, -0.02425193f, 0.09758078f, 0.07536818f, -0.12442077f, -0.21222229f, 0.07998986f,
    0.09458651f, -0.06456376f, 0.02756200f, 0.18306749f, -0.14419733f, 0.00048619f, 0.11739711f, -0.09792487f,
    -0.13002092f, -0.05410847f, -0.09873760f, 0.11847051f, 0.12418535f, 0.04026217f, 0.05270101f, 0.09428573f,
    0.05608461f, 0.14225309f, 0.11858652f, 0.08530212f, -0.12037124f, -0.14293441f, -0.00664000f, 0.01695245f,
    0.17158116f, 0.11112481f, -0.04336765f, -0.11943579f, -0.06182321f, -0.00909940f, -0.10865847f, 0.02101445f,
    0.02260884f, -0.04806527f, -0.18737978f, -0.08544907f, 0.00747627f, -0.07897069f, -0.18996795f, 0.03074962f,
    0.19545031f, -0.01622587f, -0.10555033f, -0.13175052f, -0.17165057f, 0.04714021f, -0.07783545f, -0.15902558f,
    -0.14501099f, 0.06717603f, 0.09414240f, 0.14743680f, -0.07226138f, 0.12662652f, 0.15212452f, 0.01586691f,
    0.04682967f, -0.05692658f, 0.14663212f, -0.07671129f, -0.10443868f, -0.14111304f, -0.13478816f, 0.00613173f,
    -0.11382299f, 0.13792641f, -0.15613210f, 0.06921221f, -0.07768942f, -0.30489746f, 0.07360707f, -0.12973249f,
    0.03661458f, -0.15661409f, -0.05553474f, 0.10539243f, 0.07214831f, -0.14854564f, -0.18266471f, -0.14239679f,
    -0.10830092f, 0.08532370f, 0.15040499f, -0.16916680f, -0.09127411f, 0.03896105f, 0.02084369f, 0.02959411f,
    0.25289446f, 0.13601340f, -0.14501087f, 0.06248369f, -0.05676600f, 0.01238448f, -0.14864080f, -0.02859861f,
    -0.09562719f, 0.14026263f, 0.19577993f, 0.15465486f, -0.08808203f, -0.10115069f, -0.03849364f, 0.20944586f,
    0.13552445f, 0.09226596f, -0.18349317f, -0.02718795f, -0.06438920f, -0.20213471f, -0.04238573f, 0.11176904f,
    -0.08642923f, 0.23032781f, -0.29121590f, 0.01792166f, 0.17408240f, 0.09674118f, -0.02784251f, 0.06001883f,
    -0.05405968f, 0.01362565f, -0.20235498f, 0.22602433f, -0.17083313f, -0.14908688f, 0.03460121f, 0.03605503f,
    0.13203260f, -0.04656033f, 0.07127856f, 0.08427103f, -0.12819146f, 0.13396214f, -0.08131884f, -0.13405778f,
    -0.30350977f, -0.05589800f, 0.09288794f, -0.06640030f, -0.03445832f, -0.16727592f, 0.04067638f, 0.28844377f,
    0.04212537f, 0.13424739f, -0.08416961f, -0.00667159f, 0.13004349f, -0.07198512f, 0.15856844f, 0.10317261f,
    0.03542617f, -0.21189091f, -0.14259394f, -0.07134762f, -0.13257498f, -0.11092998f, -0.19963740f, -0.05954016f,
    0.05775101f, 0.02086310f, 0.01836567f, 0.16470593f, 0.07140314f, -0.00685582f, -0.14238468f, 0.25993660f,
    -0.00484090f, 0.15637739f, 0.05137181f, 0.06944013f, -0.08948094f, -0.12469371f, -0.00738245f, -0.03694462f,
    -0.14389528f, 0.14982101f, -0.11486565f, 0.10701820f, 0.10213417f, 0.01623826f, 0.04053331f, -0.20643401f,
    -0.01650253f, 0.34863335f, 0.22992626f, 0.11337005f, -0.17667431f, 0.08798408f, -0.20698473f, -0.00740180f,
    -0.27306217f, -0.03383724f, -0.10846206f, -0.10066081f, -0.22880894f, -0.20759870f, 0.08854964f, -0.05042377f,
    0.07440228f, -0.04510034f, -0.10438081f, 0.01563993f, 0.05366173f, 0.07407881f, -0.14751618f, -0.06839951f,
    -0.24853376f, -0.03693772f, 0.00278248f, -0.15221040f, 0.33926687f, 0.01840240f, -0.04034497f, -0.09434946f,
    -0.07946204f, -0.11798303f, -0.07018311f, 0.17805262f, -0.15688230f, 0.04792871f, 0.14830944f, -0.09211513f,
    -0.04957141f, 0.05831078f, -0.03463427f, -0.05515931f, 0.02960294f, 0.03917199f, -0.01351359f, 0.19219577f,
    -0.10493620f, 0.05204659f, 0.06454419f, 0.05931291f, 0.09256870f, 0.00494360f, -0.15207149f, 0.22633214f,
    -0.23991768f, -0.14614424f, 0.22456364f, 0.10800185f, -0.06069638f, 0.03212190f, 0.13357404f, -0.15225992f,
    -0.03199610f, -0.00446893f, -0.04512203f, 0.18377757f, 0.10737344f, 0.25563329f, -0.13915865f, 0.05058311f,
    -0.11541905f, 0.07136914f, 0.21289648f, 0.02279975f, 0.02800462f, -0.06753916f, 0.01387810f, 0.02790653f,
    -0.18150340f, -0.00235512f, -0.00877738f, 0.05889506f, 0.20215572f, -0.08792576f, -0.07988296f, -0.07430433f,
    0.04753306f, -0.00352899f, 0.28485292f, 0.06308515f, -0.05614864f, 0.22678646f, -0.08764043f, 0.00101256f,
    -0.15882277f, -0.10355435f, 0.04577342f, 0.02814640f, 0.01724013f, 0.03652708f, -0.08467328f, -0.12640244f,
    0.09201863f, 0.16878711f, 0.03621479f, -0.09632669f, 0.30058968f, 0.07401307f, -0.08506122f, 0.16563071f,
    -0.02506150f, 0.01629357f, 0.01330242f, 0.00922569f, -0.04084187f, -0.10297354f, -0.10659839f, -0.25414088f,
    0.18515635f, 0.09117400f, 0.00144752f, -0.00613270f, 0.06370989f, -0.15515499f, 0.10049937f, -0.08968563f,
    0.00460318f, 0.09902631f, 0.16583265f, 0.11354569f, 0.07721555f, 0.19111733f, 0.13174379f, 0.04204309f,
    0.09383459f, -0.00518591f, -0.21141365f, 0.00732227f, 0.02357809f, -0.12641826f, 0.04008095f, -0.07920109f,
    0.25438097f, 0.01620691f, 0.00352756f, 0.09986620f, -0.04538241f, -0.07594775f, 0.18087804f, 0.09286701f,
    0.08184123f, -0.21003382f, -0.18007728f, 0.00698363f, 0.09130548f, 0.25695550f, 0.01210580f, -0.05894599f,
    0.15919594f, -0.11515971f, -0.10980974f, -0.21942602f, -0.01028130f, -0.05554447f, -0.02939290f, 0.00352992f,
    -0.10093138f, 0.09038484f, -0.00447039f, -0.01622317f, -0.12188327f, 0.08317391f, 0.05035621f, -0.11382432f,
    0.07123689f, 0.14707062f, 0.12843013f, 0.14247337f, -0.08903098f, 0.02793020f, 0.02515837f, -0.02661521f,
    -0.13989440f, -0.13717179f, 0.06842779f, -0.15235297f, -0.03344566f, -0.06649452f, -0.06905438f, -0.07481684f,
    -0.12187719f, 0.04914195f, -0.10525177f, -0.02504182f, 0.04268888f, 0.03373800f, -0.07038560f, -0.03704192f,
    -0.10062869f, 0.10242190f, -0.04559760f, 0.11679599f, 0.07800206f, -0.24861446f, -0.02190643f, -0.19934370f,
    0.06692405f, 0.16132677f, 0.08577702f, 0.03856238f, 0.09573720f, -0.09247004f, 0.07452338f, -0.14503258f,
    0.02794728f, 0.04260457f, -0.16119328f, 0.07836167f, -0.02589911f, -0.01119138f, 0.15747492f, -0.03803805f,
    0.07538273f, -0.15141948f, 0.19956037f, -0.04136192f, -0.22437665f, -0.01811602f, -0.14026490f, -0.09249955f,
    0.02249390f, 0.08257174f, -0.02782524f, 0.00531610f, 0.13002339f, -0.10616194f, -0.05546145f, -0.00656056f,
    -0.07722811f, -0.06411140f, -0.13803397f, -0.03066433f, -0.05160207f, 0.05248547f, -0.05674539f, -0.01136271f,
    -0.19666179f, -0.04432542f, 0.31140471f, 0.27272385f, 0.08141539f, -0.28418097f, -0.13395354f, -0.19869016f,
    -0.01583722f, 0.02160292f, -0.14390381f, 0.05916977f, 0.21168430f, -0.15679295f, 0.21871489f, -0.06735671f,
    0.02873775f, 0.12393978f, -0.12655778f, -0.03624611f, -0.20320882f, -0.13672440f, -0.07493517f, 0.25953421f,
    -0.01403057f, 0.00928942f, 0.11851256f, -0.01798971f, 0.08136576f, -0.04891564f, -0.02455884f, 0.01510480f,
    0.00507101f, 0.05064606f, 0.04657215f, -0.00533521f, -0.03390843f, -0.01675771f, 0.17058547f, 0.06778277f,
    -0.01768218f, 0.04519713f, 0.27979261f, 0.05011198f, 0.15182498f, -0.08713413f, -0.03075404f, 0.25882614f,
    -0.03786936f, 0.08190189f, -0.07491431f, -0.05181489f, -0.28824896f, 0.06648058f, 0.18446210f, 0.04173854f,
    -0.24254332f, 0.02742281f, -0.02366257f, 0.01843051f, -0.03146719f, 0.10110872f, 0.14552747f, 0.13227546f,
    0.13930546f, 0.08387028f, 0.05574175f, 0.17626134f, -0.13058558f, -0.15722349f, -0.02766591f, 0.02884068f,
    -0.13074531f, -0.09729121f, -0.08489943f, -0.14519826f, 0.05545088f, -0.13536328f, 0.13734975f, 0.02145019f,
    -0.02479680f, -0.11691504f, 0.06209466f, 0.04015882f, -0.02986479f, 0.10499012f, -0.04846808f, -0.18808752f,
    -0.13007751f, -0.14122197f, 0.16898434f, -0.13244620f, 0.06139264f, -0.14086591f, 0.07607227f, -0.08185443f,
    -0.02140778f, 0.08523810f, 0.13779521f, -0.16166088f, -0.09796637f, -0.15482394f, 0.19540000f, -0.13878125f,
    -0.03822087f, -0.06537054f, 0.18422502f, 0.01214645f, -0.08750887f, -0.00454971f, -0.22842398f, 0.09872284f,
    -0.01050637f, -0.00398367f, -0.10680010f, 0.14380026f, -0.13287865f, 0.01819834f, 0.00071049f, -0.09390048f,
    0.01781902f, -0.08617923f, 0.17207088f, 0.15499184f, -0.00971426f, -0.27527192f, 0.15602390f, 0.12273334f,
    0.20253219f, -0.09497968f, 0.00148595f, 0.00330852f, 0.04814323f, -0.15428376f, -0.18308958f, 0.00332455f,
    0.07911943f, 0.05381167f, 0.05636936f, 0.00603221f, -0.02524525f, 0.12577626f, 0.15571447f, -0.12865631f,
    -0.07217178f, -0.07923153f, -0.09725369f, -0.19950546f, -0.04267554f, 0.30507562f, -0.28263694f, -0.07424169f,
    -0.06286743f, 0.04439003f, -0.06353073f, 0.07340782f, 0.01845690f, -0.01557768f, 0.30445832f, 0.10173160f,
    -0.11169570f, -0.11842582f, 0.04039377f, -0.17667392f, -0.01747257f, 0.09437887f, 0.11266223f, 0.03536791f,
    -0.10743719f, 0.17183231f, -0.08188506f, 0.19060764f, -0.26911750f, 0.05708807f, -0.06658942f, -0.00424346f,
    0.05683111f, 0.00295435f, -0.08630292f, 0.05886206f, -0.04285127f, 0.18681720f, -0.26178637f, -0.07759202f,
    -0.06331228f, 0.09335396f, 0.17586054f, -0.28013936f, -0.29095191f, 0.08310489f, -0.01024934f, -0.09669307f,
    -0.20621577f, -0.07049979f, -0.24390726f, -0.16102271f, -0.01570741f, 0.18294796f, -0.04922337f, -0.04034010f,
    0.01324054f, -0.02212680f, -0.06324303f, 0.08207385f, 0.05326022f, 0.20619187f, -0.01445821f, -0.01350790f,
    -0.04737341f, 0.01483032f, -0.09200675f, -0.07072755f, -0.23436034f, -0.39269960f, 0.12472225f, -0.14908467f,
    0.11048490f, -0.07878048f, -0.28342375f, 0.07489625f, -0.12455665f, -0.02815431f, -0.17678022f, 0.00233397f,
    0.01476222f, -0.03350383f, 0.06836624f, 0.16087362f, 0.18091109f, -0.05390148f, 0.01580469f, 0.05504307f,
    0.02738836f, -0.14080061f, -0.31707707f, -0.09799235f, 0.11416958f, 0.13756986f, 0.21822610f, -0.20893607f,
    0.00568477f, -0.05433505f, -0.09185287f, 0.01903997f, -0.12851484f, -0.07969692f, 0.11243930f, -0.01126223f,
    -0.01123282f, 0.02311238f, 0.05432046f, 0.12755993f, -0.40419981f, 0.03743577f, -0.14567606f, -0.05516757f,
    -0.09574708f, 0.11592856f, 0.02682254f, -0.22850768f, 0.09991108f, -0.01822100f, -0.04228904f, -0.21996740f,
    0.13374375f, 0.02566644f, -0.20673142f, -0.11984288f, 0.16366151f, 0.01214329f, -0.02059776f, -0.15735745f,
    -0.07689939f, 0.09952956f, -0.05799516f, -0.00595056f, -0.17139235f, -0.02018411f, 0.00406189f, -0.02630004f,
    -0.15641645f, 0.01507907f, 0.14365292f, -0.07319380f, 0.20320337f, 0.00388424f, -0.04639611f, -0.15450981f,
    0.10222772f, 0.05267724f, 0.10360423f, -0.21743777f, -0.09544172f, -0.18687582f, 0.14724198f, 0.01671902f,
    -0.02526451f, 0.15036443f, 0.18944673f, 0.06342690f, -0.05383838f, 0.00744030f, -0.10201037f, -0.14116897f,
    0.08612096f, 0.09895518f, 0.01305344f, 0.10600055f, 0.08242903f, -0.05239945f, -0.05038725f, 0.02627160f,
    -0.05427651f, -0.17898424f, -0.06231165f, -0.05801252f, -0.08884867f, -0.00550619f, 0.24800590f, 0.12952551f,
    0.19160895f, 0.00511499f, 0.27676204f, 0.08400660f, -0.00333686f, 0.07066157f, 0.05377041f, -0.04194185f,
    -0.00357999f, 0.04970801f, -0.28158540f, -0.00107130f, 0.01923819f, -0.00222111f, 0.08844141f, 0.16490042f,
    -0.14247423f, -0.04580662f, -0.03776563f, 0.02492617f, -0.13603196f, -0.14236930f, 0.01900418f, -0.01538128f,
    -0.18043384f, -0.01695390f, 0.27526462f, -0.08095582f, -0.16994366f, -0.07114647f, 0.25308082f, 0.15751055f,
    -0.21406882f, -0.20354055f, -0.06545845f, 0.01500934f, -0.05086168f, 0.00807871f, -0.07102543f, -0.00412759f,
    -0.20286940f, -0.13474199f, 0.02924483f, 0.00607059f, 0.00902299f, 0.09938244f, 0.00825473f, 0.09715020f,
    -0.12807700f, 0.04774508f, 0.16124094f, -0.13115361f, 0.01187044f, -0.05606732f, 0.15005231f, -0.00211214f,
    -0.33908364f, -0.06724112f, -0.04561628f, -0.02813403f, 0.13261132f, -0.14175469f, 0.13765021f, 0.07767063f,
    -0.06221850f, 0.24118115f, -0.07205779f, 0.00860103f, -0.13190584f, 0.00654355f, -0.08793609f, 0.18565160f,
    -0.00835367f, -0.06413132f, 0.17535293f, -0.17521511f, 0.23762503f, 0.10617160f, 0.03915961f, -0.05664763f,
    0.14583893f, 0.37638536f, -0.04714044f, -0.09163868f, 0.08122765f, -0.17763102f, 0.20625405f, -0.03731890f,
    0.00359421f, 0.14957233f, -0.02476910f, -0.11199413f, 0.07362901f, 0.06107876f, 0.04001013f, 0.03381195f,
    -0.04985205f, -0.04451339f, 0.05815570f, 0.11731759f, 0.03306920f, -0.02205580f, 0.02690409f, 0.12353487f,
    -0.07739673f, -0.21986486f, -0.05650431f, 0.13147755f, 0.00237328f, 0.06054115f, 0.00748220f, 0.16965833f,
    -0.17939956f, 0.06566370f, -0.09161952f, -0.15075310f, -0.15551369f, -0.03137847f, 0.13059591f, 0.07343116f,
    -0.12311776f, 0.03426272f, 0.13696714f, 0.07185587f, -0.05312591f, -0.21664304f, 0.08933684f, -0.10683960f,
    0.11402705f, 0.04400744f, -0.05321660f, -0.03503831f, -0.18222919f, 0.05612483f, 0.16208391f, 0.06803682f,
    0.24815950f, -0.10891130f, -0.10288330f, -0.04370245f, 0.02616382f, -0.17196898f, 0.00144023f, -0.18795848f,
    0.05869778f, -0.01689620f, 0.02372874f, -0.29618430f, 0.06802791f, -0.13036454f, 0.00721666f, 0.09603773f,
    -0.04979696f, -0.10762515f, 0.00115429f, -0.09555339f, 0.12225977f, -0.02204091f, 0.17427316f, -0.01788503f,
    0.03707608f, -0.11541235f, 0.12047435f, -0.06404065f, 0.07225879f, 0.09337400f, 0.11137346f, 0.03943704f,
    0.07454079f, -0.07594049f, -0.07775971f, -0.13553019f, 0.06388612f, 0.15107097f, -0.01334210f, 0.14098486f,
    0.02480773f, 0.00570759f, -0.07797393f, -0.02595657f, 0.08318272f, 0.03317641f, -0.03890035f, -0.12194034f,
    0.19754270f, 0.11387741f, -0.13119169f, -0.02460083f, 0.22301891f, -0.09245984f, 0.17055310f, 0.22286610f,
    -0.05621924f, -0.00785293f, -0.00223905f, -0.10942465f, 0.04253446f, 0.10010127f, 0.17405619f, -0.14564210f,
    -0.04889978f, -0.04402715f, 0.04606469f, 0.12601487f, -0.01103896f, 0.02096722f, -0.06704834f, -0.14242579f,
    0.10942237f, -0.02495329f, -0.03914748f, 0.00147912f, -0.18234026f, 0.13135545f, 0.03544073f, 0.18624781f,
    -0.06562038f, -0.28975767f, 0.01949799f, -0.00330163f, 0.01256793f, 0.00769010f, 0.19460203f, 0.03875359f,
    -0.05826097f, 0.04284146f, 0.10061548f, -0.14363019f, -0.14998500f, 0.07612974f, -0.07172342f, 0.08728108f,
    0.03525644f, -0.13892333f, -0.12355001f, -0.17544617f, -0.04232469f, 0.11246257f, -0.05337988f, 0.24004504f,
    -0.04889928f, 0.00332897f, -0.04427793f, 0.10095155f, -0.20397003f, 0.01594584f, -0.01572128f, 0.02154133f,
    0.02747862f, -0.11860026f, -0.12494460f, 0.18333745f, -0.07584415f, 0.15302171f, -0.14671877f, 0.35530925f,
    0.06362186f, -0.05568786f, 0.06694695f, 0.03833535f, -0.23330061f, 0.03316104f, 0.15391713f, 0.09249641f,
    -0.21796371f, 0.13708599f, -0.08381141f, -0.14555903f, 0.00826428f, -0.02117592f, 0.16806351f, -0.14935917f,
    -0.05553669f, -0.25235707f, -0.02863147f, 0.06385235f, -0.02062687f, -0.06698587f, -0.14354663f, -0.20877805f,
    -0.17692927f, 0.30846670f, 0.00847851f, 0.09653493f, -0.02384441f, -0.08283045f, 0.18274704f, 0.08584574f,
    -0.11537270f, 0.00700450f, -0.03558905f, -0.01272734f, 0.19376531f, 0.03866331f, -0.18464601f, -0.00349952f,
    0.17362297f, -0.05772891f, -0.06780640f, 0.26619297f, -0.07295544f, -0.03895679f, 0.06066240f, 0.13102366f,
    -0.20565477f, 0.18811835f, 0.04609430f, -0.09071769f, 0.19666271f, -0.11443713f, -0.16200592f, -0.09283772f,
    0.05827522f, 0.03192931f, 0.08524247f, 0.07878394f, -0.16528894f, 0.15003221f, 0.05874503f, 0.13577169f,
    -0.11576369f, 0.02282810f, -0.16949974f, -0.09365538f, -0.00040242f, -0.03710367f, 0.02593253f, 0.35701832f,
    0.02535736f, -0.21076381f, 0.21818696f, 0.01601660f, 0.03481977f, -0.10633008f, 0.01473395f, -0.16548169f,
    0.01459306f, 0.07502007f, 0.37699452f, -0.07916425f, 0.30613306f, 0.19922714f, -0.14685129f, 0.05484299f,
    -0.05195208f, -0.05904533f, -0.06236212f, -0.04554221f, 0.06590388f, 0.02994671f, -0.03121075f, 0.14995879f,
    -0.20994572f, -0.03891602f, 0.17424741f, -0.15530883f, -0.06023038f, -0.00379677f, 0.05748903f, -0.09276082f,
    0.05938530f, -0.00631292f, -0.09761799f, 0.13731349f, -0.06076753f, 0.03495323f, 0.08353680f, -0.18411945f,
    -0.01012838f, 0.14935559f, 0.04736295f, 0.22662003f, 0.22927681f, -0.05376060f, 0.08288409f, -0.29621226f,
    0.15643075f, 0.05770648f, 0.01554697f, 0.00806021f, -0.00485661f, 0.20187336f, -0.09551536f, 0.24847163f,
    -0.01018169f, 0.15769848f, -0.05363112f, 0.04864509f, -0.04882890f, -0.01571802f, -0.04428245f, -0.02416967f,
    -0.06571454f, -0.13813961f, -0.11128947f, -0.18690029f, 0.08335566f, 0.11108471f, 0.02937923f, -0.06348287f,
    -0.03718363f, -0.08316068f, 0.08684223f, 0.02749934f, -0.05880549f, 0.03460426f, 0.24299929f, -0.02999693f,
    -0.06588148f, -0.07754400f, 0.08660765f, -0.28482878f, 0.03952409f, 0.07612095f, 0.07725376f, -0.00783839f,
    -0.21809465f, 0.12158497f, 0.13506487f, -0.18853793f, 0.01104126f, 0.00388393f, -0.08251129f, 0.05809107f,
    -0.16269320f, 0.25182369f, 0.02046188f, 0.08331227f, -0.19721794f, 0.00741365f, -0.34469405f, 0.04908631f,
    -0.13048634f, 0.11677913f, 0.28432053f, 0.25386468f, -0.05402888f, -0.07045498f, -0.00922559f, -0.18001309f,
    -0.02213251f, -0.07672480f, 0.13109009f, 0.08402762f, 0.01036761f, -0.05098699f, -0.07748522f, -0.03887994f,
    -0.17001024f, -0.07545008f, 0.03147425f, -0.06411203f, -0.11587356f, -0.20093678f, -0.25179860f, 0.18672568f,
    0.16445589f, -0.25753483f, 0.15463167f, 0.13943093f, 0.23601639f, -0.00433279f, -0.02907055f, 0.16566393f,
    0.10264546f, -0.10977397f, 0.25756979f, -0.15901183f, 0.00847619f, 0.15064794f, 0.02455481f, -0.03704628f,
    0.13564022f, 0.01523237f, -0.02657588f, 0.07799174f, -0.08606171f, -0.03374465f, 0.05631526f, 0.15747061f,
    -0.04334337f, 0.00153192f, -0.07526627f, -0.06445536f, -0.10792325f, 0.01505922f, 0.00997125f, 0.13910800f,
    -0.05160071f, 0.05002210f, 0.12101529f, 0.01802774f, 0.04707739f, 0.16159280f, -0.13501650f, 0.06336624f,
    0.04427377f, -0.15998535f, -0.16779694f, 0.14054488f, 0.25028449f, 0.04566295f, -0.13052306f, 0.00374306f,
    0.15584290f, -0.13785474f, 0.05412231f, -0.10911295f, -0.12870730f, 0.00061186f, 0.00889888f, -0.02928983f,
    -0.12295828f, -0.10457665f, -0.23137362f, -0.25540352f, -0.19717138f, 0.11245382f, 0.02349264f, 0.19732058f,
    0.20034783f, 0.18408437f, -0.10017498f, -0.22267073f, -0.04668435f, -0.34580258f, -0.01262290f, -0.00962817f,
    0.20422596f, 0.15507375f, -0.26903972f, -0.05945281f, 0.02189983f, -0.00053571f, 0.32089102f, 0.17062093f,
    -0.11470104f, 0.03905508f, -0.20709056f, -0.10337027f, -0.06044401f, -0.13875581f, -0.29367629f, -0.07129911f,
    0.15035503f, -0.11202691f, 0.06629732f, -0.09394183f, -0.02341127f, -0.01042437f, -0.04632602f, -0.11866994f,
    0.11593192f, -0.13583188f, 0.32896209f, 0.00907892f, 0.01451677f, -0.06426770f, 0.24673614f, -0.17621577f,
    0.06152935f, 0.01856742f, -0.06950410f, -0.21066687f, -0.09273626f, -0.05759203f, -0.06409852f, -0.05409388f,
    -0.12577166f, -0.05500951f, -0.03304903f, 0.17540546f, 0.10824192f, 0.03781172f, 0.14728527f, 0.06637211f,
    -0.20574129f, 0.10502426f, -0.01634568f, -0.11487187f, 0.04166212f, -0.04342336f, 0.17987667f, -0.09557376f,
    -0.00031726f, 0.00811931f, -0.13164686f, -0.11763696f, 0.05218471f, 0.17976987f, -0.10630456f, -0.00609602f,
    -0.17759958f, 0.11132553f, -0.09843961f, 0.09945789f, -0.06002231f, -0.29636943f, 0.16398832f, -0.04950506f,
    0.01895338f, -0.11658227f, -0.11480818f, 0.00772834f, -0.02124940f, -0.09533929f, -0.26885945f, 0.02216203f,
    0.07894972f, 0.03290908f, 0.07588711f, 0.00784517f, 0.12499724f, -0.10137094f, -0.28627077f, 0.26085725f,
    0.07860528f, -0.15787044f, 0.06363351f, 0.23768593f, 0.10364063f, -0.04515415f, -0.00363492f, 0.05037191f,
    -0.12540247f, -0.17037383f, -0.06314682f, 0.04024867f, 0.06271584f, 0.08537181f, -0.14057612f, -0.06249598f,
    -0.03110483f, 0.07406677f, -0.15740159f, -0.11451036f, -0.02890537f, -0.08987168f, 0.11980274f, 0.13499218f,
    -0.01604980f, -0.04448307f, -0.01080423f, -0.06372005f, 0.16872267f, 0.26665470f, 0.25076571f, 0.34762031f,
    0.05848866f, 0.12663777f, -0.06306820f, 0.12991448f, -0.11777034f, 0.18309224f, 0.08724853f, -0.27063927f,
    0.04429520f, 0.09816922f, 0.12687947f, -0.13699321f, -0.16981037f, -0.12005414f, 0.13617791f, -0.12643436f,
    0.30275264f, -0.08001705f, 0.14638822f, 0.07601664f, -0.06575790f, -0.12776133f, 0.04395439f, 0.26310128f,
    -0.16454773f, 0.28293324f, -0.06834226f, -0.09717830f, -0.15354685f, -0.05067070f, 0.18506925f, -0.03126340f,
    0.12133640f, -0.15702705f, -0.12486374f, -0.18985072f, -0.08368422f, 0.03240847f, -0.08569372f, 0.27223739f,
    -0.20190322f, -0.07308652f, -0.02653796f, -0.13884526f, -0.10454206f, 0.10421207f, 0.09336632f, -0.15831956f,
    0.00871656f, 0.11441127f, -0.12509474f, 0.09284397f, -0.14994007f, 0.04166277f, -0.03958787f, -0.29688615f,
    0.07040405f, -0.15360267f, -0.07351870f, 0.07688670f, 0.26828703f, 0.03548107f, -0.06232283f, -0.15439466f,
    0.30417025f, 0.21463594f, 0.04839998f, -0.16525997f, -0.18129462f, -0.00064254f, 0.00033044f, 0.07008793f,
    0.06100262f, -0.22389972f, -0.04092031f, -0.13884142f, -0.07160667f, 0.11202903f, 0.07653172f, -0.04482662f,
    0.14517759f, 0.18767260f, 0.11341605f, 0.14227386f, -0.01034102f, 0.07552473f, -0.31724179f, 0.19567546f,
    0.08764964f, 0.15608418f, 0.08434861f, 0.12778307f, -0.04562859f, 0.03582377f, -0.05495453f, 0.16673857f,
    0.01976882f, -0.05941537f, -0.07398105f, -0.19210315f, -0.14541754f, -0.05078677f, 0.23656815f, -0.08867790f,
    0.08526719f, -0.04971273f, -0.09526644f, -0.04955611f, -0.08933641f, 0.14905562f, -0.11075012f, -0.08163475f,
    -0.22049345f, 0.18161330f, -0.03702664f, 0.05615196f, 0.19511706f, -0.19858541f, -0.01919971f, -0.13034609f,
    0.28101408f, -0.00123964f, 0.02516810f, -0.02277525f, 0.02371167f, -0.10374785f, -0.13130291f, -0.33256930f,
    0.10418446f, -0.19358999f, -0.07377785f, 0.21665879f, -0.10051601f, 0.02341976f, -0.00464724f, -0.10239103f,
    0.17406748f, 0.14773157f, 0.06955455f, -0.05177066f, 0.04207439f, 0.09575851f, -0.11006924f, -0.10029970f,
    -0.24750233f, 0.00316383f, -0.14281227f, -0.05560044f, 0.11242768f, -0.03329609f, -0.01314611f, -0.04858575f,
    -0.07458443f, -0.08565971f, -0.03105475f, -0.04347051f, -0.01060949f, -0.09748322f, 0.06002870f, -0.34302375f,
    -0.13205165f, -0.09196375f, 0.00535823f, 0.05163116f, -0.15297052f, -0.15831673f, -0.21176954f, -0.09340871f,
    0.12762645f, -0.15987223f, -0.19181110f, -0.00641789f, 0.10120581f, -0.11526226f, -0.00954467f, -0.08299188f,
    0.04709717f, -0.08288591f, 0.25384220f, -0.02595723f, -0.07526965f, -0.08341204f, -0.12365896f, -0.22453150f,
    -0.17150588f, 0.03420381f, 0.04867076f, 0.08460187f, -0.08806938f, 0.04839516f, 0.10052287f, 0.24791630f,
    0.17479283f, -0.18151911f, 0.00915702f, -0.11359565f, 0.12070871f, -0.10474484f, 0.15768978f, 0.03541330f,
    0.06161423f, 0.11468395f, -0.04175510f, -0.08534478f, -0.01397204f, 0.08847108f, 0.29879138f, 0.19345383f,
    -0.03039058f, -0.27532730f, 0.08042949f, -0.05421462f, -0.20977758f, 0.07234308f, 0.17614147f, -0.07876191f,
    0.09515817f, -0.03096688f, -0.08082337f, -0.16570084f, 0.09523818f, -0.00648383f, -0.06587783f, 0.01466648f,
    -0.04241728f, 0.11635526f, -0.17834711f, -0.00721146f, 0.03319630f, 0.03063216f, -0.01922378f, -0.04397437f,
    0.22949927f, -0.00015456f, 0.35644805f, -0.05381790f, 0.05516885f, -0.33269072f, 0.02577164f, -0.08907620f,
    0.01276881f, 0.12262595f, 0.04834995f, 0.05014317f, -0.11715191f, 0.05408530f, -0.24058385f, 0.06543567f,
    0.02159484f, -0.05531312f, 0.09335542f, 0.07580905f, 0.16404638f, -0.08777571f, -0.34024757f, -0.06620473f,
    0.01033904f, 0.00771017f, -0.11541989f, -0.18785647f, -0.00455082f, -0.14465085f, -0.16726130f, 0.00713083f,
    -0.14511408f, 0.17995800f, 0.06159702f, -0.16524495f, 0.21011296f, 0.07079032f, 0.02641216f, -0.13352616f,
    -0.01651766f, 0.17180528f, -0.11453927f, 0.23683766f, -0.03201095f, 0.07705440f, -0.23004629f, 0.02805909f,
    0.09281781f, -0.02756434f, 0.01133801f, 0.06342641f, -0.00819236f, -0.21880858f, -0.12566832f, 0.00043967f,
    0.14270248f, 0.17424163f, 0.00386602f, 0.16165903f, -0.13671148f, 0.01207169f, -0.22939473f, -0.00906981f,
    0.01820833f, 0.04510398f, -0.09800287f, -0.15534741f, 0.02306515f, 0.22002003f, -0.13364603f, 0.02598078f,
    0.19242537f, 0.13540283f, -0.06013188f, -0.07375120f, 0.17300586f, 0.12396581f, -0.14837058f, 0.05128143f,
    -0.03871883f, 0.00157078f, -0.12192074f, -0.15989907f, 0.13783439f, -0.01317977f, 0.07385617f, -0.12664311f,
    0.02640629f, 0.01761796f, -0.01259266f, -0.04720299f, -0.11601515f, -0.09036924f, 0.03204206f, -0.00378303f,
    -0.21349560f, -0.03386474f, -0.07829174f, 0.00738033f, -0.08188603f, -0.10836861f, -0.07312553f, 0.27846393f,
    0.18463565f, 0.01851794f, 0.21068107f, -0.03032237f, 0.10816999f, 0.09623621f, 0.07629393f, -0.27896753f,
    -0.06104643f, 0.16611403f, 0.03162193f, -0.16832921f, 0.00175620f, -0.17908278f, 0.09703624f, -0.12086317f,
    -0.00520316f, 0.20437102f, 0.01906053f, 0.02945627f, -0.18797368f, -0.17313766f, 0.18389407f, -0.01059364f,
    0.11137085f, 0.20686197f, -0.02677354f, 0.00866574f, -0.08194680f, 0.00895161f, -0.13582194f, 0.05123793f,
    -0.18451507f, 0.38566098f, 0.03514621f, 0.18096127f, 0.16150242f, 0.08901661f, 0.25445366f, -0.21329808f,
    0.09075658f, -0.09096147f, -0.04257431f, -0.18251394f, -0.14396480f, -0.06470913f, 0.06147731f, 0.08144373f,
    0.06761018f, -0.13875030f, -0.34844425f, -0.03107987f, -0.06452172f, 0.05856864f, 0.10707513f, -0.06207066f,
    0.03200232f, 0.05497770f, 0.04899197f, 0.00214266f, 0.03809546f, -0.07509229f, -0.02409054f, -0.03624992f,
    -0.17108142f, -0.14856094f, 0.04106260f, -0.09426404f, 0.21706761f, -0.00311327f, -0.11866906f, -0.12170781f,
    -0.18561520f, -0.10458229f, -0.10264163f, -0.10346739f, 0.08391911f, 0.10472063f, 0.03877177f, 0.06047940f,
    -0.17147824f, 0.10223404f, -0.13419002f, 0.06926736f, 0.18407312f, -0.06566629f, 0.15604091f, 0.14162709f,
    -0.02808714f, 0.04135911f, -0.09444825f, 0.02660022f, -0.09008340f, 0.00598619f, 0.08484314f, -0.15829834f,
    0.28744102f, -0.02919108f, -0.09374973f, 0.02537500f, 0.01110738f, -0.11862031f, 0.10937542f, -0.00784043f,
    0.08549409f, -0.08430333f, -0.13313340f, 0.07737010f, 0.01144421f, 0.10393230f, -0.04393693f, 0.07388090f,
    -0.09822831f, 0.04290444f, -0.27352497f, 0.11997625f, -0.24821188f, -0.02744408f, 0.07380135f, -0.04517503f,
    -0.05057713f, -0.01719510f, 0.09962873f, 0.08729700f, 0.00644894f, -0.10816798f, 0.21198387f, 0.21916939f,
    -0.20682994f, -0.08600447f, 0.13602120f, 0.14295699f, 0.02311451f, -0.02274234f, -0.16310026f, 0.08712352f,
    -0.12022316f, -0.05422005f, 0.02950910f, -0.15069765f, 0.19865873f, -0.22660491f, 0.14781909f, -0.00725266f,
    0.04301031f, -0.09042715f, -0.02507868f, -0.01297420f, -0.05576525f, -0.07534896f, -0.16801448f, -0.18547282f,
    -0.05196262f, 0.04612733f, 0.05878621f, 0.03277258f, 0.03996962f, -0.07077901f, -0.23821208f, 0.00185440f,
    -0.18368365f, -0.13165718f, 0.16921256f, -0.03492272f, 0.09584405f, 0.03977620f, 0.19025438f, 0.00886952f,
    -0.12666810f, 0.23728430f, -0.16388416f, -0.04126320f, 0.14933413f, -0.11044504f, -0.20790130f, -0.06211956f,
    -0.05405429f, 0.01924069f, -0.08509623f, 0.01060793f, -0.02075722f, 0.11566827f, 0.20610081f, 0.07597892f,
    0.13716057f, 0.07713519f, -0.12753810f, -0.12384662f, -0.08378825f, -0.12715362f, 0.11623745f, -0.05408331f,
    0.08247293f, -0.07561874f, -0.04527692f, 0.04712438f, 0.06677536f, 0.20394383f, -0.03496692f, 0.18383671f,
    -0.01156282f, -0.10586579f, -0.21088882f, -0.16734023f, -0.08056968f, -0.12347848f, -0.09757328f, -0.00830534f,
    -0.15117650f, 0.11375491f, -0.06667323f, 0.12819546f, 0.01263238f, -0.15938467f, 0.03351079f, 0.08284163f,
    -0.10919803f, -0.05737381f, 0.04675379f, -0.01368264f, 0.14817005f, -0.02600359f, -0.06014559f, -0.15469883f,
    -0.05850525f, 0.11375204f, -0.04026556f, 0.08388565f, 0.06802406f, 0.14455427f, 0.04577982f, 0.13551949f,
    -0.06228188f, 0.25719878f, 0.05208343f, 0.11418480f, 0.05595808f, -0.02074638f, -0.20431849f, 0.04643553f,
    0.06101399f, 0.07254897f, 0.04503724f, 0.00305564f, -0.02624916f, -0.10149791f, -0.19720304f, -0.14635721f,
    -0.17061336f, 0.20401910f, -0.01493357f, 0.12631540f, -0.03286894f, -0.02613591f, 0.07484695f, 0.02512193f,
    0.03631380f, -0.12788793f, -0.10020644f, -0.02871258f, 0.05542557f, 0.01695835f, 0.01563041f, 0.06670865f,
    -0.07769337f, 0.12709649f, -0.18647420f, 0.00098867f, 0.19658320f, -0.11071298f, 0.13068330f, -0.38743189f,
    0.12208273f, 0.22504322f, -0.01267373f, -0.07088196f, -0.17849191f, 0.10150989f, -0.04983342f, 0.10165630f,
    -0.07483813f, -0.01381189f, 0.07833813f, 0.05840124f, 0.15048958f, -0.01105999f, -0.02052627f, 0.11812303f,
    -0.20359604f, 0.13260391f, -0.23785712f, 0.00055503f, 0.07300112f, -0.12163475f, 0.17235270f, -0.06157203f,
    -0.03607782f, -0.07654073f, -0.21374284f, 0.05485070f, -0.08078749f, 0.13419910f, 0.06262085f, -0.13151501f,
    -0.03657858f, 0.11705603f, -0.09834228f, -0.14884157f, -0.00669979f, -0.06276572f, -0.09921698f, 0.12729146f,
    -0.09532230f, -0.02574870f, 0.01285761f, -0.05883549f, -0.19141658f, 0.00448959f, 0.00390379f, 0.16086569f,
    -0.06467225f, 0.13387573f, 0.00343189f, 0.18357027f, -0.21616663f, -0.06756917f, 0.04246933f, 0.02808046f,
    -0.10097460f, -0.08062603f, 0.01105104f, 0.02385662f, -0.02148312f, -0.15643397f, -0.27819127f, -0.00403991f,
    -0.11697606f, -0.06063954f, 0.22856429f, -0.23061542f, 0.13965999f, -0.01061096f, -0.00769744f, -0.03410352f,
    -0.01588611f, 0.19338311f, 0.20318343f, 0.16759084f, -0.02812555f, 0.06125350f, -0.25578457f, 0.00062727f,
    0.04627202f, 0.18879887f, 0.14421569f, -0.04417254f, -0.14034685f, 0.09671721f, -0.10866163f, -0.07516969f,
    0.06421871f, -0.02798469f, 0.06255843f, 0.05130837f, 0.18163231f, 0.08853184f, 0.16499284f, -0.11182680f,
    -0.10279032f, -0.12521228f, -0.01174540f, -0.13988808f, 0.07266782f, 0.06532229f, 0.24280809f, 0.13836825f,
    -0.09324465f, -0.05698601f, 0.08835675f, 0.11269143f, 0.03580157f, -0.08639168f, 0.23565303f, 0.10801575f,
    0.04884496f, 0.01983737f, -0.08902808f, -0.02814926f, 0.07712261f, 0.05435583f, -0.24397357f, -0.02982649f,
    0.03733690f, -0.00350190f, -0.00568294f, 0.09582791f, -0.07664177f, -0.04624521f, 0.01385901f, 0.16431665f,
    -0.01006093f, -0.14024723f, 0.11035967f, -0.02652846f, -0.01506106f, 0.16314958f, 0.16098802f, -0.27028480f,
    -0.07054462f, -0.10847177f, -0.03691091f, -0.19830704f, -0.07641720f, -0.11773475f, -0.10996036f, 0.12503560f,
    -0.13228035f, 0.06351083f, 0.11649309f, -0.05792348f, 0.17692000f, 0.05508520f, -0.04347353f, -0.06248641f,
    -0.13545634f, 0.12729141f, 0.14157240f, 0.09722634f, 0.10997813f, 0.06173450f, 0.13214064f, -0.19784617f,
    -0.06909496f, 0.12427875f, -0.10227422f, -0.10565074f, -0.07466009f, 0.05015955f, -0.03914576f, -0.15482871f,
    0.02435113f, -0.15894663f, 0.11474454f, 0.06159484f, 0.12179422f, 0.09689025f, -0.05291152f, 0.08576641f,
    0.17286579f, -0.11931809f, -0.11950340f, 0.05993991f, 0.14252855f, 0.08959071f, -0.08643264f, -0.06368592f,
    -0.12391114f, -0.00249864f, -0.13629799f, 0.27555731f, 0.17065658f, -0.10584914f, -0.04555624f, -0.14532255f,
    0.24209432f, 0.00991580f, -0.02757428f, 0.29959616f, 0.06715887f, 0.05739787f, -0.10600362f, -0.00468168f,
    -0.03821953f, 0.05082038f, 0.41779801f, 0.01426908f, -0.01898608f, 0.16785941f, -0.07714391f, 0.01500271f,
    0.08386900f, -0.03970057f, 0.00773472f, -0.09646507f, -0.00646697f, 0.18959092f, 0.12254854f, 0.10224574f,
    -0.01512071f, -0.06123843f, -0.05694240f, 0.01685138f, 0.13085343f, 0.01197096f, -0.02315618f, -0.15130584f,
    0.02923033f, 0.20441091f, -0.26143378f, -0.00794182f, 0.08197221f, -0.04017011f, 0.01078584f, -0.00275528f,
    0.15205912f, -0.22647709f, 0.15257253f, -0.06993952f, -0.02325942f, 0.01433827f, -0.01476012f, -0.22830594f,
    0.03752421f, -0.01009132f, -0.19858035f, -0.04619739f, 0.07131033f, -0.26224443f, -0.04210442f, 0.22415507f,
    0.09162498f, 0.16394269f, 0.18196978f, 0.05027918f, -0.10986725f, 0.00757291f, -0.00173408f, 0.04856091f,
    -0.00729693f, 0.02259122f, -0.16587223f, -0.02513106f, 0.09819660f, -0.11735806f, -0.05652976f, -0.24893859f,
    0.22956140f, 0.13326819f, -0.04595952f, 0.22325200f, 0.00030925f, -0.11387149f, -0.17286487f, -0.01519879f,
    -0.05268336f, -0.04330301f, -0.03926617f, 0.01531431f, 0.06650702f, 0.28475171f, 0.02903667f, 0.20143285f,
    -0.12012804f, -0.23033443f, -0.01393801f, 0.01489320f, 0.16259435f, -0.05742998f, 0.04252154f, 0.10484094f,
    -0.25956038f, 0.07207575f, 0.04291706f, 0.13632149f, 0.27759191f, 0.06898013f, 0.07582961f, 0.08744204f,
    0.02330790f, -0.02264807f, -0.16962782f, 0.02094050f, -0.26127192f, -0.02849836f, 0.22890982f, 0.04015144f,
    0.31555146f, -0.06503851f, 0.11442050f, -0.03609781f, -0.17728256f, 0.03520508f, 0.02443430f, -0.02260988f,
    0.07451701f, 0.02184576f, -0.02985705f, -0.00118532f, -0.17973611f, -0.11925709f, -0.03999763f, -0.02642909f,
    -0.08608779f, 0.06423325f, 0.10685832f, -0.32641327f, -0.15226541f, -0.01309717f, 0.06389771f, 0.02976131f,
    0.13443848f, 0.09399053f, -0.10220033f, -0.11612596f, 0.02506260f, 0.14039099f, -0.03550988f, -0.04994847f,
    -0.18334472f, 0.02739945f, 0.01568366f, 0.00777643f, 0.03584084f, -0.12165054f, -0.12237907f, 0.21331237f,
    -0.06783360f, 0.01995060f, 0.13425718f, 0.10688189f, -0.12272329f, -0.01320824f, -0.15979396f, 0.11464567f,
    -0.02176804f, 0.02897154f, -0.00322129f, 0.21649882f, -0.01513237f, 0.04562429f, 0.02635179f, 0.06511252f,
    -0.12243320f, -0.13985935f, 0.05961882f, 0.19372147f, 0.00006487f, -0.16678329f, -0.16644961f, -0.04218186f,
    -0.03670243f, -0.05323566f, -0.02706929f, 0.20328766f, 0.05428829f, -0.03528148f, 0.06705855f, 0.00931196f,
    0.19421956f, -0.04589808f, 0.02373344f, -0.07231662f, -0.21100637f, 0.24725027f, 0.06948563f, -0.06772559f,
    0.27252704f, 0.00127264f, 0.13915464f, -0.07023067f, 0.02070716f, 0.15899689f, -0.11577060f, -0.11989449f,
    -0.11927735f, 0.08660106f, -0.06486572f, 0.07496016f, 0.05943724f, 0.12646255f, -0.01018506f, 0.18826656f,
    0.04528416f, -0.15840837f, 0.08156343f, 0.13621111f, 0.12288979f, 0.04738593f, -0.25749224f, -0.09123758f,
    -0.12579760f, 0.05494697f, -0.02232941f, -0.21614842f, 0.01049380f, -0.13294341f, 0.11210980f, -0.08330005f,
    0.16994010f, -0.14246546f, -0.16612875f, 0.16212849f, 0.06777616f, -0.00903641f, 0.03683657f, -0.21140099f,
    -0.10929855f, 0.12636757f, -0.04535250f, -0.10637961f, 0.16440983f, 0.00819761f, -0.05933025f, -0.14220488f,
    0.27789387f, -0.00960908f, -0.26639304f, 0.07123532f, 0.34553191f, 0.14848565f, -0.18219045f, 0.12923698f,
    -0.10649827f, -0.10368873f, -0.00630797f, 0.27691901f, 0.03138944f, -0.07524629f, -0.12296391f, -0.19970497f,
    -0.16494119f, -0.13732272f, -0.05518660f, 0.19245675f, 0.08080383f, 0.29409835f, 0.07048493f, 0.15870273f,
    -0.16718756f, 0.02469891f, -0.21498750f, -0.05441180f, -0.06791801f, -0.05298491f, 0.06112579f, -0.07481709f,
    -0.08387950f, 0.28568539f, 0.01196855f, 0.11866661f, 0.11490010f, 0.29419279f, -0.13624433f, -0.02234440f,
    0.14283924f, -0.06811268f, -0.24927390f, 0.02284333f, 0.09638478f, -0.05182244f, -0.01510176f, -0.11054606f,
    -0.12206534f, 0.02235855f, 0.20944290f, 0.15091525f, 0.17426762f, 0.03344921f, -0.14530163f, -0.00460037f,
    -0.04822747f, -0.32647097f, 0.28845283f, -0.27699208f, 0.14843094f, -0.00411495f, 0.03817656f, 0.15480639f,
    -0.03277223f, 0.13776685f, 0.13107827f, 0.06588458f, 0.07312408f, 0.19699715f, 0.11006601f, 0.13897544f,
    0.19427641f, -0.05151504f, -0.06586336f, -0.20750475f, 0.03755534f, -0.03839965f, 0.05143289f, -0.14500152f,
    -0.04801008f, -0.00918379f, -0.09586921f, 0.07000151f, 0.20878078f, 0.04948945f, 0.10030966f, 0.09154789f,
    -0.25835696f, 0.04056742f, -0.28248847f, -0.03830076f, 0.23704691f, -0.04012942f, -0.07012717f, 0.02364411f,
    -0.11274531f, -0.00544457f, -0.00872857f, 0.23970354f, 0.09626525f, -0.04559758f, 0.01368947f, 0.19435571f,
    -0.06191885f, 0.07463309f, -0.20102423f, -0.14465605f, -0.03222654f, 0.06101809f, -0.00420475f, -0.05086699f,
    -0.15782367f, 0.24070621f, 0.12293889f, -0.25887495f, 0.25753221f, 0.04127320f, -0.02431910f, 0.02443883f,
    0.23202327f, -0.07991986f, 0.04505254f, 0.05216600f, 0.09166657f, -0.14487724f, -0.07855114f, 0.34130317f,
    0.11608785f, 0.18743110f, 0.13788547f, -0.03865543f, -0.03838697f, 0.09039900f, 0.13980916f, 0.21351467f,
    -0.09597003f, -0.02900699f, -0.01217549f, -0.13052134f, -0.06746815f, -0.08845311f, -0.26065454f, -0.04202809f,
    -0.06322107f, -0.23442174f, 0.04387961f, 0.05696708f, 0.09477767f, -0.14580233f, 0.02658661f, -0.09744325f,
    -0.13816510f, 0.05891162f, -0.00588057f, 0.07472191f, 0.10694368f, -0.12159928f, -0.19994752f, -0.04136826f,
    -0.09910639f, 0.39720795f, -0.19191931f, 0.08631393f, 0.06642813f, -0.07862660f, 0.00563809f, -0.03689218f,
    0.18922530f, -0.04957825f, 0.29250452f, 0.04402023f, 0.01588630f, 0.02961571f, -0.04040839f, -0.07298889f,
    0.05235978f, 0.09504987f, 0.08287365f, 0.02069708f, -0.22830582f, -0.11187789f, 0.11512759f, -0.26020104f,
    -0.02703349f, -0.03909128f, -0.05971291f, 0.27548298f, -0.12778181f, -0.25645357f, 0.07176668f, -0.20545070f,
    -0.08765650f, 0.05492528f, 0.14356767f, 0.24484676f, -0.00107796f, -0.09163002f, -0.04739320f, -0.18662538f,
    -0.07626203f, 0.25662583f, -0.00840971f, 0.01551466f, 0.14289545f, -0.02877011f, 0.30050036f, -0.16623677f,
    0.03929247f, -0.01095101f, -0.05727582f, -0.02626641f, 0.17223124f, 0.00494056f, 0.17805572f, -0.15467565f,
    -0.08480124f, -0.00427603f, 0.04950796f, -0.02878525f, 0.22655962f, 0.06371873f, -0.10469484f, 0.04250420f,
    0.03490922f, -0.06159578f, 0.00646144f, -0.20862098f, 0.08739138f, 0.17526060f, -0.10480786f, -0.14639969f,
    -0.09283376f, -0.00806453f, -0.17136376f, -0.04882495f, -0.03436859f, -0.03641178f, 0.03056337f, 0.03613642f,
    0.01985122f, -0.11554066f, -0.11391524f, 0.06632807f, 0.07567918f, 0.08017042f, 0.09811675f, -0.04373449f,
    0.08175088f, -0.10827415f, 0.14001714f, -0.22075884f, -0.13497941f, -0.00969344f, -0.01694280f, -0.02838910f,
    -0.04954364f, 0.01836977f, 0.09119491f, -0.15734753f, -0.24938957f, -0.15551902f, 0.03853778f, 0.16793753f,
    -0.21558270f, -0.11783993f, -0.09545530f, 0.05774024f, -0.01497677f, -0.04365380f, 0.02092762f, -0.16922246f,
    0.13864645f, 0.13957259f, 0.05535017f, 0.00217707f, 0.03468412f, 0.14177653f, -0.04906936f, -0.30450764f,
    -0.06764923f, 0.21116403f, 0.15326837f, 0.13838179f, -0.12298953f, 0.23887306f, -0.00396499f, 0.01055173f,
    0.04508752f, 0.04009159f, -0.15823263f, 0.22995269f, 0.05442175f, 0.14622587f, -0.12282401f, -0.07108946f,
    -0.02488885f, -0.00446896f, 0.01002135f, 0.06494495f, 0.04978995f, 0.02217359f, -0.01799929f, 0.22505459f,
    0.05397275f, 0.03370459f, 0.03502952f, -0.05362006f, -0.18304253f, 0.11215647f, 0.04279296f, -0.07302631f,
    -0.00508762f, -0.06496105f, -0.14568235f, 0.19376221f, 0.11505410f, 0.23978029f, -0.07214916f, 0.22255416f,
    0.14050968f, 0.05722068f, 0.01342082f, -0.11821441f, -0.02504266f, -0.03811637f, -0.12361953f, 0.00079155f,
    0.18242949f, 0.12155025f, 0.10142875f, -0.05021701f, -0.06775438f, -0.19827288f, 0.09778017f, 0.03242791f,
    -0.00539189f, 0.17629290f, 0.01407002f, 0.13979866f, 0.22262168f, -0.21682592f, -0.03976532f, 0.08331140f,
    -0.07125584f, -0.27076659f, -0.03885027f, 0.04273472f, 0.12923953f, 0.01183218f, -0.20323390f, 0.10760324f,
    -0.02669633f, 0.01471526f, 0.19477606f, 0.27064615f, 0.08183872f, 0.08994804f, -0.09116914f, 0.03133727f,
    -0.07887515f, -0.13448030f, 0.08900521f, -0.10113884f, 0.07230128f, 0.14034794f, 0.01754697f, -0.00371941f,
    0.09776657f, 0.29046765f, 0.01576715f, -0.03117390f, -0.14836633f, -0.21111026f, -0.00045060f, -0.23740801f,
    -0.11425801f, -0.02732683f, -0.09695891f, -0.01478512f, 0.06060116f, 0.06895960f, -0.11443235f, -0.17735967f,
    -0.12644562f, 0.00836363f, 0.09562409f, 0.04750947f, 0.13269407f, 0.09998841f, 0.06135840f, 0.03392425f,
    -0.07227735f, 0.14649419f, -0.18173558f, -0.06064067f, -0.00010099f, -0.13680607f, -0.13315618f, -0.03327492f,
    0.01151151f, -0.13782838f, 0.16866244f, 0.06797755f, -0.19338624f, 0.13936667f, -0.08397250f, -0.07548375f,
    -0.01740716f, -0.04360322f, 0.05068219f, -0.09556409f, -0.11423763f, 0.25051588f, -0.09332156f, -0.01479569f,
    0.13020319f, 0.01315825f, -0.02157630f, -0.17739186f, -0.03123757f, -0.03539991f, -0.05386705f, -0.09134474f,
    0.02386782f, -0.05187136f, 0.00889796f, 0.00194744f, -0.06476050f, -0.12494949f, -0.03875261f, -0.11471153f,
    0.01905546f, -0.18729378f, 0.06023075f, -0.16586639f, -0.00310286f, -0.19338660f, -0.04633959f, 0.19064391f,
    -0.00126463f, -0.11638615f, -0.10240115f, 0.29616439f, -0.17891000f, 0.17063342f, -0.08580164f, -0.16515993f,
    -0.06043102f, -0.12463018f, -0.08622501f, -0.14859453f, 0.00772898f, 0.09454218f, 0.06013237f, 0.10511567f,
    0.22586131f, 0.10223254f, -0.13393646f, -0.10378192f, -0.00987822f, -0.08791108f, -0.13527429f, 0.06241856f,
    -0.01089939f, 0.05126915f, 0.06056247f, -0.25054705f, 0.46703497f, -0.05581848f, 0.08768103f, 0.10130496f,
    0.24118848f, -0.17305888f, -0.04219762f, 0.09570227f, 0.23550531f, 0.03309915f, -0.19943191f, -0.15767962f,
    -0.00404705f, 0.00565349f, -0.00082331f, -0.05941412f, 0.00636049f, 0.08654851f, -0.04197452f, 0.06338191f,
    -0.12441596f, -0.01351493f, 0.04537981f, -0.07019105f, 0.06843945f, 0.01866003f, -0.20279203f, 0.25396743f,
    0.25443476f, 0.05669222f, -0.03107338f, -0.10974971f, -0.03706576f, -0.01368153f, 0.11949791f, -0.05709539f,
    -0.00749319f, 0.07794244f, 0.10121341f, -0.05774658f, -0.00704183f, 0.05115037f, 0.02533301f, 0.19664405f,
    -0.13673796f, 0.10597084f, 0.05923488f, 0.05028191f, -0.13585214f, -0.10939565f, 0.03934154f, -0.06231457f,
    0.09195333f, -0.01815463f, -0.01146086f, 0.16861853f, 0.05959018f, -0.21833681f, 0.07068975f, -0.03667275f,
    0.14990461f, 0.04086572f, -0.04585062f, -0.09469689f, 0.07142683f, -0.06392612f, 0.04197703f, -0.08091432f,
    -0.12849447f, -0.07514980f, -0.09662044f, 0.05020215f, 0.07016449f, 0.18427075f, -0.18068410f, 0.11183976f,
    -0.19566455f, 0.16168492f, -0.11439934f, -0.20257591f, 0.05085452f, 0.06023787f, -0.11679719f, 0.15354636f,
    -0.00972174f, 0.08150780f, 0.03799286f, -0.15509467f, -0.10610118f, 0.01681599f, 0.05834155f, -0.00941710f,
    0.15307966f, -0.09573490f, 0.13032000f, 0.10666419f, 0.01228188f, -0.19644360f, 0.00596977f, 0.25268811f,
    0.08956278f, -0.01329411f, -0.11052343f, 0.07122181f, -0.12520975f, 0.21107680f, 0.09182855f, -0.15769625f,
    0.10855542f, 0.11756358f, 0.42339540f, 0.10127693f, -0.10578502f, -0.00064482f, -0.02598665f, 0.21938977f,
    0.17578246f, -0.06271967f, 0.06817124f, -0.25695041f, -0.05385716f, 0.02646744f, 0.32964459f, -0.06113226f,
    0.06428260f, -0.08098176f, -0.02832866f, 0.01003963f, 0.22399203f, 0.06030408f, -0.02783604f, 0.08617814f,
    0.09944206f, 0.27330202f, 0.09241221f, -0.01397661f, 0.06323572f, -0.07388399f, -0.07465577f, 0.07919732f,
    -0.00021809f, -0.03049437f, 0.24533275f, 0.14414537f, -0.04051566f, -0.14748013f, -0.07679401f, 0.09506928f,
    -0.36054692f, -0.06815913f, 0.00085362f, -0.08918951f, -0.01318398f, -0.10995350f, -0.14072491f, -0.06245907f,
    -0.08354771f, -0.04426476f, 0.03792078f, -0.04005933f, -0.25332132f, -0.10923849f, -0.13594076f, -0.23814549f,
    0.17526759f, 0.10962836f, -0.14960910f, 0.11850876f, 0.32691160f, -0.08536585f, 0.03727057f, 0.03189624f,
    -0.20010813f, 0.19402486f, 0.17126115f, -0.05648371f, -0.10799917f, 0.05099790f, -0.21132359f, 0.16248806f,
    0.00283457f, -0.16958097f, -0.05577758f, -0.00663908f, -0.00225279f, 0.07977485f, 0.03007103f, 0.12605900f,
    -0.09676066f, 0.13358408f, 0.17593367f, -0.04485594f, -0.05374026f, 0.00213524f, -0.06979031f, 0.27937451f,
    0.14347738f, 0.00145345f, -0.04341803f, -0.01282234f, 0.00167901f, 0.17602341f, -0.14783670f, -0.02230672f,
    -0.18278195f, 0.42168763f, 0.14324702f, -0.05376347f, -0.12446165f, 0.02101242f, -0.00345557f, 0.20485181f,
    0.02629561f, 0.07556756f, 0.02902400f, 0.24538554f, -0.12607990f, -0.09685881f, -0.19564925f, -0.29192942f,
    -0.05835805f, -0.19300531f, 0.03617094f, 0.01683675f, 0.26891696f, -0.08618944f, 0.00072538f, 0.03372825f,
    0.13719292f, -0.11660742f, 0.07565763f, 0.02494677f, 0.08793718f, 0.06672011f, -0.15891810f, 0.02204838f,
    -0.11681949f, 0.07526720f, 0.05729056f, -0.16983113f, -0.14732297f, 0.15612158f, 0.01027275f, -0.18870714f,
    -0.14717409f, -0.00525358f, 0.10784231f, 0.04411697f, -0.11427666f, -0.07936157f, 0.09541273f, 0.05093428f,
    0.19005711f, -0.02754534f, 0.06503479f, -0.12630710f, -0.01484340f, 0.21814267f, -0.30118796f, 0.20051290f,
    0.01520053f, 0.03467456f, -0.16626699f, -0.04086332f, 0.04216357f, 0.13981041f, -0.14190084f, -0.08882397f,
    0.04830327f, -0.00028615f, 0.28109938f, 0.06287214f, 0.08279745f, 0.29131287f, -0.08730631f, -0.15672974f,
    -0.03017359f, -0.32744789f, 0.07602865f, -0.05660471f, 0.13205634f, 0.06198096f, -0.03886709f, 0.26181355f,
    -0.07052024f, -0.03860194f, -0.00908958f, 0.01605338f, 0.02969030f, 0.00321672f, 0.07565322f, 0.01531214f,
    -0.17897303f, 0.03625147f, 0.05819088f, 0.15618238f, 0.04823365f, 0.00107730f, -0.03362915f, 0.07416611f,
    0.09174445f, -0.06518998f, 0.25447682f, 0.12298123f, 0.03591149f, 0.07019827f, -0.00415243f, 0.14197865f,
    -0.12228121f, 0.13589244f, 0.02136486f, -0.13716739f, 0.04130788f, -0.05886896f, 0.14015254f, -0.07879008f,
    -0.10968801f, -0.06094339f, 0.00237775f, -0.30402777f, -0.17834061f, 0.00028355f, 0.26122227f, 0.06945788f,
    -0.06239904f, 0.11044560f, 0.12021594f, 0.03923858f, 0.04846117f, 0.22252350f, -0.07211196f, -0.23097540f,
    -0.01673729f, 0.02050595f, 0.04305487f, -0.06086444f, 0.02923385f, 0.10217383f, 0.14776306f, -0.02689459f,
    -0.11157192f, 0.04142801f, -0.11715703f, 0.03858076f, -0.13619533f, 0.07915686f, -0.09453514f, -0.11178466f,
    0.30743384f, -0.19256434f, 0.08249235f, -0.04409331f, -0.06970228f, -0.15203510f, -0.06775101f, 0.03341024f,
    -0.08694237f, 0.19383571f, 0.08074774f, -0.06534057f, -0.01702008f, -0.16299582f, -0.05073771f, -0.18018435f,
    0.02069752f, -0.12302054f, 0.21370085f, 0.09786822f, 0.01994741f, 0.03729130f, -0.07489946f, -0.03280149f,
    0.16379589f, -0.07799239f, 0.08547988f, 0.03519662f, 0.25311184f, 0.05227615f, 0.00527958f, 0.10639044f,
    0.16697425f, -0.11582103f, -0.07551830f, -0.03948423f, -0.08752942f, -0.13028812f, 0.01514915f, 0.13484006f,
    0.07734571f, 0.15951595f, -0.00714146f, -0.05546718f, -0.10207659f, -0.19420823f, 0.07616886f, 0.01172345f,
    -0.15195946f, -0.11312174f, -0.12386024f, 0.11865909f, -0.08417818f, 0.01713068f, 0.07034385f, 0.06088228f,
    -0.08654879f, 0.06977667f, -0.38895622f, 0.00889834f, -0.00958825f, 0.12389369f, 0.01118626f, -0.05902006f,
    -0.15583393f, -0.11986291f, -0.16679528f, 0.02379484f, -0.11606032f, 0.18762656f, 0.02633082f, 0.18081881f,
    -0.05396483f, 0.07527179f, 0.09995374f, 0.13070792f, -0.04191884f, 0.04342368f, 0.05973956f, -0.04703229f,
    -0.04178844f, 0.02345669f, 0.03293591f, 0.10488148f, -0.09648884f, 0.07533088f, -0.04507213f, 0.08181127f,
    0.07108969f, 0.23001292f, 0.18594670f, -0.01285998f, -0.04270675f, 0.10676768f, -0.03265254f, -0.35268891f,
    -0.07549124f, 0.13657986f, -0.02729393f, -0.21341921f, 0.03557550f, -0.06920649f, -0.02420005f, -0.15718395f,
    -0.04281321f, 0.15484720f, -0.03750091f, -0.04127121f, 0.01244141f, 0.18627086f, 0.06081712f, -0.12214725f,
    0.11005551f, 0.13634279f, -0.08548654f, -0.06176260f, -0.12078744f, 0.11183082f, -0.09751007f, 0.06619731f,
    -0.02295903f, -0.17152423f, -0.07401130f, -0.01412280f, -0.12973838f, -0.04301500f, 0.05555655f, -0.09923118f,
    0.00697386f, 0.02745592f, -0.04826668f, -0.02433636f, 0.06758157f, 0.23903941f, 0.07223590f, -0.15568383f,
    0.09385180f, -0.14210983f, 0.09313767f, 0.03620189f, -0.17294158f, 0.04265254f, 0.09898196f, 0.12358628f,
    -0.09217747f, -0.02414876f, -0.05491688f, -0.06139775f, -0.01070236f, 0.07262623f, 0.02082510f, 0.16232347f,
    0.13832171f, 0.04702273f, 0.12254146f, 0.22159320f, -0.11600088f, 0.10849270f, -0.17821161f, -0.19536440f,
    -0.17582829f, -0.07106661f, -0.00571253f, -0.17120394f, 0.04287593f, -0.33352837f, 0.03327952f, 0.10641549f,
    0.26002440f, -0.07114279f, -0.07768792f, 0.02677776f, 0.00227566f, 0.02608931f, 0.12296669f, -0.14106748f,
    0.09772109f, 0.06817459f, -0.04149529f, -0.16071664f, -0.23379220f, -0.03370479f, 0.16764036f, -0.02110474f,
    0.11086684f, 0.07295855f, -0.03274305f, 0.07367242f, 0.00519412f, -0.21326372f, 0.07008623f, 0.07743443f,
    0.23892148f, 0.04090761f, 0.18147516f, -0.07834020f, -0.04238019f, -0.22248676f, -0.17615637f, -0.10339641f,
    0.16278973f, -0.04553298f, -0.03813998f, 0.17980976f, 0.14430344f, -0.00545691f, -0.08169946f, -0.20894676f,
    -0.05877014f, 0.15424988f, -0.11828854f, 0.10031072f, 0.04542080f, -0.07475825f, 0.04424729f, 0.05200041f,
    -0.00686330f, 0.08348297f, 0.13667981f, 0.01994939f, -0.08802355f, 0.19522908f, 0.13627271f, -0.03856012f,
    -0.04967177f, -0.21495990f, 0.03003738f, -0.09715695f, -0.07704566f, 0.04534939f, 0.07147785f, -0.08064899f,
    0.06512622f, -0.08711496f, 0.02715542f, 0.20135020f, 0.00250552f, -0.24553478f, -0.06309936f, 0.04717569f,
    0.12829913f, 0.08344311f, 0.10727450f, -0.00311766f, 0.01390158f, -0.12870729f, -0.24760468f, 0.03047787f,
    -0.27142629f, -0.18348327f, -0.04568452f, 0.13234358f, -0.06446290f, -0.06065476f, 0.07371405f, -0.00587406f,
    0.16072424f, -0.06262194f, -0.09712797f, 0.21572915f, 0.18698353f, -0.14572372f, -0.13360545f, 0.01567930f,
    -0.06659653f, 0.08448689f, -0.08008722f, -0.01944259f, 0.03468550f, -0.07999769f, 0.12990059f, -0.24299467f,
    0.03915036f, -0.11635532f, -0.05907160f, 0.17875382f, 0.12022115f, -0.01716904f, 0.01059760f, -0.01938929f,
    -0.03911575f, -0.20685878f, -0.04857244f, -0.04703031f, 0.01580573f, -0.11172245f, -0.13685630f, 0.03142867f,
    0.01804528f, 0.00551351f, -0.05362255f, -0.03134920f, -0.07426613f, 0.10178891f, 0.01409333f, 0.20908916f,
    0.06187873f, 0.21443775f, 0.01849632f, -0.21841623f, -0.14023517f, 0.24833335f, -0.05585940f, -0.14724438f,
    -0.07668372f, 0.06123511f, 0.22036403f, -0.00482788f, 0.04273236f, -0.09851899f, 0.21760346f, 0.09334635f,
    -0.09835589f, 0.03746832f, 0.38154736f, 0.01918146f, -0.15891692f, -0.06225011f, -0.01685940f, -0.04000871f,
    0.00740107f, 0.01709279f, -0.00288002f, -0.00844728f, -0.04271719f, 0.10139587f, 0.03949280f, -0.02373943f,
    -0.04397799f, -0.03695736f, -0.00922700f, -0.01412327f, 0.15025802f, 0.21609655f, -0.14145450f, 0.04467893f,
    -0.03058674f, 0.09684987f, -0.08017645f, -0.12115926f, -0.03122773f, 0.03441705f, -0.00059859f, 0.20131680f,
    0.16192546f, 0.14126226f, 0.06570092f, 0.02562072f, 0.22309788f, -0.11682186f, 0.02671240f, -0.02153774f,
    -0.05208537f, 0.01097792f, 0.02984777f, 0.02400343f, -0.22681814f, 0.10414899f, -0.19486190f, -0.02827015f,
    0.04585928f, -0.00204138f, 0.06051317f, -0.16525143f, 0.02188416f, -0.20335405f, 0.03809333f, 0.18013272f,
    -0.29319918f, 0.04055962f, -0.10591430f, 0.03669229f, -0.30040219f, -0.08845616f, 0.16697146f, -0.05799670f,
    0.23737058f, 0.08512408f, -0.08900965f, 0.15384889f, 0.14274411f, -0.14538762f, -0.12948093f, -0.19321762f,
    0.01022429f, 0.02320770f, -0.07542022f, 0.23000792f, 0.03899194f, -0.10765685f, 0.16173017f, -0.05748276f,
    0.14645217f, -0.01167333f, 0.17534134f, -0.20908046f, -0.17156996f, 0.12813354f, -0.09223060f, 0.03597051f,
    0.02327604f, 0.04324577f, -0.09243377f, 0.07450233f, -0.20278724f, -0.06742312f, -0.14279924f, 0.13379525f,
    -0.16908650f, 0.14495300f, 0.20614591f, -0.14453951f, -0.07450671f, 0.22865997f, -0.09221089f, -0.17020251f,
    0.04511756f, 0.06074748f, -0.18818003f, 0.00971653f, -0.08728474f, 0.22481169f, 0.09879074f, 0.00962815f,
    -0.15188728f, 0.00189962f, -0.09093485f, 0.07936420f, -0.02182740f, 0.17159598f, 0.05290990f, 0.08241082f,
    -0.15006086f, -0.00168610f, 0.18582754f, -0.09349956f, -0.09835736f, -0.22398643f, -0.16493660f, -0.06805751f,
    0.15745954f, -0.09611641f, 0.07155107f, 0.35911041f, -0.23252212f, -0.17760335f, 0.02736853f, 0.01350706f,
    -0.01803889f, 0.10031444f, 0.07480869f, 0.00956657f, 0.16080064f, -0.04195788f, 0.03175356f, 0.04508772f,
    -0.06267369f, -0.16744463f, 0.21317904f, -0.10501379f, -0.02927810f, 0.11303259f, -0.21443325f, -0.04568300f,
    -0.22500999f, -0.12804830f, 0.00861502f, 0.16323188f, 0.03825551f, -0.12319162f, -0.05067931f, -0.01557297f,
    -0.12122816f, -0.06608409f, -0.03562905f, 0.00577085f, 0.01414785f, 0.13086522f, 0.01192699f, -0.12189374f,
    -0.11277423f, -0.08378445f, -0.12702911f, 0.00950227f, 0.13578269f, -0.00371442f, 0.09781887f, -0.00357773f,
    0.06253126f, 0.11810605f, 0.01132541f, 0.13266288f, -0.07392667f, -0.10088202f, 0.04819035f, 0.05187504f,
    -0.19701220f, 0.11417165f, -0.00215789f, -0.05559783f, 0.08476818f, -0.11575162f, 0.05317426f, -0.04689700f,
    -0.21013792f, -0.12931317f, 0.07296935f, -0.23392749f, -0.11526780f, -0.11597348f, 0.08352954f, -0.08700537f,
    -0.13914180f, 0.09655242f, -0.07810971f, -0.02051679f, 0.10128333f, -0.29545146f, -0.14783330f, 0.05327289f,
    0.08440664f, 0.06714859f, 0.10866831f, -0.11378538f, -0.13601780f, -0.12647370f, 0.12604944f, -0.10234798f,
    0.05896072f, 0.07013977f, -0.04944851f, 0.04001144f, -0.15783969f, -0.12534299f, 0.11111116f, -0.22120321f,
    -0.00787255f, -0.07152233f, -0.18295673f, -0.09328723f, -0.05134288f, -0.06932092f, -0.02035865f, -0.12369236f,
    -0.13050231f, 0.19092552f, -0.00912024f, -0.10148425f, -0.06654533f, -0.15976289f, 0.09524462f, -0.07627570f,
    -0.00484092f, 0.17588437f, -0.00691297f, 0.01639380f, 0.01073981f, 0.11582811f, 0.04439250f, -0.10675459f,
    0.14780474f, -0.18879998f, -0.04501927f, -0.08970524f, -0.10825284f, -0.07478138f, -0.03447263f, -0.17128482f,
    0.16386905f, 0.12426983f, 0.02281972f, -0.08835199f, 0.09050199f, 0.03636244f, -0.07909866f, -0.07936939f,
    0.11959121f, -0.09781283f, -0.06011945f, 0.09095303f, -0.12862046f, -0.11258808f, 0.00594510f, 0.33087844f,
    0.04511433f, -0.09074657f, -0.16485108f, 0.13038704f, 0.23510695f, 0.03015885f, 0.04923475f, -0.12020714f,
    -0.23884784f, -0.01998761f, -0.03432495f, -0.25716174f, 0.20519914f, 0.01734052f, -0.09231917f, -0.04525327f,
    0.03582344f, -0.13584249f, -0.05371785f, 0.14065157f, 0.24259102f, 0.19896390f, 0.10674094f, -0.21020584f,
    0.26738819f, 0.09732702f, 0.02840126f, -0.07730182f, 0.12326884f, -0.00385586f, -0.12681022f, -0.03922031f,
    0.04974521f, -0.15195398f, -0.07845692f, -0.22717853f, 0.00656748f, -0.11603492f, 0.12681445f, -0.07497956f,
    0.00112312f, 0.17165422f, -0.11792661f, -0.01971024f, 0.02489088f, -0.08754832f, 0.03518622f, 0.04169020f,
    0.01385740f, -0.06403389f, -0.23246926f, -0.08307824f, 0.14392787f, 0.04029936f, -0.09439772f, -0.09910688f,
    -0.05820936f, -0.13338253f, -0.12889731f, -0.03520419f, 0.01203064f, -0.02706165f, -0.04299022f, -0.28568801f,
    0.08150019f, -0.01605375f, 0.01544546f, 0.04847651f, 0.05214594f, -0.01077847f, 0.06832723f, -0.15184239f,
    0.17725427f, -0.02444954f, -0.09782647f, -0.19821194f, -0.19163594f, 0.09742022f, 0.02528866f, -0.22155435f,
    0.01704316f, -0.03772105f, -0.04625338f, -0.07621820f, -0.02146625f, 0.02661439f, 0.04004944f, 0.13593568f,
    0.00332910f, -0.28068644f, 0.14023989f, -0.01738018f, -0.29153335f, 0.27269772f, -0.01348694f, -0.02148078f,
    -0.06341031f, 0.07782625f, 0.05058738f, 0.01028190f, 0.23295219f, 0.24364416f, -0.07555752f, -0.07795244f,
    0.00520210f, 0.03792666f, -0.16739117f, 0.02050964f, 0.09199652f, 0.07232003f, 0.02796650f, -0.24384399f,
    0.07633403f, 0.01550001f, 0.08439873f, -0.02270970f, -0.08560936f, -0.00607928f, 0.14734268f, -0.04366341f,
    0.09255928f, 0.15989983f, -0.12012833f, -0.11641634f, -0.11053029f, 0.19434004f, 0.06893014f, 0.12185337f,
    -0.12185602f, 0.03429624f, 0.02050086f, 0.08774576f, -0.06068467f, -0.21077447f, -0.03287608f, 0.06698187f,
    -0.12431993f, -0.04888055f, -0.08207449f, -0.08327888f, -0.09315033f, 0.13510942f, 0.15918273f, -0.07823274f,
    0.28778073f, 0.16252407f, 0.00632927f, 0.05590875f, -0.16372742f, 0.17912215f, 0.17526299f, 0.17231756f,
    0.08091902f, 0.07340898f, 0.13239084f, -0.10800121f, -0.13800688f, 0.18028992f, 0.07595234f, 0.00839657f,
    0.04203127f, 0.18659088f, 0.17200591f, -0.04228203f, 0.09572284f, 0.25051638f, -0.08637932f, 0.07363494f,
    0.06565512f, -0.03611366f, 0.02302852f, 0.24569499f, -0.10905590f, -0.27038336f, -0.02590964f, -0.04967955f,
    0.12280825f, 0.05031266f, 0.03694857f, -0.01414337f, -0.00992542f, 0.09722033f, -0.00741118f, 0.11694859f,
    -0.05627380f, 0.03296236f, 0.11263841f, 0.15977050f, 0.07196755f, -0.08496223f, -0.04087361f, 0.20910856f,
    0.02468825f, 0.02878575f, 0.13854325f, 0.11721478f, -0.09655690f, 0.03021853f, 0.23915863f, 0.01001467f,
    0.02451860f, -0.16112143f, 0.03154326f, -0.18783957f, -0.06440014f, -0.04925697f, -0.06831008f, -0.06250913f,
    -0.20262423f, 0.08777595f, 0.16730420f, -0.21729159f, 0.20905985f, 0.11590742f, -0.05739879f, -0.05498886f,
    0.17801657f, -0.03509314f, -0.01403581f, 0.16384552f, -0.00718178f, 0.20519723f, -0.16461061f, -0.01646752f,
    -0.00029012f, -0.03589874f, -0.03973736f, -0.01198555f, -0.05542798f, -0.04785110f, 0.38455954f, -0.05232766f,
    0.09649742f, 0.10782085f, -0.04997247f, 0.11791802f, -0.01165401f, 0.10789281f, 0.13145405f, 0.01554101f,
    -0.08243447f, -0.05278549f, -0.16552150f, -0.05848805f, 0.07196412f, 0.07572792f, 0.05627334f, 0.14459075f,
    -0.23159294f, -0.09079177f, 0.14171252f, -0.12417645f, -0.05747654f, -0.19487551f, 0.06963453f, 0.13106897f,
    -0.02626000f, -0.07173067f, -0.06294731f, -0.16110663f, 0.13550539f, -0.02325079f, -0.00850608f, -0.11926866f,
    0.00224606f, 0.05519676f, -0.11414409f, -0.07790940f, -0.09558142f, 0.09685387f, 0.11460011f, 0.00862689f,
    -0.06706921f, -0.05955732f, 0.03479061f, 0.22271466f, -0.04229028f, 0.06855112f, 0.01166238f, 0.07618845f,
    0.14108650f, 0.15978689f, 0.11029898f, 0.04407678f, -0.05864603f, 0.11922658f, -0.02752395f, -0.15092446f,
    -0.02149431f, -0.03927488f, -0.12031212f, -0.10342719f, 0.02084940f, 0.11279421f, -0.03562845f, -0.23243858f,
    -0.22186735f, -0.10401615f, -0.03788304f, -0.09682439f, 0.03426812f, -0.02598571f, 0.14792849f, 0.26154846f,
    -0.13280578f, -0.05608487f, 0.15181382f, -0.08511505f, -0.03106366f, 0.03007409f, 0.09564982f, 0.02470010f,
    0.08212834f, -0.00328636f, -0.09239331f, 0.11453429f, 0.11279843f, 0.08384717f, -0.14883670f, -0.13275447f,
    0.07784583f, -0.03114500f, -0.09211066f, -0.19702938f, -0.15207788f, 0.08404683f, 0.18097992f, 0.19390532f,
    0.00931795f, -0.11477308f, 0.04595029f, 0.00234868f, 0.13884595f, -0.02103837f, -0.02511515f, -0.16668330f,
    0.10714015f, 0.07197966f, 0.00976069f, -0.08252592f, 0.02823049f, -0.07942479f, -0.22947109f, 0.12526643f,
    -0.05343030f, -0.08146311f, 0.15524650f, 0.10149293f, -0.08675926f, -0.35299265f, -0.01057636f, -0.09584428f,
    0.27147159f, 0.33237594f, -0.04370393f, 0.14924474f, -0.12370686f, 0.09679740f, 0.16870600f, 0.16684929f,
    0.09144906f, 0.15141918f, -0.08926617f, 0.00187191f, 0.19848934f, 0.18354608f, 0.00574840f, -0.03929281f,
    -0.01703593f, 0.04926758f, 0.23976810f, 0.06446634f, 0.01873243f, -0.12612249f, -0.00817826f, 0.01772699f,
    -0.19317754f, 0.02239904f, -0.02904377f, -0.19611533f, 0.09427343f, 0.06973369f, -0.13437198f, -0.08241250f,
    -0.16936620f, 0.01715034f, 0.00111317f, -0.09441976f, -0.20536305f, 0.07070037f, 0.14108787f, 0.07953107f,
    0.08780329f, 0.09726886f, 0.10439411f, -0.01873902f, 0.19977777f, -0.18102720f, -0.03060836f, -0.13886249f,
    0.19525954f, -0.09405330f, 0.06449728f, 0.05334328f, 0.01805117f, -0.14043964f, -0.01739568f, -0.01113486f,
    -0.08233657f, 0.16159247f, -0.11685438f, 0.29493842f, 0.17349811f, -0.11412335f, -0.15536734f, 0.05427894f,
    0.10388309f, 0.24599706f, -0.09956976f, 0.03442308f, -0.14674941f, -0.10204238f, 0.20787086f, -0.06609119f,
    0.20847674f, -0.03007615f, -0.05756064f, -0.08651078f, 0.20696771f, -0.12011892f, -0.09279700f, -0.17742005f,
    0.13761602f, 0.02110026f, -0.26420531f, 0.10325792f, -0.04699668f, -0.06571097f, 0.01568032f, -0.24418665f,
    -0.00988712f, 0.02451785f, 0.08383305f, 0.04107811f, -0.00869446f, 0.06207497f, -0.05091190f, 0.00489748f,
    -0.23340300f, 0.21072647f, 0.08077096f, 0.03408713f, -0.01778239f, 0.14215165f, -0.09512615f, 0.06258156f,
    -0.11632815f, 0.13207144f, 0.27926224f, -0.03117333f, -0.13756144f, -0.09113234f, 0.02715521f, -0.02509265f,
    0.02458908f, -0.07324023f, -0.09802829f, -0.09160333f, 0.12135471f, -0.00428248f, 0.12844640f, 0.19210999f,
    -0.00906887f, 0.00987474f, 0.11999872f, -0.07178716f, -0.09293789f, -0.18178816f, -0.00334827f, 0.06806754f,
    0.02675775f, -0.04600637f, -0.07133815f, -0.19624223f, 0.09029701f, 0.06838993f, 0.02519695f, 0.05966255f,
    -0.22603719f, 0.08558932f, -0.08828774f, -0.03922796f, -0.06876174f, 0.05282600f, 0.04241465f, 0.05773249f,
    0.05469935f, -0.14387700f, 0.02977654f, 0.02350273f, -0.01556343f, 0.19321120f, 0.07761049f, 0.03941438f,
    0.09903068f, 0.14691663f, 0.08907735f, 0.22897545f, -0.03680857f, -0.10454183f, -0.04743729f, 0.12042373f,
    -0.01841650f, 0.08610928f, 0.03242058f, -0.14709789f, -0.07044162f, 0.14015256f, 0.12319024f, 0.17024295f,
    -0.01747049f, -0.21980274f, -0.07579223f, 0.07278127f, -0.17649768f, -0.17557685f, 0.02614881f, 0.03361395f,
    0.03404023f, 0.05027505f, 0.00280650f, 0.05877680f, -0.04393639f, 0.03860541f, -0.05224964f, -0.12264917f,
    0.04329266f, -0.21608336f, -0.04172926f, -0.15836024f, -0.17465894f, -0.02845965f, -0.01689355f, 0.04522105f,
    0.00499709f, 0.24542733f, -0.02358377f, 0.15615711f, -0.10938903f, 0.24647106f, -0.18477781f, 0.21139570f,
    0.12974605f, 0.06321616f, -0.11924489f, -0.10814054f, -0.04688603f, 0.09525333f, -0.06498462f, 0.08098619f,
    -0.01379787f, 0.10318530f, -0.06216751f, -0.13402714f, 0.02695637f, -0.00602108f, 0.09915055f, 0.12996048f,
    -0.05840113f, 0.15992595f, -0.08353065f, 0.14536494f, 0.11795031f, 0.06694707f, 0.02002980f, 0.16603239f,
    0.12757424f, -0.13551815f, 0.09134809f, -0.20473935f, -0.10439431f, -0.14068851f, 0.50032681f, 0.21533729f,
    -0.23642421f, 0.09070756f, 0.05152695f, 0.32932898f, -0.05145784f, -0.12448093f, 0.03815009f, -0.08964018f,
    0.07325267f, 0.15329795f, -0.05107056f, 0.17369530f, 0.01597474f, -0.07142985f, 0.05756168f, 0.11174487f,
    0.02014229f, 0.02703888f, 0.28256118f, 0.14680144f, -0.27262729f, -0.30164152f, -0.16584505f, 0.09529266f,
    -0.08712509f, -0.11388549f, -0.03771080f, 0.07832160f, 0.07023327f, -0.08766666f, 0.03695856f, -0.07107396f,
    0.11878289f, 0.02237337f, -0.11401246f, -0.00020818f, 0.09625646f, -0.24803664f, -0.03044605f, -0.08952324f,
    0.05897674f, -0.04844528f, -0.05323881f, -0.00606857f, 0.02914260f, 0.46367839f, -0.14167188f, -0.29894626f,
    -0.15128420f, 0.00187080f, -0.18659116f, 0.03749377f, -0.02498586f, -0.06195781f, -0.08449150f, -0.08308750f,
    0.11830136f, 0.03882620f, 0.12047610f, -0.11997436f, 0.05138941f, 0.25660393f, -0.08637097f, -0.06693237f,
    0.05525365f, -0.17199071f, -0.18021876f, -0.09452283f, 0.20940146f, 0.25717676f, 0.23522253f, -0.19541995f,
    0.33044708f, 0.09175452f, 0.14417802f, -0.15605736f, -0.11489781f, 0.01339313f, -0.06211533f, 0.10765053f,
    -0.05738503f, 0.13124853f, 0.19440322f, 0.04105850f, -0.03313644f, -0.10271977f, 0.17693079f, -0.06225851f,
    0.02997405f, 0.08399077f, 0.06486331f, 0.11043250f, -0.03025678f, -0.12676996f, -0.04781291f, -0.11944871f,
    0.09446830f, -0.32124257f, 0.03524357f, -0.04830947f, -0.13160405f, -0.04884579f, 0.03827826f, 0.09803747f,
    0.15927960f, -0.04457378f, 0.13000086f, -0.17810591f, -0.08224071f, 0.01206217f, 0.13612521f, -0.00690140f,
    -0.05975888f, -0.01793404f, 0.06983488f, 0.01454527f, -0.16477422f, 0.03392562f, 0.10450853f, 0.19163142f,
    -0.04638114f, 0.02468578f, -0.20311834f, -0.03298182f, -0.03853108f, -0.04796268f, -0.09986662f, 0.07904515f,
    0.11736401f, 0.26713577f, -0.08606106f, 0.07273635f, -0.09693047f, -0.01157836f, 0.00250939f, -0.03687009f,
    0.03643254f, 0.09361509f, -0.00596830f, 0.01370752f, -0.07024183f, -0.02590613f, 0.00209086f, 0.01456941f,
    0.04344773f, -0.00033692f, 0.04019273f, -0.18663685f, -0.16167736f, -0.04250596f, -0.05926752f, 0.28448611f,
    -0.02951371f, -0.03400376f, -0.22439077f, -0.08782817f, -0.20502867f, 0.09723356f, -0.04177305f, 0.17865980f,
    0.03913394f, -0.16690958f, 0.19431615f, -0.02404039f, 0.15552047f, -0.20112261f, 0.19710563f, 0.03680409f,
    -0.05286156f, -0.00397494f, -0.06793091f, -0.12663655f, 0.11993232f, -0.04028753f, 0.10865875f, 0.02395388f,
    -0.01767373f, -0.04607680f, -0.11203720f, -0.18926601f, 0.09679575f, 0.22357467f, 0.27665177f, 0.11403071f,
    -0.25527644f, 0.22246405f, 0.13444816f, 0.06599929f, 0.04146144f, 0.14258611f, -0.01952445f, 0.05188091f,
    -0.00241145f, -0.06328157f, 0.06622611f, 0.31151736f, 0.05408941f, -0.12094560f, -0.17971978f, 0.00733374f,
    -0.00360439f, 0.13197613f, -0.06278844f, -0.20482396f, 0.03013794f, -0.19190483f, -0.01207766f, -0.00362366f,
    0.14899223f, 0.05679083f, -0.23535873f, -0.14401728f, -0.06632317f, -0.15132049f, -0.14645012f, 0.06840494f,
    -0.11276881f, 0.07430775f, -0.12425843f, 0.02414758f, 0.06025644f, -0.28039342f, 0.08053099f, -0.02195207f,
    -0.11887730f, -0.04833452f, 0.24947488f, -0.01204154f, 0.05393219f, -0.21305797f, -0.07306966f, -0.24608696f,
    -0.04214256f, -0.04241474f, -0.00830605f, -0.08470643f, 0.09277706f, -0.04776335f, -0.06612145f, -0.04910588f,
    0.09243086f, 0.11359568f, 0.03480790f, -0.04163431f, -0.08676747f, -0.26307854f, -0.21865728f, -0.15939158f,
    -0.12083643f, 0.20566337f, -0.00617063f, -0.05212211f, -0.00425989f, 0.08194213f, -0.04274348f, 0.10526974f,
    0.03628699f, -0.09558260f, 0.13932592f, -0.03581935f, 0.08940366f, -0.04797156f, 0.00280597f, 0.13194582f,
    -0.19837435f, 0.21468338f, 0.13338491f, 0.07693873f, 0.04272081f, -0.04499644f, -0.06606429f, -0.01369611f,
    -0.01699536f, -0.01884017f, 0.08302516f, 0.34400591f, 0.06437898f, 0.05766390f, 0.01070704f, 0.09660546f,
    0.02243706f, 0.16116437f, 0.16636015f, -0.06940785f, -0.09971765f, 0.04700225f, -0.00237126f, 0.07266796f,
    0.06187508f, 0.16456896f, -0.05185339f, 0.02244577f, 0.05635258f, -0.03597926f, 0.12053534f, -0.07903820f,
    0.12276635f, -0.22794811f, -0.09149341f, -0.02094050f, -0.22208752f, 0.07968882f, -0.11963727f, -0.15521361f,
    0.06234042f, 0.21856302f, -0.13312365f, 0.06664249f, -0.12879616f, -0.02519259f, 0.10116831f, -0.19527915f,
    0.11596919f, 0.15744802f, 0.01324148f, 0.11866277f, 0.16407049f, -0.11761370f, 0.03779817f, 0.14293717f,
    -0.14572378f, 0.02697364f, -0.12240350f, 0.08493386f, 0.06428213f, -0.19291872f, 0.09956685f, -0.04950994f,
    -0.21450813f, -0.09998472f, 0.07277310f, 0.14441437f, -0.10074466f, 0.22147511f, 0.01257427f, -0.13406675f,
    0.14815086f, -0.01277460f, -0.01503668f, 0.20094126f, -0.17676665f, -0.15278707f, -0.14985111f, -0.02245000f,
    -0.05586235f, -0.14569791f, -0.09394261f, -0.00378920f, -0.15249142f, -0.01938623f, 0.12175090f, 0.15405442f,
    -0.00737465f, -0.28947937f, 0.12037279f, -0.07179364f, -0.15924385f, 0.12347036f, -0.11913516f, 0.27807981f,
    0.00110379f, 0.06613225f, 0.10129271f, -0.00943029f, -0.02057122f, 0.21181710f, 0.02776491f, 0.08970754f,
    -0.01473311f, -0.09942887f, -0.13428010f, -0.10362945f, 0.01452301f, -0.13945611f, 0.03016789f, -0.05324670f,
    -0.15320846f, -0.07752102f, -0.08169024f, -0.11958146f, -0.21624705f, 0.05210845f, 0.05498444f, -0.08876649f,
    -0.05014075f, -0.05674462f, -0.15057218f, -0.08778470f, 0.08652779f, 0.10117928f, 0.18585417f, -0.06059076f,
    -0.06067598f, -0.25568190f, 0.24457717f, 0.09490619f, -0.08912097f, 0.11548925f, 0.00628206f, 0.14216588f,
    0.04530350f, 0.27838793f, 0.08426043f, -0.04150969f, -0.12846890f, -0.03207402f, 0.00396129f, -0.09423935f,
    0.09600910f, 0.01342615f, -0.11229500f, -0.02401496f, -0.22550042f, -0.01085529f, -0.26956347f, -0.11664315f,
    -0.01252393f, -0.10624829f, 0.05387300f, 0.01596242f, -0.02322862f, -0.12077855f, -0.00822812f, -0.02049054f,
    0.01200260f, -0.12186470f, -0.09050686f, 0.03737869f, -0.11277569f, 0.09172947f, 0.06677293f, -0.07493702f,
    -0.04690164f, 0.07347701f, 0.07980791f, 0.11617084f, 0.22349761f, 0.01757048f, -0.10085902f, -0.10328835f,
    -0.06989165f, -0.09373971f, -0.05440608f, -0.00255927f, -0.29034960f, 0.08025771f, -0.00707240f, -0.25179097f,
    -0.08454511f, -0.12292853f, -0.16844741f, -0.09590831f, -0.08446185f, -0.20086265f, -0.03983152f, 0.19358970f,
    -0.00633453f, -0.03371072f, -0.01465645f, -0.13380344f, 0.09284903f, 0.08445223f, 0.06967540f, 0.03918277f,
    -0.01201502f, -0.01748299f, -0.06870868f, 0.22323771f, 0.07800297f, -0.07355320f, -0.01797206f, 0.02226273f,
    0.13154978f, 0.12909976f, -0.08467785f, -0.02509917f, -0.01217100f, -0.09902512f, -0.01025009f, 0.08852135f,
    0.24756283f, -0.11384922f, -0.03361443f, -0.12239186f, 0.06058683f, -0.16523226f, 0.12213774f, -0.01934922f,
    -0.04209707f, 0.13018377f, -0.00543235f, -0.02692358f, 0.08369259f, 0.04632400f, 0.06206048f, 0.09950615f,
    0.01488207f, 0.24785881f, -0.12224782f, 0.05460212f, -0.14840448f, -0.00153028f, 0.01933774f, -0.07522112f,
    -0.20290953f, 0.06865428f, 0.13584490f, 0.09216336f, -0.14281429f, 0.12405743f, -0.17187689f, 0.13064335f,
    -0.30518726f, 0.23749837f, 0.11574565f, 0.01438245f, -0.02795599f, -0.08841859f, 0.03419121f, 0.20306019f,
    -0.09289373f, -0.23588957f, 0.11282550f, -0.05824205f, -0.00969534f, 0.27068514f, -0.31566870f, 0.27198720f,
    -0.15471077f, -0.00856793f, -0.10598414f, -0.05138298f, -0.09982930f, -0.04179614f, 0.10024428f, 0.14378674f,
    0.21504623f, -0.08008540f, 0.02124820f, -0.11404303f, 0.21240050f, 0.09194508f, -0.09124810f, 0.04691321f,
    0.05109507f, 0.17934966f, 0.17838369f, 0.01396280f, 0.26317281f, -0.02361097f, 0.01619441f, -0.06462621f,
    -0.02992524f, 0.16683784f, -0.26633269f, -0.09453616f, 0.12303843f, -0.03230149f, 0.12941538f, -0.02322086f,
    -0.12515183f, -0.09861766f, -0.09044891f, -0.01729933f, -0.14261064f, 0.11818387f, -0.01920172f, -0.09120265f,
    0.09783070f, -0.00271004f, -0.08523181f, -0.03199117f, 0.04994158f, -0.04900131f, -0.03729744f, 0.03413562f,
    0.04719952f, -0.14139752f, -0.04980047f, -0.18421316f, -0.15328245f, -0.03977465f, 0.13356316f, -0.15588194f,
    -0.04640334f, 0.04288191f, -0.15321118f, -0.00452149f, 0.03527881f, 0.14000091f, 0.06630798f, 0.18152814f,
    0.02274646f, 0.18736389f, -0.04741349f, -0.02189168f, -0.06381992f, -0.09558745f, -0.04305364f, 0.09751128f,
    -0.18364702f, -0.03226044f, 0.00581151f, 0.09685983f, -0.21757616f, 0.18446222f, -0.05222420f, 0.19682246f,
    -0.00091981f, -0.19252299f, -0.04094860f, 0.07304019f, 0.02715302f, -0.11726063f, 0.12359689f, 0.04656616f,
    0.09284282f, 0.02290695f, -0.01357464f, 0.06961782f, 0.00883601f, -0.04622462f, -0.07536239f, 0.04252986f,
    0.03486525f, -0.08738773f, 0.05056394f, -0.21917674f, 0.11796752f, 0.17832220f, 0.05991096f, -0.04127483f,
    0.15005691f, 0.23441280f, -0.14554496f, -0.13198179f, -0.18000276f, -0.14217223f, 0.06001160f, 0.05231754f,
    0.05661490f, -0.01047717f, 0.00240080f, -0.00443559f, 0.06471746f, -0.15921262f, -0.11336990f, -0.09022301f,
    -0.10324936f, -0.03994778f, -0.00526018f, -0.18619148f, -0.02992070f, 0.28787330f, -0.14878203f, 0.07759622f,
    -0.08401426f, -0.29462755f, -0.17954312f, -0.00303859f, -0.03331972f, -0.03595832f, 0.09061205f, -0.19007525f,
    0.09637155f, 0.06795789f, -0.03976765f, -0.02623926f, 0.02097237f, 0.00370147f, -0.03640210f, 0.08332586f,
    0.03552017f, -0.10744911f, -0.04108768f, 0.01588501f, -0.08816314f, 0.15215389f, -0.00716156f, -0.05246323f,
    0.06427396f, -0.02293707f, -0.14727633f, 0.11070240f, 0.08562211f, -0.13857256f, -0.12245994f, -0.06378283f,
    0.23246656f, -0.03795588f, -0.02718876f, 0.14107199f, -0.17764404f, -0.14289594f, 0.07683535f, 0.09934393f,
    -0.11172379f, -0.06222579f, 0.06634808f, 0.02372159f, 0.11449205f, -0.07128991f, -0.14724167f, 0.02279630f,
    0.05468700f, 0.16439924f, -0.05638395f, -0.05105007f, 0.01783345f, 0.02162272f, -0.08430942f, -0.06489810f,
    -0.12014359f, -0.03841792f, 0.14104898f, -0.04449777f, 0.12293307f, -0.11592521f, -0.04174681f, 0.26619977f,
    -0.17112878f, -0.02598829f, -0.15477318f, -0.16136076f, -0.08758579f, -0.11885511f, -0.03341693f, 0.02486433f,
    -0.04167249f, 0.10865357f, -0.14906970f, 0.00319059f, 0.06062590f, -0.11065200f, -0.08284255f, -0.03811299f,
    0.15148231f, -0.04076136f, 0.03750829f, 0.01392378f, 0.13211598f, -0.14087439f, 0.03587496f, 0.08043471f,
    0.11004246f, -0.10774889f, 0.19414490f, 0.11873847f, -0.01527651f, 0.02733509f, -0.03003494f, 0.10066757f,
    -0.00562089f, 0.08623809f, 0.14719252f, 0.05724100f, -0.12748206f, 0.22598347f, 0.10074279f, 0.10134461f,
    0.16694944f, 0.19096315f, 0.00776828f, 0.06778507f, 0.02209025f, -0.09880124f, 0.13180280f, -0.07299686f,
    0.07991978f, 0.02463123f, -0.02950887f, -0.01998429f, -0.13724694f, -0.08850188f, -0.07843551f, -0.01668306f,
    0.05303713f, -0.27621830f, 0.08291198f, 0.11775586f, 0.00945446f, 0.00402537f, 0.32961994f, 0.02612547f,
    -0.00053489f, 0.27756825f, 0.02042497f, 0.03357248f, 0.04277506f, 0.07619127f, 0.03382577f, -0.02846229f,
    0.26090193f, -0.02088289f, 0.22086766f, 0.09687594f, -0.08547542f, -0.07260090f, 0.01457215f, 0.05126872f,
    0.09209370f, -0.17874660f, 0.08875047f, 0.04839888f, 0.15332668f, 0.09099310f, -0.03252393f, -0.03341367f,
    0.10587177f, 0.09342532f, -0.00799603f, -0.11944948f, -0.00681154f, -0.00750003f, -0.04992882f, -0.09198481f,
    0.17037052f, -0.18029311f, 0.06168709f, -0.09562986f, 0.10412082f, -0.06793161f, -0.10469272f, -0.03588727f,
    0.14155827f, -0.03904718f, -0.01464990f, -0.08800892f, -0.06309860f, 0.01722796f, 0.02207587f, 0.03270541f,
    -0.12682709f, -0.01156429f, -0.16006574f, 0.03092159f, 0.11029964f, -0.05775249f, -0.03005694f, -0.12237848f,
    0.05089770f, -0.02525312f, 0.02201833f, -0.04951748f, -0.01662128f, -0.10086190f, -0.01395129f, -0.00716256f,
    -0.11180825f, -0.33408424f, -0.01015845f, -0.03786221f, 0.02664879f, 0.09006007f, 0.00963344f, 0.03408925f,
    0.11808072f, 0.22392377f, -0.11451320f, 0.29238647f, 0.17949228f, -0.12147017f, -0.09414373f, 0.12651385f,
    0.30465534f, -0.02454839f, -0.02446123f, 0.01808412f, -0.11958877f, 0.10544295f, 0.05928589f, 0.13747926f,
    0.05670898f, 0.01053118f, 0.17892276f, -0.00336560f, 0.09486908f, 0.12412628f, 0.00612071f, -0.12841333f,
    -0.06792422f, 0.00865620f, 0.35487792f, 0.15336166f, 0.09664249f, -0.08138966f, 0.00276219f, 0.19289392f,
    0.10202441f, -0.09911025f, -0.00574125f, 0.07698396f, 0.07139055f, -0.04992756f, 0.08072688f, -0.08416981f,
    0.04670829f, -0.03847661f, -0.13241404f, -0.09287046f, -0.02049809f, 0.21836559f, 0.10106737f, -0.09331647f,
    0.04423287f, 0.06055665f, 0.06116610f, 0.00064941f, -0.11820380f, -0.18673176f, 0.05861613f, 0.03888011f,
    0.07552148f, 0.20052566f, 0.19200490f, -0.04290040f, -0.13630891f, -0.16356099f, -0.02429793f, -0.17102373f,
    0.24532194f, 0.00499442f, 0.00685150f, 0.02634805f, -0.17128944f, -0.02666748f, 0.15604489f, 0.03147593f,
    -0.25666645f, -0.00483033f, -0.24970452f, -0.18145502f, -0.12761165f, -0.01294369f, -0.00807101f, -0.26720977f,
    -0.06650624f, 0.18180141f, 0.03333968f, -0.12864409f, -0.00029285f, 0.02704656f, -0.01258803f, 0.09393524f,
    0.14303240f, 0.13640538f, 0.08853169f, 0.10497513f, 0.13650155f, 0.06911837f, -0.30429706f, -0.01562699f,
    -0.01492953f, 0.29311505f, -0.09104703f, -0.09439597f, -0.19744857f, 0.14523597f, -0.10151417f, -0.07943945f,
    0.00650423f, 0.09969924f, -0.13943353f, 0.07647033f, 0.04477822f, 0.05821800f, -0.16564447f, 0.05255955f,
    0.18531196f, -0.13796698f, 0.00053869f, 0.05768599f, -0.04954077f, 0.08397579f, 0.01589106f, -0.07381975f,
    -0.01347087f, 0.13307649f, -0.03364657f, -0.13233700f, 0.13004626f, -0.17212242f, 0.01901874f, 0.09332292f,
    -0.04980410f, 0.02950779f, -0.29957533f, -0.01190142f, 0.05502794f, 0.24058016f, 0.36446145f, -0.05167145f,
    -0.09968965f, -0.15245326f, 0.00175419f, 0.04593075f, 0.02958970f, -0.13104403f, 0.13341498f, -0.11189944f,
    -0.30014047f, 0.03645688f, 0.12975925f, -0.03935895f, -0.19069046f, -0.10306431f, -0.20373161f, 0.01289248f,
    -0.03101263f, -0.14149182f, 0.14777485f, -0.15394793f, -0.00982747f, -0.09804992f, 0.19101454f, 0.16661330f,
    0.08130120f, 0.15115602f, 0.04821702f, -0.07317767f, 0.14900152f, 0.11579738f, -0.07402983f, -0.11635695f,
    -0.01320144f, -0.09589320f, 0.11698573f, -0.06181977f, 0.10139703f, 0.04730665f, -0.11421615f, 0.16294929f,
    -0.09834430f, 0.14753306f, -0.05804710f, 0.08779077f, 0.09459106f, -0.07038557f, 0.15721349f, -0.20614348f,
