/* Auto-generated by export_weights.py — DO NOT EDIT */
/* Model: battery_cnn_int8.onnx */
/* Total parameters: 43,309 */

#ifndef MODEL_WEIGHTS_H
#define MODEL_WEIGHTS_H

#include <stddef.h>

// /* [48] float */
static const float cls_head_0_bias[48] = {
    -0.00099254f, -0.03911325f, -0.01703186f, 0.04201387f, -0.05316845f, 0.03548814f, -0.01247823f, -0.02839481f,
    0.02381967f, 0.00890204f, -0.02308750f, 0.00018752f, 0.02830111f, 0.04835406f, 0.01178401f, -0.03319416f,
    -0.03749798f, 0.02278611f, -0.00102730f, -0.02361651f, -0.01446024f, -0.02954112f, -0.01532935f, -0.00767451f,
    0.01391144f, -0.02453353f, 0.03659815f, 0.03897703f, 0.05365453f, 0.01272643f, -0.03402472f, -0.01821669f,
    0.03844678f, -0.01567613f, -0.02657522f, -0.00928289f, -0.02815791f, -0.00009467f, 0.04066264f, 0.01554622f,
    -0.00666592f, -0.01065284f, -0.03498329f, 0.02287197f, -0.03402125f, -0.01044875f, 0.04482156f, 0.02345452f
};

// /* [48 × 48] float32 (dequantized from int8, scale=0.00581377, zp=0) */
static const float cls_head_0_weight[2304] = {
    -0.01744130f, -0.13953041f, -0.20348184f, -0.15115793f, -0.13371663f, -0.27906081f, -0.12790287f, 0.22092314f,
    -0.30231586f, 0.11046157f, -0.01744130f, -0.08720650f, 0.03488260f, -0.29650211f, -0.31394342f, 0.08139274f,
    0.0000000000e+00f, 0.14534417f, -0.38370860f, 0.10464780f, 0.04069637f, -0.06395143f, 0.21510936f, 0.0000000000e+00f,
    0.29068834f, -0.37789485f, 0.37789485f, -0.07557897f, 0.05813767f, 0.06976520f, 0.09883404f, 0.17441300f,
    -0.06395143f, -0.08720650f, -0.04069637f, -0.30812964f, -0.04069637f, 0.08720650f, 0.06976520f, 0.15115793f,
    0.33138472f, -0.13371663f, -0.03488260f, -0.01744130f, 0.12208910f, 0.25580573f, 0.27906081f, 0.28487456f,
    0.03488260f, 0.23255067f, -0.03488260f, -0.01744130f, 0.09883404f, -0.02325507f, 0.17441300f, -0.03488260f,
    0.26161951f, -0.03488260f, 0.26161951f, -0.30812964f, -0.01744130f, -0.15697171f, -0.06395143f, 0.14534417f,
    -0.41277742f, 0.12790287f, 0.15115793f, 0.36626729f, -0.55812162f, 0.03488260f, -0.34301224f, -0.22092314f,
    -0.08720650f, -0.04651013f, 0.0000000000e+00f, -0.03488260f, 0.05813767f, 0.03488260f, -0.07557897f, 0.01744130f,
    -0.35463977f, -0.04069637f, 0.02906883f, -0.03488260f, -0.05232390f, 0.08139274f, -0.38952237f, -0.29068834f,
    0.09883404f, 0.14534417f, -0.19766808f, -0.21510936f, -0.19766808f, 0.30812964f, 0.10464780f, -0.05232390f,
    -0.13953041f, -0.37789485f, 0.01162753f, 0.24417821f, -0.11046157f, -0.14534417f, 0.06395143f, 0.26161951f,
    -0.05232390f, 0.19766808f, 0.27906081f, -0.13371663f, 0.33138472f, 0.05813767f, -0.06976520f, -0.18604054f,
    0.20348184f, -0.64532810f, -0.14534417f, 0.14534417f, -0.32557094f, 0.14534417f, 0.09302027f, 0.05232390f,
    0.40696368f, -0.19766808f, -0.13371663f, -0.38952237f, 0.09883404f, 0.26161951f, -0.25580573f, -0.03488260f,
    0.05813767f, 0.03488260f, 0.25580573f, -0.09302027f, 0.05232390f, 0.33719847f, -0.11627533f, 0.10464780f,
    -0.37789485f, -0.30231586f, 0.08720650f, -0.22673690f, 0.65114188f, -0.28487456f, -0.14534417f, 0.29068834f,
    -0.27906081f, -0.16859923f, -0.41277742f, -0.37789485f, 0.09302027f, -0.26161951f, -0.12208910f, -0.13371663f,
    -0.17441300f, 0.03488260f, -0.29650211f, 0.23836444f, 0.05813767f, -0.08720650f, -0.12790287f, -0.17441300f,
    -0.06395143f, -0.13371663f, -0.08139274f, -0.19766808f, -0.06976520f, -0.30231586f, -0.17441300f, -0.54068029f,
    0.24417821f, -0.31975716f, -0.16859923f, 0.73834836f, -0.11627533f, -0.05813767f, -0.15115793f, -0.34301224f,
    -0.29650211f, -0.31975716f, 0.06395143f, 0.15115793f, 0.08720650f, -0.28487456f, 0.07557897f, 0.16859923f,
    -0.05232390f, 0.01744130f, 0.01162753f, 0.24999197f, 0.08720650f, 0.36045355f, 0.16278547f, -0.19185430f,
    -0.01162753f, 0.30812964f, -0.18022677f, -0.18604054f, 0.06395143f, -0.45928758f, -0.09883404f, -0.02906883f,
    0.19766808f, 0.42440498f, -0.08139274f, 0.07557897f, -0.47672889f, 0.05232390f, 0.00581377f, -0.37208107f,
    0.35463977f, 0.06395143f, 0.03488260f, -0.09883404f, 0.20348184f, -0.02325507f, -0.06976520f, -0.17441300f,
    -0.09302027f, 0.20348184f, -0.23836444f, -0.21510936f, -0.12208910f, 0.00581377f, -0.09883404f, -0.08720650f,
    0.05232390f, 0.23836444f, -0.23836444f, -0.06976520f, 0.20348184f, 0.20348184f, -0.28487456f, 0.12208910f,
    0.38952237f, 0.61625928f, 0.05232390f, 0.01744130f, 0.01162753f, -0.19766808f, -0.11046157f, -0.44766003f,
    -0.08139274f, 0.20929560f, 0.23255067f, 0.0000000000e+00f, 0.18604054f, 0.34882599f, -0.15697171f, -0.05232390f,
    0.24417821f, -0.03488260f, 0.04069637f, -0.02325507f, 0.11046157f, 0.28487456f, -0.07557897f, -0.44184628f,
    0.32557094f, 0.27906081f, -0.05232390f, 0.16278547f, 0.19766808f, 0.21510936f, 0.06976520f, -0.47091511f,
    -0.00581377f, 0.23836444f, -0.19766808f, 0.12208910f, 0.08720650f, 0.01162753f, -0.41859120f, 0.20929560f,
    0.10464780f, 0.05232390f, 0.01162753f, -0.16859923f, 0.14534417f, 0.12208910f, 0.03488260f, -0.15115793f,
    0.09883404f, 0.17441300f, -0.16859923f, 0.51742524f, -0.29068834f, 0.35463977f, 0.02325507f, 0.29068834f,
    0.33719847f, -0.50579768f, -0.10464780f, -0.17441300f, 0.08139274f, -0.48835641f, -0.12208910f, 0.11046157f,
    -0.18604054f, -0.00581377f, 0.08139274f, -0.32557094f, 0.08139274f, 0.04651013f, -0.29650211f, 0.24999197f,
    -0.00581377f, -0.20348184f, -0.22092314f, 0.24417821f, 0.51161146f, -0.04651013f, -0.08720650f, 0.07557897f,
    -0.28487456f, -0.24999197f, 0.34301224f, 0.04069637f, -0.13371663f, 0.26743326f, 0.03488260f, -0.00581377f,
    -0.47091511f, -0.24417821f, -0.40696368f, -0.08139274f, 0.31975716f, 0.08139274f, 0.05813767f, 0.14534417f,
    0.28487456f, 0.02906883f, -0.15115793f, 0.20929560f, -0.13371663f, 0.36045355f, 0.23255067f, -0.06395143f,
    0.04651013f, -0.11627533f, -0.06395143f, 0.11627533f, -0.20929560f, 0.04651013f, -0.07557897f, -0.45347381f,
    -0.08139274f, 0.03488260f, -0.35463977f, -0.00581377f, -0.22092314f, 0.20929560f, -0.18022677f, 0.23255067f,
    -0.03488260f, -0.00581377f, 0.03488260f, -0.05232390f, 0.01162753f, 0.06395143f, 0.19185430f, 0.04069637f,
    -0.21510936f, 0.15697171f, -0.09883404f, -0.19185430f, -0.11627533f, 0.01162753f, 0.02906883f, 0.02325507f,
    -0.02906883f, 0.30812964f, 0.34882599f, -0.11046157f, 0.01744130f, -0.06395143f, 0.14534417f, -0.03488260f,
    0.20348184f, -0.09883404f, 0.38370860f, -0.16278547f, -0.13371663f, -0.13371663f, -0.17441300f, 0.12208910f,
    0.23836444f, -0.19766808f, 0.34882599f, -0.30812964f, -0.07557897f, -0.25580573f, -0.50579768f, -0.14534417f,
    0.55230784f, 0.19185430f, 0.17441300f, -0.27906081f, 0.07557897f, -0.09302027f, 0.27324703f, 0.10464780f,
    0.20348184f, 0.16859923f, 0.33719847f, -0.24999197f, -0.01162753f, -0.10464780f, -0.20929560f, 0.07557897f,
    -0.01162753f, -0.19766808f, 0.08139274f, -0.16278547f, 0.16278547f, -0.16859923f, 0.02906883f, -0.00581377f,
    0.14534417f, 0.18022677f, -0.12208910f, 0.03488260f, -0.10464780f, 0.02906883f, 0.05813767f, 0.13953041f,
    0.04069637f, 0.04651013f, -0.10464780f, 0.16859923f, -0.13953041f, -0.04651013f, -0.04651013f, -0.15115793f,
    0.19185430f, -0.61625928f, -0.28487456f, -0.20929560f, 0.11046157f, 0.32557094f, 0.30231586f, 0.31975716f,
    0.02906883f, -0.05813767f, -0.18022677f, 0.01744130f, -0.18604054f, -0.08720650f, -0.18604054f, 0.16859923f,
    -0.15115793f, 0.23255067f, -0.08139274f, 0.11046157f, 0.34882599f, -0.16278547f, 0.40114990f, 0.05232390f,
    -0.15115793f, 0.22673690f, 0.27906081f, 0.23836444f, 0.16278547f, 0.04069637f, -0.32557094f, -0.05813767f,
    -0.03488260f, -0.20348184f, 0.10464780f, 0.15115793f, -0.45347381f, 0.02325507f, -0.16278547f, 0.16859923f,
    0.10464780f, 0.31975716f, 0.05813767f, 0.08720650f, -0.02906883f, -0.16278547f, 0.38370860f, 0.00581377f,
    0.27324703f, -0.23255067f, 0.27906081f, 0.0000000000e+00f, 0.06395143f, 0.18604054f, 0.13371663f, -0.06395143f,
    -0.21510936f, 0.13371663f, 0.06395143f, 0.11046157f, -0.36045355f, -0.14534417f, 0.09302027f, 0.06976520f,
    0.12208910f, -0.21510936f, -0.19766808f, -0.24999197f, 0.14534417f, 0.25580573f, 0.33138472f, 0.08139274f,
    0.21510936f, -0.27324703f, 0.24999197f, -0.20348184f, 0.25580573f, -0.05232390f, -0.01162753f, -0.02906883f,
    0.02906883f, 0.24999197f, -0.09302027f, -0.30231586f, -0.31975716f, -0.10464780f, 0.37208107f, 0.04651013f,
    -0.06395143f, 0.06395143f, -0.14534417f, 0.01744130f, -0.22092314f, 0.24417821f, -0.31975716f, 0.01162753f,
    0.22092314f, -0.13371663f, 0.13371663f, -0.11627533f, 0.11046157f, -0.07557897f, -0.36045355f, 0.04069637f,
    -0.05232390f, 0.02325507f, -0.04069637f, 0.08720650f, -0.14534417f, -0.22092314f, 0.15697171f, -0.12790287f,
    -0.02906883f, -0.15697171f, -0.13953041f, -0.04651013f, -0.01162753f, 0.09302027f, -0.09302027f, -0.16278547f,
    -0.16278547f, 0.08139274f, -0.11627533f, -0.19185430f, -0.09883404f, -0.11046157f, -0.00581377f, 0.18022677f,
    -0.31975716f, 0.32557094f, -0.48254263f, 0.25580573f, 0.11046157f, -0.09302027f, 0.13371663f, -0.11627533f,
    0.09883404f, -0.51742524f, 0.23836444f, 0.09883404f, 0.13371663f, 0.31975716f, -0.01744130f, -0.23255067f,
    -0.23255067f, 0.05232390f, -0.11046157f, 0.09883404f, -0.20929560f, 0.12790287f, -0.02906883f, -0.01744130f,
    0.15697171f, 0.03488260f, 0.20929560f, -0.05813767f, -0.36626729f, -0.32557094f, -0.19185430f, 0.0000000000e+00f,
    0.07557897f, -0.09302027f, 0.29650211f, -0.37208107f, 0.00581377f, 0.00581377f, 0.01162753f, -0.29650211f,
    -0.09302027f, -0.18604054f, 0.21510936f, -0.56393540f, -0.16859923f, -0.05232390f, -0.48254263f, 0.25580573f,
    0.01162753f, 0.16278547f, 0.0000000000e+00f, 0.04651013f, -0.03488260f, 0.01744130f, 0.05813767f, 0.35463977f,
    -0.03488260f, 0.11627533f, 0.22673690f, 0.44766003f, -0.05813767f, 0.01744130f, -0.13953041f, 0.06976520f,
    -0.12790287f, -0.13953041f, -0.08139274f, -0.18604054f, -0.01162753f, 0.13371663f, -0.22092314f, 0.28487456f,
    -0.34301224f, -0.28487456f, -0.17441300f, -0.08139274f, -0.16859923f, 0.04069637f, 0.18604054f, -0.33719847f,
    0.21510936f, -0.04651013f, -0.21510936f, 0.31975716f, -0.06395143f, 0.02906883f, 0.31975716f, 0.14534417f,
    -0.01744130f, -0.08720650f, -0.12790287f, 0.22092314f, -0.05232390f, -0.18022677f, 0.26161951f, 0.10464780f,
    0.13371663f, -0.33138472f, 0.17441300f, 0.13371663f, -0.04069637f, -0.22673690f, -0.36626729f, 0.15697171f,
    0.21510936f, 0.12208910f, -0.27324703f, 0.10464780f, 0.18604054f, 0.18022677f, 0.0000000000e+00f, 0.18022677f,
    -0.49998394f, 0.05232390f, 0.01162753f, -0.38952237f, -0.17441300f, -0.37789485f, -0.24999197f, -0.42440498f,
    -0.05232390f, -0.56393540f, 0.17441300f, 0.02325507f, 0.34301224f, 0.15697171f, -0.18022677f, 0.02325507f,
    0.13953041f, 0.18604054f, -0.11627533f, 0.18022677f, 0.07557897f, -0.06395143f, -0.36045355f, -0.01744130f,
    0.04069637f, -0.45347381f, -0.42440498f, -0.16859923f, -0.08720650f, 0.13371663f, -0.23836444f, -0.17441300f,
    0.05232390f, 0.06976520f, -0.24999197f, -0.10464780f, 0.19185430f, 0.01162753f, 0.21510936f, 0.14534417f,
    -0.07557897f, -0.20929560f, -0.23836444f, -0.20348184f, -0.12790287f, 0.04069637f, -0.14534417f, 0.18604054f,
    0.18022677f, 0.25580573f, -0.25580573f, -0.36045355f, 0.24417821f, -0.00581377f, -0.29650211f, 0.28487456f,
    0.21510936f, -0.56974912f, -0.06976520f, 0.06395143f, -0.30812964f, 0.13371663f, -0.08720650f, 0.09302027f,
    0.25580573f, 0.03488260f, -0.04069637f, -0.03488260f, -0.24999197f, -0.20929560f, -0.00581377f, -0.09302027f,
    -0.05232390f, -0.12790287f, 0.01744130f, 0.06976520f, -0.45347381f, -0.08139274f, -0.06976520f, 0.09883404f,
    0.08139274f, 0.12790287f, -0.03488260f, -0.08720650f, -0.18022677f, -0.06976520f, 0.02906883f, -0.16859923f,
    0.07557897f, 0.11046157f, 0.17441300f, 0.24417821f, 0.05813767f, -0.20929560f, 0.09302027f, -0.20348184f,
    -0.25580573f, 0.05813767f, 0.09302027f, 0.12790287f, -0.32557094f, 0.30812964f, 0.16859923f, -0.32557094f,
    -0.01162753f, 0.08720650f, -0.19185430f, 0.04069637f, -0.06976520f, 0.14534417f, -0.03488260f, -0.07557897f,
    0.12208910f, -0.04069637f, 0.10464780f, -0.15697171f, -0.25580573f, 0.12208910f, 0.09883404f, 0.24417821f,
    0.34882599f, 0.05232390f, 0.47672889f, -0.09883404f, 0.26161951f, 0.37789485f, 0.29068834f, -0.07557897f,
    -0.09883404f, 0.14534417f, -0.13953041f, -0.11627533f, -0.02325507f, -0.24417821f, 0.10464780f, -0.04651013f,
    0.09883404f, -0.27906081f, 0.33138472f, -0.41859120f, 0.0000000000e+00f, 0.18022677f, -0.23255067f, 0.04069637f,
    -0.08139274f, -0.63370055f, -0.37789485f, 0.52323902f, -0.05232390f, 0.11046157f, 0.14534417f, 0.26161951f,
    0.28487456f, -0.33719847f, -0.06395143f, -0.37789485f, 0.01162753f, -0.06976520f, 0.02325507f, 0.06976520f,
    -0.14534417f, 0.12790287f, 0.04069637f, 0.34882599f, -0.25580573f, -0.21510936f, 0.16859923f, -0.02906883f,
    -0.07557897f, -0.29068834f, 0.36045355f, 0.38370860f, -0.10464780f, 0.09302027f, -0.01162753f, 0.15115793f,
    -0.29068834f, -0.56393540f, 0.07557897f, -0.14534417f, 0.05813767f, 0.23836444f, 0.29650211f, -0.11627533f,
    0.01162753f, -0.01162753f, -0.24999197f, -0.31394342f, 0.15697171f, 0.01744130f, 0.24417821f, -0.13371663f,
    -0.04651013f, -0.23836444f, -0.07557897f, -0.12790287f, -0.09302027f, -0.15115793f, 0.02906883f, 0.14534417f,
    0.27324703f, 0.26743326f, 0.23255067f, 0.02325507f, -0.01744130f, 0.10464780f, 0.16278547f, -0.25580573f,
    -0.18022677f, 0.06976520f, -0.02325507f, -0.17441300f, 0.0000000000e+00f, 0.20348184f, 0.01162753f, 0.01162753f,
    0.08139274f, 0.09883404f, -0.03488260f, 0.12790287f, -0.19185430f, 0.26161951f, 0.02906883f, -0.20348184f,
    -0.31975716f, -0.09302027f, 0.29068834f, -0.08720650f, -0.39533615f, -0.06395143f, -0.13953041f, 0.14534417f,
    -0.30812964f, 0.15115793f, 0.07557897f, 0.00581377f, 0.04069637f, 0.41277742f, -0.16859923f, 0.34301224f,
    -0.11627533f, 0.45347381f, -0.33138472f, -0.13371663f, 0.08720650f, -0.01162753f, -0.23836444f, -0.14534417f,
    -0.11627533f, 0.11046157f, -0.24417821f, -0.47091511f, -0.33719847f, -0.12790287f, 0.27324703f, 0.13953041f,
    0.05813767f, 0.11046157f, -0.25580573f, 0.42440498f, 0.12790287f, 0.26743326f, -0.11627533f, -0.18604054f,
    -0.05813767f, -0.21510936f, -0.15115793f, -0.41277742f, 0.23255067f, -0.08139274f, 0.22092314f, -0.20348184f,
    0.02906883f, 0.33138472f, -0.20348184f, 0.31975716f, 0.04651013f, 0.30231586f, 0.04069637f, 0.00581377f,
    0.04651013f, 0.08720650f, -0.05813767f, 0.18604054f, -0.13371663f, -0.01162753f, 0.04651013f, -0.11627533f,
    0.01162753f, 0.10464780f, -0.29650211f, 0.07557897f, -0.09302027f, -0.01744130f, -0.13953041f, -0.13371663f,
    0.16859923f, 0.20348184f, 0.13953041f, 0.10464780f, -0.22092314f, 0.04069637f, 0.11046157f, -0.18022677f,
    0.06395143f, -0.45928758f, -0.44766003f, 0.05813767f, -0.41277742f, 0.41277742f, 0.11046157f, -0.00581377f,
    0.06395143f, -0.00581377f, 0.18022677f, 0.05813767f, -0.13953041f, -0.09302027f, 0.09883404f, -0.20348184f,
    -0.31975716f, 0.50579768f, 0.30231586f, 0.26161951f, 0.07557897f, -0.01162753f, 0.01162753f, 0.03488260f,
    0.18022677f, 0.00581377f, 0.16859923f, -0.10464780f, -0.03488260f, -0.08720650f, 0.09302027f, 0.03488260f,
    0.16859923f, -0.41277742f, 0.0000000000e+00f, 0.08139274f, -0.23836444f, -0.04069637f, 0.05232390f, 0.01162753f,
    -0.52905279f, -0.24999197f, -0.15697171f, 0.14534417f, 0.11627533f, -0.06395143f, -0.12208910f, -0.66276944f,
    0.06395143f, -0.24417821f, 0.24999197f, 0.30812964f, 0.27906081f, -0.16278547f, 0.08720650f, -0.15115793f,
    0.0000000000e+00f, -0.15115793f, -0.03488260f, 0.02325507f, 0.16278547f, -0.16278547f, -0.12790287f, -0.08139274f,
    0.47091511f, -0.01162753f, -0.09302027f, 0.11046157f, -0.16859923f, 0.09302027f, 0.01162753f, 0.15697171f,
    0.01162753f, 0.06395143f, -0.27324703f, -0.02325507f, 0.16278547f, 0.01162753f, 0.04069637f, -0.24417821f,
    0.02906883f, -0.49417016f, 0.30231586f, 0.15697171f, 0.04651013f, -0.20348184f, 0.04069637f, -0.08139274f,
    0.31394342f, -0.40696368f, -0.31394342f, 0.27906081f, -0.20929560f, -0.02325507f, 0.38952237f, 0.44184628f,
    0.07557897f, -0.01162753f, -0.02906883f, 0.09302027f, -0.22092314f, 0.15697171f, -0.23255067f, -0.01744130f,
    -0.48835641f, -0.02325507f, -0.07557897f, 0.16278547f, -0.23836444f, -0.15697171f, 0.17441300f, -0.24999197f,
    -0.20348184f, -0.15115793f, 0.09302027f, 0.02906883f, -0.07557897f, -0.01162753f, 0.04069637f, -0.13953041f,
    0.08139274f, 0.46510133f, 0.05232390f, 0.05232390f, 0.06976520f, -0.21510936f, 0.08139274f, -0.20929560f,
    -0.01162753f, -0.12208910f, 0.09302027f, 0.11046157f, 0.29068834f, -0.25580573f, -0.11627533f, 0.22092314f,
    0.06976520f, 0.08720650f, -0.12790287f, 0.07557897f, 0.12790287f, -0.11046157f, 0.15697171f, 0.01744130f,
    -0.19185430f, 0.04651013f, -0.01162753f, 0.16278547f, -0.27906081f, 0.04069637f, -0.02906883f, -0.06395143f,
    -0.01162753f, -0.40114990f, -0.27324703f, -0.18604054f, 0.20929560f, -0.08139274f, 0.0000000000e+00f, -0.31394342f,
    0.02906883f, -0.14534417f, 0.46510133f, 0.27324703f, -0.10464780f, -0.06395143f, 0.20929560f, -0.19766808f,
    -0.29650211f, -0.12790287f, 0.30231586f, -0.08720650f, -0.48835641f, -0.38952237f, -0.08139274f, -0.13953041f,
    0.19766808f, 0.05813767f, 0.12208910f, -0.20348184f, -0.04069637f, -0.68602449f, 0.05813767f, 0.22673690f,
    -0.11046157f, 0.03488260f, -0.09302027f, -0.07557897f, -0.27906081f, -0.23836444f, -0.30231586f, -0.04069637f,
    -0.20348184f, 0.16859923f, -0.04069637f, 0.06395143f, 0.05813767f, -0.24999197f, -0.23836444f, 0.0000000000e+00f,
    0.17441300f, -0.04651013f, -0.06395143f, -0.03488260f, 0.00581377f, -0.12790287f, 0.06976520f, 0.04651013f,
    -0.19185430f, -0.12790287f, 0.37208107f, 0.0000000000e+00f, -0.11627533f, -0.26743326f, 0.08139274f, -0.04651013f,
    0.13371663f, -0.18604054f, -0.13371663f, 0.15115793f, 0.25580573f, -0.20348184f, 0.09302027f, -0.06976520f,
    0.19185430f, -0.22092314f, -0.08720650f, 0.08139274f, -0.19766808f, -0.02906883f, -0.08720650f, 0.08720650f,
    -0.15697171f, 0.12208910f, -0.08720650f, -0.03488260f, 0.29650211f, -0.11627533f, -0.04069637f, -0.15115793f,
    -0.23255067f, 0.18604054f, 0.07557897f, -0.04651013f, -0.15115793f, 0.03488260f, -0.22092314f, 0.01744130f,
    -0.06395143f, 0.01162753f, 0.06976520f, 0.15697171f, -0.15697171f, -0.20929560f, -0.18604054f, 0.29650211f,
    0.33138472f, 0.08139274f, 0.20929560f, 0.32557094f, -0.01744130f, 0.33719847f, 0.22673690f, -0.18604054f,
    0.04069637f, -0.44766003f, -0.44766003f, -0.16278547f, -0.04069637f, 0.09883404f, -0.18604054f, 0.01744130f,
    -0.07557897f, 0.04651013f, 0.14534417f, -0.08139274f, -0.20929560f, -0.01162753f, 0.31975716f, -0.20348184f,
    -0.10464780f, -0.31975716f, -0.40696368f, -0.20348184f, -0.10464780f, 0.06395143f, -0.13371663f, 0.05232390f,
    -0.04069637f, 0.13371663f, 0.01162753f, 0.27906081f, 0.14534417f, -0.08720650f, 0.44184628f, 0.05232390f,
    -0.02325507f, 0.22673690f, 0.13371663f, -0.15697171f, 0.12208910f, -0.08139274f, 0.00581377f, -0.34882599f,
    -0.30231586f, 0.01744130f, -0.08139274f, -0.20348184f, 0.04069637f, 0.30231586f, 0.41277742f, -0.14534417f,
    0.11627533f, -0.37208107f, 0.05232390f, 0.04069637f, 0.19766808f, 0.09883404f, 0.27906081f, 0.68602449f,
    -0.29068834f, 0.04069637f, 0.05813767f, -0.15115793f, 0.03488260f, -0.05813767f, -0.12790287f, -0.69183826f,
    0.39533615f, 0.18022677f, 0.40696368f, -0.21510936f, 0.17441300f, -0.08139274f, -0.55812162f, -0.13371663f,
    -0.42440498f, -0.35463977f, -0.17441300f, -0.27906081f, -0.15115793f, -0.26161951f, -0.17441300f, 0.42440498f,
    -0.08139274f, 0.22673690f, -0.05232390f, -0.16278547f, -0.03488260f, 0.05232390f, 0.00581377f, 0.18604054f,
    -0.05813767f, -0.08139274f, 0.13371663f, -0.09883404f, 0.18604054f, -0.02325507f, 0.13371663f, -0.23836444f,
    0.09302027f, -0.12790287f, -0.20348184f, -0.21510936f, 0.33719847f, -0.36045355f, -0.05232390f, 0.01744130f,
    -0.01162753f, 0.25580573f, -0.27906081f, -0.07557897f, 0.05813767f, 0.48254263f, -0.26743326f, -0.27906081f,
    -0.28487456f, 0.05813767f, 0.19185430f, 0.02325507f, -0.13953041f, -0.01162753f, 0.08139274f, -0.28487456f,
    -0.05813767f, 0.02906883f, 0.02906883f, -0.20348184f, 0.07557897f, 0.15697171f, 0.11046157f, 0.23836444f,
    -0.15115793f, 0.08139274f, -0.31975716f, -0.13953041f, -0.21510936f, 0.01744130f, -0.40114990f, -0.12790287f,
    -0.01162753f, 0.23255067f, -0.19185430f, 0.20929560f, 0.05813767f, 0.05232390f, 0.00581377f, -0.35463977f,
    -0.05232390f, 0.05232390f, -0.04069637f, 0.35463977f, -0.10464780f, -0.08139274f, -0.13371663f, -0.23836444f,
    0.36045355f, -0.17441300f, 0.09302027f, -0.49417016f, 0.16278547f, 0.13371663f, 0.06395143f, 0.01162753f,
    -0.06976520f, -0.29068834f, -0.11046157f, -0.36045355f, 0.00581377f, -0.04069637f, -0.08139274f, 0.40114990f,
    0.38370860f, 0.55812162f, 0.15697171f, 0.13953041f, -0.05232390f, 0.38370860f, 0.07557897f, -0.35463977f,
    0.30812964f, -0.18022677f, 0.22092314f, 0.19766808f, -0.08139274f, -0.04069637f, 0.15697171f, 0.17441300f,
    -0.13371663f, 0.13371663f, -0.08720650f, -0.04651013f, -0.00581377f, 0.06395143f, -0.09883404f, 0.39533615f,
    0.33138472f, 0.05813767f, -0.01162753f, 0.04651013f, 0.10464780f, -0.23255067f, -0.08139274f, -0.01744130f,
    -0.08720650f, -0.13953041f, 0.30231586f, -0.11627533f, 0.19185430f, 0.02325507f, -0.04069637f, 0.14534417f,
    -0.31394342f, -0.03488260f, -0.29068834f, 0.16278547f, -0.04069637f, -0.10464780f, 0.15115793f, -0.05232390f,
    0.15115793f, 0.00581377f, -0.20929560f, 0.18604054f, 0.24417821f, 0.06395143f, 0.13371663f, 0.45928758f,
    -0.10464780f, 0.05232390f, -0.40114990f, 0.20348184f, -0.08720650f, 0.19185430f, 0.01162753f, -0.02325507f,
    -0.13371663f, -0.26743326f, 0.12790287f, -0.37789485f, 0.11046157f, -0.33138472f, -0.06976520f, -0.04651013f,
    -0.00581377f, 0.13953041f, 0.23255067f, 0.08720650f, -0.02906883f, -0.09302027f, -0.19185430f, 0.02906883f,
    -0.19185430f, 0.07557897f, 0.03488260f, -0.13953041f, -0.05813767f, -0.23255067f, 0.21510936f, -0.08720650f,
    -0.02325507f, -0.39533615f, 0.31394342f, 0.02325507f, 0.06976520f, 0.04651013f, 0.28487456f, -0.12790287f,
    0.23255067f, 0.15697171f, 0.10464780f, -0.36045355f, 0.21510936f, -0.34301224f, 0.12790287f, 0.11627533f,
    0.13371663f, 0.12208910f, 0.38952237f, 0.11627533f, -0.18604054f, 0.23255067f, 0.44184628f, 0.04069637f,
    -0.06395143f, -0.49998394f, -0.16859923f, 0.24417821f, -0.20348184f, 0.00581377f, -0.27324703f, -0.02906883f,
    -0.01162753f, -0.04069637f, 0.11046157f, -0.13371663f, -0.07557897f, -0.03488260f, 0.53486651f, -0.30231586f,
    -0.38952237f, -0.16859923f, -0.10464780f, -0.08139274f, 0.43021873f, -0.24999197f, 0.20348184f, -0.19766808f,
    -0.10464780f, 0.13371663f, -0.35463977f, -0.08720650f, -0.07557897f, -0.16859923f, -0.03488260f, -0.15697171f,
    -0.25580573f, 0.03488260f, -0.15697171f, 0.04651013f, -0.02325507f, -0.21510936f, -0.09302027f, -0.17441300f,
    0.12790287f, -0.19185430f, -0.12790287f, 0.37789485f, -0.33719847f, 0.29068834f, -0.23836444f, -0.06976520f,
    0.03488260f, 0.23836444f, 0.12790287f, -0.18604054f, 0.12208910f, 0.06976520f, -0.41277742f, -0.27906081f,
    -0.29650211f, 0.05232390f, -0.05813767f, 0.18604054f, 0.26161951f, 0.22092314f, 0.07557897f, 0.23255067f,
    0.47091511f, 0.0000000000e+00f, -0.29650211f, -0.01162753f, 0.08720650f, -0.45928758f, 0.22673690f, -0.16859923f,
    0.16278547f, -0.04651013f, 0.02906883f, 0.48254263f, 0.34301224f, 0.00581377f, 0.09302027f, 0.01744130f,
    -0.26743326f, -0.13953041f, 0.38952237f, -0.16859923f, -0.00581377f, -0.12790287f, -0.38370860f, -0.01744130f,
    0.25580573f, 0.05232390f, -0.29068834f, -0.11046157f, 0.15697171f, -0.51161146f, 0.06395143f, 0.09302027f,
    -0.26161951f, -0.13371663f, -0.38952237f, 0.36045355f, 0.12208910f, 0.02325507f, -0.17441300f, 0.10464780f,
    -0.13953041f, 0.08139274f, -0.03488260f, -0.30812964f, -0.04651013f, -0.05813767f, 0.20929560f, 0.03488260f,
    -0.13371663f, 0.29650211f, 0.17441300f, -0.06976520f, -0.12208910f, -0.06395143f, 0.38370860f, 0.17441300f,
    -0.18022677f, 0.01162753f, -0.43021873f, 0.36626729f, -0.16859923f, -0.24417821f, 0.04069637f, 0.13953041f,
    0.19766808f, 0.0000000000e+00f, 0.38370860f, -0.32557094f, 0.31394342f, 0.18022677f, -0.01744130f, -0.15115793f,
    -0.17441300f, 0.01162753f, -0.37208107f, 0.25580573f, -0.01162753f, -0.01744130f, 0.41859120f, 0.24999197f,
    -0.05232390f, -0.09883404f, 0.02906883f, -0.16278547f, 0.02325507f, -0.03488260f, -0.14534417f, -0.05232390f,
    -0.24999197f, 0.11627533f, -0.32557094f, -0.12790287f, 0.40114990f, 0.04651013f, -0.04069637f, 0.02906883f,
    -0.03488260f, -0.06976520f, 0.13953041f, -0.15697171f, 0.36626729f, -0.31394342f, 0.04651013f, 0.08139274f,
    0.05232390f, 0.07557897f, -0.18604054f, 0.02325507f, -0.04069637f, -0.32557094f, 0.17441300f, 0.05232390f,
    0.37208107f, -0.22092314f, 0.13371663f, 0.08139274f, -0.14534417f, 0.03488260f, -0.18022677f, -0.18604054f,
    0.04651013f, 0.12208910f, 0.06395143f, 0.07557897f, -0.18022677f, 0.09302027f, 0.33719847f, -0.04651013f,
    0.22092314f, 0.19185430f, -0.10464780f, -0.17441300f, -0.04069637f, 0.07557897f, 0.55230784f, 0.19185430f,
    0.09883404f, 0.00581377f, 0.01744130f, -0.14534417f, 0.05232390f, -0.14534417f, 0.01744130f, 0.01162753f,
    0.17441300f, 0.38370860f, 0.08720650f, -0.04651013f, 0.11046157f, 0.19766808f, -0.10464780f, 0.33719847f,
    0.04069637f, 0.12790287f, 0.36045355f, -0.28487456f, -0.13371663f, 0.19766808f, -0.06976520f, -0.13371663f,
    -0.01744130f, -0.37208107f, -0.08720650f, -0.11046157f, -0.10464780f, -0.02906883f, 0.19185430f, -0.25580573f,
    -0.01162753f, 0.23255067f, -0.39533615f, 0.19185430f, 0.15115793f, -0.37208107f, 0.09302027f, 0.08720650f,
    -0.51161146f, -0.36626729f, 0.02325507f, -0.04069637f, -0.44184628f, 0.04651013f, -0.52905279f, -0.05232390f,
    -0.10464780f, 0.12790287f, 0.19185430f, -0.26743326f, 0.23255067f, -0.54068029f, -0.22673690f, 0.03488260f,
    0.14534417f, -0.16278547f, -0.01162753f, 0.23836444f, 0.42440498f, 0.11627533f, -0.09883404f, -0.18604054f,
    0.05813767f, 0.12208910f, 0.04651013f, 0.32557094f, 0.05232390f, -0.33719847f, -0.29650211f, -0.18022677f,
    0.24417821f, -0.47672889f, -0.04069637f, -0.44766003f, -0.24999197f, -0.13953041f, 0.22673690f, 0.17441300f,
    -0.10464780f, -0.00581377f, -0.15115793f, -0.21510936f, -0.10464780f, 0.20348184f, -0.25580573f, 0.02906883f,
    -0.05232390f, 0.41277742f, 0.15697171f, 0.41277742f, 0.07557897f, 0.06976520f, -0.27906081f, -0.31975716f,
    0.34301224f, 0.13371663f, 0.23255067f, -0.04651013f, 0.04069637f, 0.44184628f, -0.02906883f, 0.13371663f,
    -0.00581377f, -0.03488260f, -0.29068834f, 0.04651013f, 0.18022677f, 0.0000000000e+00f, -0.44184628f, 0.08720650f,
    -0.18604054f, 0.10464780f, -0.11627533f, 0.19766808f, 0.32557094f, 0.19185430f, -0.36626729f, 0.06395143f,
    -0.21510936f, 0.13371663f, 0.12790287f, 0.30812964f, 0.23836444f, -0.12790287f, 0.08720650f, -0.07557897f,
    -0.04651013f, -0.26743326f, 0.13953041f, -0.05813767f, -0.02906883f, -0.27906081f, 0.10464780f, 0.62788683f,
    0.07557897f, -0.26161951f, -0.01162753f, 0.12208910f, 0.35463977f, 0.05813767f, -0.13371663f, 0.44766003f,
    -0.18604054f, 0.11627533f, -0.26743326f, -0.10464780f, 0.00581377f, -0.03488260f, -0.15115793f, 0.00581377f,
    0.20929560f, 0.10464780f, 0.18604054f, -0.09883404f, -0.12790287f, -0.15115793f, -0.26743326f, 0.13953041f,
    0.12790287f, 0.0000000000e+00f, -0.06395143f, -0.03488260f, 0.24999197f, -0.06976520f, -0.05813767f, -0.05232390f,
    -0.29650211f, 0.35463977f, 0.27906081f, -0.06395143f, 0.15115793f, -0.13371663f, 0.06395143f, 0.00581377f,
    0.16859923f, -0.26743326f, 0.26161951f, -0.15115793f, 0.12208910f, -0.12790287f, -0.36626729f, 0.11627533f,
    0.11046157f, -0.05813767f, -0.16278547f, -0.15115793f, -0.01162753f, -0.11046157f, -0.24999197f, 0.02906883f,
    -0.06395143f, -0.11627533f, -0.04069637f, -0.38952237f, 0.26161951f, -0.34882599f, -0.28487456f, -0.31975716f,
    0.00581377f, -0.18604054f, -0.25580573f, 0.29650211f, -0.22673690f, 0.08720650f, 0.13953041f, 0.09302027f,
    -0.12790287f, -0.13371663f, -0.24999197f, -0.02906883f, -0.19185430f, 0.44766003f, 0.05813767f, 0.11627533f,
    -0.23836444f, -0.23836444f, -0.00581377f, -0.11627533f, 0.27906081f, -0.00581377f, 0.27906081f, 0.0000000000e+00f,
    0.19766808f, -0.05813767f, 0.05813767f, -0.03488260f, 0.11627533f, 0.09302027f, -0.11046157f, -0.55812162f,
    0.11627533f, -0.16859923f, 0.10464780f, 0.05813767f, -0.28487456f, -0.17441300f, -0.27324703f, -0.16278547f,
    0.10464780f, 0.09883404f, 0.31975716f, -0.09302027f, -0.27324703f, 0.0000000000e+00f, -0.43021873f, -0.00581377f,
    -0.09883404f, 0.14534417f, 0.06395143f, -0.23836444f, -0.12790287f, 0.20929560f, 0.01744130f, -0.22673690f,
    0.29068834f, 0.27906081f, 0.08139274f, 0.19185430f, -0.37208107f, -0.27324703f, 0.17441300f, -0.02325507f,
    0.18022677f, -0.02325507f, -0.00581377f, 0.22092314f, 0.14534417f, -0.24999197f, -0.21510936f, 0.30231586f,
    0.23255067f, 0.04651013f, -0.08720650f, 0.01744130f, 0.26161951f, -0.15697171f, 0.23836444f, -0.17441300f,
    -0.32557094f, 0.02325507f, 0.37789485f, 0.08139274f, 0.14534417f, 0.10464780f, 0.17441300f, 0.04069637f,
    -0.44766003f, -0.24417821f, 0.13953041f, -0.00581377f, 0.19185430f, 0.00581377f, 0.08139274f, -0.11627533f,
    0.02906883f, 0.02906883f, -0.05813767f, 0.09883404f, 0.19766808f, 0.11627533f, 0.12208910f, 0.33138472f,
    0.11046157f, -0.32557094f, 0.24999197f, -0.02906883f, -0.03488260f, 0.16859923f, 0.19185430f, -0.09883404f,
    -0.18604054f, -0.07557897f, -0.09302027f, 0.02325507f, 0.28487456f, -0.11046157f, 0.11046157f, 0.05232390f,
    -0.15115793f, -0.16859923f, 0.28487456f, 0.05232390f, -0.22092314f, -0.18022677f, -0.27906081f, -0.07557897f,
    0.12208910f, -0.34882599f, -0.32557094f, -0.09883404f, -0.20348184f, -0.23836444f, 0.15697171f, 0.37208107f,
    -0.04069637f, -0.27324703f, -0.34301224f, -0.03488260f, 0.08139274f, -0.25580573f, -0.04069637f, 0.18604054f,
    0.31975716f, -0.24417821f, 0.13371663f, 0.09302027f, -0.35463977f, 0.01162753f, 0.22092314f, -0.01162753f,
    0.11627533f, -0.12208910f, -0.34882599f, -0.03488260f, -0.22673690f, -0.27324703f, -0.04651013f, 0.01162753f,
    0.09883404f, 0.21510936f, 0.09883404f, -0.06395143f, -0.06395143f, 0.05813767f, 0.24417821f, 0.16859923f,
    -0.55230784f, 0.29068834f, 0.06395143f, 0.12790287f, 0.06976520f, -0.16859923f, -0.11046157f, -0.27324703f,
    -0.46510133f, 0.0000000000e+00f, -0.08139274f, -0.06976520f, 0.23255067f, -0.09883404f, -0.09302027f, -0.01744130f,
    0.70346576f, 0.45928758f, 0.26161951f, -0.00581377f, -0.09302027f, 0.06976520f, 0.23255067f, -0.28487456f,
    0.16278547f, 0.41859120f, -0.08720650f, 0.06395143f, 0.20929560f, 0.0000000000e+00f, 0.06395143f, 0.02906883f,
    0.15697171f, 0.29650211f, -0.12208910f, -0.10464780f, -0.07557897f, 0.12790287f, 0.08720650f, -0.03488260f,
    0.03488260f, -0.09302027f, -0.13371663f, -0.11046157f, -0.09883404f, -0.16278547f, -0.24999197f, 0.13371663f,
    -0.12208910f, -0.09883404f, 0.13953041f, -0.14534417f, -0.26743326f, 0.11046157f, -0.12208910f, 0.45347381f,
    0.23836444f, 0.0000000000e+00f, 0.28487456f, 0.01744130f, 0.19185430f, -0.02325507f, -0.32557094f, -0.19185430f,
    -0.08139274f, -0.45347381f, -0.04651013f, -0.37789485f, -0.23255067f, 0.04651013f, -0.23836444f, -0.08139274f,
    0.27906081f, -0.17441300f, 0.02325507f, 0.17441300f, 0.21510936f, -0.09883404f, 0.16859923f, -0.13371663f,
    0.22092314f, 0.09883404f, 0.08139274f, -0.22673690f, 0.19185430f, 0.03488260f, 0.04651013f, 0.11046157f,
    -0.00581377f, -0.44766003f, 0.15115793f, 0.28487456f, 0.29650211f, -0.20348184f, -0.27906081f, -0.37789485f,
    -0.42440498f, -0.06395143f, -0.06395143f, -0.02906883f, 0.19185430f, 0.04069637f, -0.13371663f, -0.04069637f,
    -0.14534417f, 0.12208910f, 0.32557094f, -0.11046157f, -0.22673690f, 0.13953041f, 0.03488260f, -0.19766808f,
    0.17441300f, 0.28487456f, 0.24417821f, -0.35463977f, -0.15697171f, 0.09302027f, 0.05813767f, 0.01162753f,
    -0.05813767f, 0.01162753f, 0.55230784f, -0.06976520f, 0.0000000000e+00f, -0.13953041f, 0.15115793f, 0.22092314f,
    -0.30812964f, -0.24999197f, 0.09302027f, -0.29650211f, -0.44766003f, -0.15697171f, 0.16278547f, 0.01744130f,
    0.11627533f, 0.00581377f, -0.38370860f, 0.06395143f, -0.37208107f, 0.02325507f, 0.01744130f, -0.27324703f,
    0.35463977f, 0.08720650f, 0.05813767f, 0.05232390f, 0.01162753f, -0.06976520f, 0.20348184f, -0.09883404f,
    -0.22092314f, 0.07557897f, -0.44184628f, -0.07557897f, -0.04069637f, -0.02325507f, 0.0000000000e+00f, -0.04069637f,
    0.23255067f, 0.28487456f, -0.06976520f, -0.02906883f, 0.01744130f, 0.09302027f, -0.07557897f, 0.02325507f,
    -0.10464780f, -0.33138472f, -0.52905279f, 0.26743326f, -0.30812964f, 0.32557094f, -0.09883404f, 0.29650211f,
    -0.13953041f, -0.04651013f, 0.24999197f, 0.08139274f, 0.05232390f, 0.12790287f, 0.15115793f, 0.08139274f,
    0.11627533f, 0.10464780f, -0.05813767f, 0.00581377f, -0.51161146f, 0.14534417f, 0.01162753f, 0.29068834f,
    0.14534417f, -0.13953041f, -0.08720650f, 0.04069637f, 0.05813767f, 0.08720650f, -0.03488260f, 0.13953041f,
    0.33138472f, -0.12208910f, -0.04069637f, 0.08139274f, 0.14534417f, -0.15115793f, -0.40114990f, 0.12208910f,
    -0.53486651f, 0.24417821f, 0.25580573f, -0.03488260f, -0.15115793f, 0.09883404f, -0.01744130f, 0.16278547f
};

// /* [24] float */
static const float cls_head_3_bias[24] = {
    0.02893445f, 0.01733258f, -0.01494014f, 0.06079569f, -0.03584417f, -0.01139476f, 0.03789465f, -0.00839001f,
    0.02625693f, 0.01570831f, -0.02679119f, 0.03136126f, -0.02186359f, 0.01523426f, -0.00749715f, -0.01045055f,
    0.06576245f, 0.00507203f, -0.02846894f, 0.00523956f, -0.00451936f, -0.02203690f, -0.00322101f, 0.05015406f
};

// /* [48 × 24] float32 (dequantized from int8, scale=0.00610084, zp=0) */
static const float cls_head_3_weight[1152] = {
    -0.09761345f, -0.15862186f, -0.27453783f, 0.08541177f, -0.37215129f, -0.15862186f, -0.03660505f, 0.11591598f,
    0.01220168f, 0.00610084f, -0.11591598f, 0.35384876f, -0.19522691f, 0.03050420f, -0.00610084f, -0.12201682f,
    -0.03050420f, -0.03050420f, -0.13421850f, 0.17692438f, -0.09151261f, 0.35384876f, 0.33554626f, -0.31114289f,
    0.04270589f, -0.03660505f, 0.01830252f, -0.20742859f, -0.23793280f, 0.10981514f, -0.17082354f, 0.03050420f,
    0.15252101f, -0.31724373f, -0.07321009f, -0.29284036f, -0.28673953f, 0.05490757f, -0.25623530f, 0.11591598f,
    0.30504203f, 0.09761345f, 0.12811765f, 0.29284036f, 0.01830252f, -0.15862186f, -0.17692438f, -0.26843700f,
    -0.10981514f, 0.21352944f, -0.08541177f, -0.34164709f, -0.03660505f, 0.08541177f, -0.14031935f, 0.13421850f,
    -0.08541177f, 0.01220168f, -0.23183195f, -0.06100841f, 0.16472271f, -0.03660505f, -0.77480680f, 0.04880673f,
    0.05490757f, 0.32334456f, -0.04880673f, -0.04880673f, 0.15252101f, -0.01220168f, 0.06100841f, 0.03660505f,
    0.30504203f, -0.32944542f, -0.37215129f, -0.02440336f, -0.10371429f, -0.21352944f, 0.08541177f, 0.14031935f,
    0.07321009f, -0.20742859f, -0.08541177f, -0.06100841f, 0.09151261f, 0.35994962f, -0.13421850f, 0.57347906f,
    -0.40265548f, -0.34774792f, 0.17082354f, 0.23793280f, -0.06100841f, 0.38435298f, -0.28063869f, 0.18912607f,
    0.03050420f, -0.28063869f, -0.27453783f, 0.05490757f, 0.20132774f, 0.29894120f, 0.30504203f, 0.23183195f,
    0.12201682f, 0.32334456f, -0.28063869f, -0.07931093f, -0.25623530f, -0.05490757f, 0.39655465f, 0.43926054f,
    0.25623530f, 0.04270589f, 0.09761345f, 0.26843700f, -0.37215129f, -0.03660505f, 0.09761345f, 0.06710925f,
    0.01830252f, 0.10981514f, 0.27453783f, -0.22573110f, -0.25013447f, 0.23183195f, 0.01830252f, 0.07931093f,
    0.17082354f, 0.08541177f, 0.17082354f, 0.39655465f, -0.19522691f, 0.14031935f, -0.32334456f, -0.18912607f,
    -0.00610084f, -0.33554626f, -0.32334456f, 0.25623530f, -0.32944542f, -0.19522691f, -0.12201682f, -0.32944542f,
    0.04270589f, 0.07931093f, 0.27453783f, -0.32334456f, -0.42095801f, -0.16472271f, 0.12811765f, 0.24403363f,
    -0.26843700f, -0.29894120f, 0.39655465f, 0.13421850f, 0.07321009f, -0.28063869f, -0.26843700f, -0.09761345f,
    -0.13421850f, 0.05490757f, 0.23183195f, 0.15252101f, 0.06710925f, 0.06100841f, -0.26843700f, -0.01830252f,
    0.18302523f, -0.21352944f, -0.04270589f, 0.04270589f, 0.06710925f, -0.15862186f, 0.23793280f, 0.27453783f,
    -0.31724373f, 0.01220168f, -0.15252101f, 0.23793280f, -0.40875635f, -0.46976474f, -0.07931093f, 0.37215129f,
    -0.43315971f, -0.08541177f, 0.22573110f, -0.07321009f, 0.18912607f, -0.18912607f, 0.14642018f, -0.28063869f,
    -0.33554626f, 0.29894120f, -0.12201682f, -0.03660505f, -0.04270589f, -0.06710925f, -0.19522691f, -0.21963027f,
    -0.15252101f, -0.17692438f, -0.00610084f, -0.29894120f, 0.07931093f, -0.14031935f, -0.13421850f, -0.32334456f,
    -0.35994962f, 0.14642018f, 0.20742859f, -0.28673953f, -0.20132774f, 0.31724373f, -0.02440336f, -0.11591598f,
    -0.29894120f, -0.05490757f, -0.07321009f, -0.51857150f, -0.25623530f, -0.42705888f, -0.07321009f, 0.37825215f,
    -0.46976474f, -0.18912607f, -0.05490757f, -0.08541177f, 0.32944542f, -0.20742859f, 0.01830252f, -0.06100841f,
    0.20742859f, -0.07931093f, -0.15862186f, -0.03050420f, 0.21352944f, 0.44536138f, 0.38435298f, -0.06100841f,
    0.19522691f, 0.08541177f, 0.04270589f, 0.14642018f, 0.19522691f, 0.19522691f, 0.15252101f, -0.15252101f,
    -0.12811765f, -0.21963027f, 0.05490757f, 0.04880673f, -0.08541177f, 0.22573110f, -0.70159668f, 0.10981514f,
    -0.00610084f, -0.03050420f, 0.24403363f, 0.11591598f, 0.03660505f, -0.26233616f, -0.00610084f, -0.10371429f,
    -0.26233616f, -0.21352944f, 0.14642018f, -0.07931093f, 0.48196644f, -0.17082354f, 0.10981514f, 0.40875635f,
    -0.10371429f, -0.21352944f, 0.56127739f, -0.28673953f, 0.07321009f, 0.12201682f, 0.01830252f, 0.08541177f,
    0.17082354f, 0.12201682f, -0.34774792f, -0.09151261f, -0.34164709f, -0.50636977f, 0.14031935f, 0.70769751f,
    -0.35994962f, -0.32944542f, -0.01830252f, 0.07321009f, 0.0000000000e+00f, -0.04880673f, -0.21963027f, 0.06100841f,
    0.46976474f, 0.68329418f, -0.27453783f, 0.26233616f, -0.34774792f, -0.03050420f, -0.07321009f, 0.31114289f,
    -0.10371429f, -0.15252101f, -0.23793280f, -0.04270589f, 0.00610084f, 0.10981514f, 0.03660505f, 0.11591598f,
    0.08541177f, -0.06710925f, 0.07321009f, -0.04880673f, 0.02440336f, 0.18912607f, -0.03660505f, -0.21352944f,
    -0.07321009f, 0.24403363f, 0.10981514f, -0.10371429f, -0.18302523f, -0.06710925f, -0.04270589f, 0.24403363f,
    -0.10371429f, -0.06710925f, -0.02440336f, 0.28063869f, -0.08541177f, 0.18302523f, 0.10981514f, -0.28063869f,
    0.23183195f, -0.03050420f, 0.00610084f, -0.21963027f, -0.04270589f, -0.15252101f, -0.07321009f, 0.19522691f,
    -0.09151261f, 0.37215129f, 0.07321009f, -0.07931093f, 0.16472271f, -0.13421850f, -0.07321009f, -0.44536138f,
    -0.21352944f, -0.04880673f, -0.18912607f, -0.32944542f, -0.13421850f, -0.12811765f, 0.15252101f, -0.24403363f,
    -0.01830252f, -0.07931093f, -0.04880673f, 0.04880673f, 0.01220168f, -0.09151261f, -0.07931093f, -0.04880673f,
    -0.23183195f, -0.04880673f, 0.04270589f, 0.12201682f, -0.20742859f, -0.33554626f, -0.34774792f, 0.03050420f,
    0.01830252f, -0.12201682f, -0.02440336f, 0.20132774f, -0.04270589f, -0.09761345f, -0.33554626f, -0.50636977f,
    0.15252101f, -0.19522691f, -0.13421850f, 0.25013447f, -0.12811765f, 0.23183195f, 0.06710925f, -0.15862186f,
    -0.09151261f, -0.03050420f, 0.12811765f, -0.10371429f, 0.03660505f, -0.28673953f, 0.21352944f, 0.19522691f,
    0.21352944f, 0.10371429f, 0.06710925f, 0.23183195f, 0.26233616f, -0.01220168f, 0.25623530f, -0.21352944f,
    -0.22573110f, 0.09151261f, 0.17692438f, 0.06710925f, -0.12811765f, -0.07931093f, -0.20742859f, -0.12201682f,
    -0.17692438f, -0.16472271f, -0.02440336f, -0.01830252f, 0.04270589f, 0.10371429f, -0.25013447f, 0.33554626f,
    0.17692438f, -0.25013447f, -0.23183195f, 0.10371429f, 0.0000000000e+00f, 0.33554626f, 0.11591598f, -0.05490757f,
    -0.01830252f, -0.14642018f, -0.17692438f, -0.09151261f, -0.07321009f, 0.0000000000e+00f, 0.07321009f, -0.45146221f,
    -0.05490757f, -0.00610084f, 0.05490757f, 0.05490757f, 0.20132774f, -0.15252101f, 0.09761345f, 0.28673953f,
    -0.03050420f, 0.12811765f, -0.03050420f, 0.20742859f, -0.01220168f, -0.05490757f, -0.23183195f, 0.00610084f,
    -0.42705888f, 0.11591598f, -0.23183195f, 0.02440336f, -0.18912607f, 0.30504203f, -0.44536138f, -0.08541177f,
    0.11591598f, 0.08541177f, 0.02440336f, 0.07931093f, -0.10371429f, 0.00610084f, -0.21963027f, 0.08541177f,
    -0.16472271f, -0.18912607f, -0.01830252f, 0.27453783f, -0.27453783f, 0.0000000000e+00f, -0.23793280f, 0.0000000000e+00f,
    -0.02440336f, 0.02440336f, 0.39045382f, 0.0000000000e+00f, -0.10981514f, 0.06100841f, -0.22573110f, -0.21963027f,
    -0.42705888f, -0.45756307f, -0.43315971f, -0.27453783f, -0.06100841f, 0.31114289f, -0.19522691f, 0.14642018f,
    -0.64668912f, -0.21352944f, 0.48196644f, 0.07931093f, -0.12811765f, -0.40265548f, 0.37825215f, -0.31114289f,
    -0.02440336f, 0.14031935f, -0.19522691f, 0.07321009f, -0.04270589f, 0.28673953f, 0.12201682f, -0.33554626f,
    -0.09151261f, 0.00610084f, -0.22573110f, -0.01220168f, -0.20742859f, -0.13421850f, 0.04270589f, 0.15862186f,
    -0.32334456f, 0.09761345f, 0.27453783f, -0.11591598f, 0.09151261f, 0.22573110f, -0.16472271f, -0.01830252f,
    -0.24403363f, -0.12201682f, -0.24403363f, 0.21352944f, -0.30504203f, 0.06100841f, -0.21963027f, -0.10981514f,
    0.03050420f, -0.32944542f, 0.20742859f, 0.12201682f, -0.07321009f, 0.06710925f, -0.04880673f, -0.05490757f,
    -0.07931093f, -0.10371429f, 0.32334456f, 0.15862186f, 0.04270589f, -0.12811765f, -0.47586560f, -0.04880673f,
    -0.07931093f, -0.07931093f, 0.16472271f, 0.12811765f, -0.08541177f, -0.05490757f, -0.33554626f, 0.07321009f,
    -0.12201682f, 0.09761345f, 0.40265548f, 0.18912607f, -0.21963027f, 0.23183195f, 0.09761345f, 0.27453783f,
    -0.01220168f, -0.17082354f, 0.23183195f, 0.20742859f, 0.08541177f, 0.03660505f, 0.23793280f, -0.51247060f,
    0.18912607f, 0.07931093f, -0.23183195f, 0.07321009f, -0.21352944f, 0.17082354f, -0.14031935f, -0.32334456f,
    0.07321009f, -0.06100841f, 0.07321009f, 0.03660505f, 0.44536138f, -0.01830252f, -0.01220168f, -0.17692438f,
    0.14031935f, -0.40875635f, 0.06100841f, -0.14642018f, -0.04270589f, 0.28673953f, -0.12811765f, 0.14031935f,
    0.43926054f, -0.12811765f, 0.01830252f, -0.14642018f, -0.00610084f, 0.13421850f, 0.12811765f, 0.14642018f,
    0.10371429f, 0.21963027f, -0.26843700f, 0.35994962f, 0.15862186f, 0.05490757f, -0.28063869f, 0.42095801f,
    0.33554626f, 0.09151261f, 0.12811765f, 0.06710925f, -0.17082354f, 0.15252101f, -0.35384876f, -0.29284036f,
    0.17692438f, -0.21963027f, 0.07321009f, 0.12201682f, -0.19522691f, -0.11591598f, -0.41485718f, 0.16472271f,
    -0.15862186f, -0.31724373f, -0.01830252f, -0.03660505f, -0.12201682f, 0.20132774f, -0.02440336f, 0.17082354f,
    0.10371429f, 0.07321009f, 0.10371429f, -0.40265548f, -0.04270589f, -0.32944542f, 0.07931093f, 0.0000000000e+00f,
    0.48196644f, 0.0000000000e+00f, -0.32944542f, -0.12811765f, -0.04270589f, -0.15252101f, -0.34164709f, -0.29894120f,
    0.12201682f, 0.09761345f, 0.21352944f, 0.24403363f, -0.10981514f, -0.17692438f, -0.55517650f, 0.10371429f,
    -0.17692438f, -0.09761345f, 0.20742859f, 0.23183195f, 0.12201682f, -0.15862186f, 0.21963027f, 0.06100841f,
    0.11591598f, -0.09761345f, 0.07321009f, 0.31114289f, 0.14031935f, 0.07931093f, -0.09761345f, -0.35994962f,
    -0.44536138f, 0.0000000000e+00f, 0.29284036f, -0.07321009f, -0.16472271f, 0.31114289f, 0.18912607f, 0.28673953f,
    -0.15252101f, 0.04880673f, -0.26233616f, -0.31114289f, 0.26233616f, 0.16472271f, -0.17082354f, -0.12201682f,
    -0.10981514f, 0.39655465f, 0.0000000000e+00f, 0.29894120f, 0.12201682f, 0.27453783f, 0.19522691f, -0.14031935f,
    0.09151261f, -0.32944542f, 0.13421850f, 0.32944542f, -0.04270589f, 0.60398322f, 0.06710925f, -0.11591598f,
    0.03660505f, -0.31114289f, 0.09761345f, 0.07321009f, -0.09151261f, -0.03660505f, 0.20742859f, 0.01220168f,
    0.17692438f, 0.13421850f, -0.07931093f, -0.31114289f, 0.39655465f, 0.09761345f, -0.10981514f, -0.26843700f,
    0.23793280f, -0.28063869f, 0.34774792f, 0.05490757f, -0.00610084f, -0.08541177f, -0.34164709f, -0.09151261f,
    -0.04270589f, -0.04880673f, 0.07321009f, 0.28673953f, -0.37825215f, 0.32334456f, -0.04270589f, -0.26233616f,
    0.03660505f, 0.48196644f, -0.44536138f, -0.36605045f, -0.05490757f, -0.35994962f, 0.12201682f, -0.18302523f,
    0.15252101f, 0.15862186f, 0.31114289f, 0.02440336f, 0.42095801f, -0.32944542f, -0.03050420f, -0.06100841f,
    0.21352944f, 0.04270589f, -0.37215129f, 0.01830252f, -0.19522691f, -0.04270589f, 0.29284036f, 0.26843700f,
    0.04880673f, -0.10371429f, 0.11591598f, -0.01220168f, -0.07931093f, -0.05490757f, -0.28063869f, 0.16472271f,
    -0.01220168f, -0.06100841f, -0.23183195f, -0.06100841f, 0.01220168f, 0.18302523f, 0.04880673f, 0.08541177f,
    0.05490757f, 0.01830252f, 0.21352944f, 0.28673953f, 0.06710925f, -0.23793280f, 0.26843700f, -0.06100841f,
    -0.01830252f, -0.15252101f, -0.18302523f, 0.03660505f, -0.32334456f, -0.13421850f, 0.39655465f, 0.06100841f,
    -0.16472271f, -0.15252101f, 0.19522691f, -0.15252101f, -0.00610084f, 0.18302523f, -0.12201682f, 0.01220168f,
    0.20132774f, 0.13421850f, 0.16472271f, -0.12201682f, -0.01830252f, 0.05490757f, 0.14031935f, 0.09761345f,
    -0.09151261f, -0.12201682f, -0.10371429f, 0.01830252f, 0.12811765f, 0.15862186f, 0.48196644f, 0.05490757f,
    0.07931093f, -0.03660505f, 0.09761345f, 0.10981514f, -0.18302523f, 0.07321009f, -0.22573110f, 0.03660505f,
    0.29284036f, 0.24403363f, 0.16472271f, 0.13421850f, 0.19522691f, 0.59788239f, 0.09761345f, -0.09151261f,
    0.11591598f, -0.27453783f, -0.01220168f, -0.12811765f, -0.20742859f, 0.10371429f, 0.41485718f, 0.21352944f,
    0.01830252f, 0.12201682f, -0.06710925f, -0.04270589f, -0.20132774f, -0.17692438f, -0.18912607f, -0.27453783f,
    -0.09151261f, -0.18912607f, -0.09151261f, -0.17082354f, -0.16472271f, 0.21963027f, 0.24403363f, 0.18912607f,
    0.03050420f, 0.10371429f, 0.20132774f, -0.26843700f, 0.14642018f, -0.17692438f, -0.03660505f, -0.07931093f,
    0.03660505f, 0.18302523f, -0.25623530f, -0.19522691f, -0.05490757f, -0.09151261f, 0.06710925f, 0.25013447f,
    0.63448745f, 0.19522691f, 0.31724373f, -0.17692438f, -0.14642018f, -0.03660505f, 0.00610084f, 0.04270589f,
    0.64668912f, -0.06710925f, -0.25623530f, -0.12201682f, 0.06100841f, -0.04270589f, 0.01220168f, -0.28063869f,
    -0.09761345f, 0.45756307f, 0.11591598f, 0.0000000000e+00f, -0.10981514f, 0.07321009f, 0.07321009f, 0.08541177f,
    -0.00610084f, 0.21352944f, -0.29894120f, 0.45146221f, 0.31114289f, -0.02440336f, -0.01830252f, 0.23793280f,
    0.03660505f, 0.24403363f, -0.12811765f, 0.08541177f, 0.16472271f, -0.01220168f, 0.20742859f, 0.12811765f,
    -0.04270589f, -0.00610084f, -0.34164709f, -0.25623530f, -0.14642018f, -0.12201682f, -0.31724373f, -0.00610084f,
    0.27453783f, -0.26233616f, -0.03660505f, 0.06710925f, -0.47586560f, -0.20132774f, 0.09151261f, 0.20132774f,
    0.15862186f, -0.14031935f, -0.40875635f, -0.01220168f, -0.02440336f, -0.20132774f, -0.37825215f, 0.16472271f,
    0.0000000000e+00f, 0.17082354f, -0.25013447f, -0.02440336f, -0.10981514f, 0.00610084f, -0.11591598f, 0.18912607f,
    -0.17082354f, -0.08541177f, 0.25013447f, 0.17082354f, 0.20132774f, -0.09151261f, -0.24403363f, 0.00610084f,
    -0.00610084f, 0.15252101f, 0.06100841f, -0.00610084f, 0.21352944f, -0.31114289f, -0.18912607f, -0.09761345f,
    -0.30504203f, -0.01830252f, -0.09761345f, -0.07321009f, -0.06710925f, 0.15862186f, -0.02440336f, -0.06100841f,
    -0.10981514f, -0.13421850f, -0.03660505f, 0.29894120f, -0.01830252f, 0.13421850f, -0.18912607f, 0.01830252f,
    -0.06710925f, 0.12201682f, -0.05490757f, -0.23793280f, -0.26233616f, -0.17692438f, -0.15252101f, 0.12201682f,
    -0.11591598f, -0.09761345f, -0.24403363f, 0.0000000000e+00f, -0.39655465f, -0.10371429f, -0.17082354f, 0.33554626f,
    -0.15252101f, -0.15252101f, 0.42705888f, 0.12201682f, -0.21963027f, -0.06710925f, 0.26843700f, 0.04880673f,
    -0.08541177f, -0.25623530f, 0.26233616f, -0.15252101f, 0.04270589f, 0.15862186f, 0.22573110f, -0.06710925f,
    -0.00610084f, -0.03050420f, 0.37825215f, -0.29894120f, 0.39045382f, 0.08541177f, 0.0000000000e+00f, -0.08541177f,
    0.03660505f, 0.21352944f, 0.06710925f, 0.23793280f, 0.02440336f, 0.03660505f, 0.23183195f, -0.03050420f,
    -0.01830252f, -0.13421850f, 0.14642018f, -0.03660505f, -0.21352944f, -0.01830252f, 0.08541177f, -0.26843700f,
    0.00610084f, -0.23183195f, 0.18912607f, 0.05490757f, -0.13421850f, 0.34774792f, -0.12811765f, 0.20742859f,
    0.11591598f, -0.06710925f, 0.23793280f, 0.26233616f, 0.14642018f, -0.28063869f, -0.01830252f, -0.23183195f,
    0.15862186f, 0.23793280f, 0.21963027f, 0.01220168f, -0.32944542f, 0.25623530f, -0.08541177f, 0.18912607f,
    -0.23183195f, 0.18302523f, -0.39045382f, -0.18302523f, -0.06100841f, 0.02440336f, -0.23183195f, -0.22573110f,
    -0.07321009f, -0.03660505f, 0.03050420f, -0.18912607f, -0.20132774f, -0.06100841f, 0.01220168f, 0.04270589f,
    0.09761345f, 0.14642018f, -0.40875635f, -0.06710925f, 0.43926054f, 0.35384876f, -0.25013447f, -0.16472271f,
    0.12811765f, -0.01220168f, 0.16472271f, 0.23183195f, -0.06100841f, -0.08541177f, -0.08541177f, 0.18302523f,
    0.05490757f, -0.35384876f, 0.16472271f, -0.05490757f, -0.08541177f, -0.14031935f, 0.23793280f, 0.15862186f,
    -0.25013447f, 0.13421850f, 0.0000000000e+00f, 0.09761345f, -0.05490757f, -0.12811765f, -0.32334456f, -0.12811765f,
    0.30504203f, 0.10981514f, 0.09151261f, -0.01830252f, -0.02440336f, -0.09151261f, 0.07931093f, 0.0000000000e+00f,
    -0.56737822f, -0.51247060f, -0.20132774f, 0.06100841f, 0.43315971f, 0.15252101f, 0.0000000000e+00f, -0.03050420f,
    0.10981514f, -0.03050420f, 0.05490757f, 0.40265548f, -0.13421850f, -0.43315971f, 0.14031935f, -0.33554626f,
    0.29284036f, 0.27453783f, 0.01220168f, 0.25623530f, 0.00610084f, -0.12201682f, -0.31114289f, -0.04270589f,
    0.15252101f, -0.06100841f, -0.20742859f, -0.26233616f, 0.10981514f, -0.26843700f, -0.09151261f, 0.24403363f
};

// /* [3] float */
static const float cls_head_6_bias[3] = {
    -0.00154263f, 0.03001729f, -0.02333714f
};

// /* [24 × 3] float32 (dequantized from int8, scale=0.00447719, zp=0) */
static const float cls_head_6_weight[72] = {
    0.42981064f, 0.28206322f, -0.09402107f, 0.51487732f, 0.50144571f, -0.08058950f, 0.54621768f, -0.11640704f,
    -0.09849827f, 0.40294746f, 0.10745266f, -0.05820352f, -0.25072286f, -0.17013337f, -0.17908776f, 0.02238597f,
    0.46115097f, -0.36265272f, -0.18804215f, -0.09402107f, 0.17013337f, 0.27310884f, -0.03134036f, 0.41190186f,
    -0.24176848f, 0.29997200f, -0.16117899f, 0.09402107f, 0.37608430f, 0.07163510f, 0.01790878f, -0.26863164f,
    0.14327021f, -0.05820352f, -0.25072286f, -0.45219660f, -0.22833690f, -0.22833690f, -0.03581755f, -0.06715791f,
    -0.22385970f, -0.38056150f, -0.51040012f, -0.56860363f, 0.10745266f, 0.24176848f, 0.04029475f, -0.16565618f,
    -0.45667380f, -0.02238597f, -0.08058950f, -0.40294746f, -0.55069488f, 0.26863164f, 0.29101762f, -0.02238597f,
    0.07611230f, 0.46115097f, 0.29997200f, 0.28654042f, -0.05820352f, -0.10297547f, -0.49696854f, -0.08506668f,
    -0.16565618f, 0.03134036f, 0.05820352f, 0.17013337f, 0.36712992f, -0.51487732f, 0.03581755f, -0.28654042f
};

// /* [16 × 2 × 7] float32 (dequantized from int8, scale=0.01681775, zp=0) */
static const float onnx__Conv_190[224] = {
    -1.16042483f, 0.38680825f, 0.15135975f, -0.58862126f, 0.21863076f, 0.77361649f, -0.45407927f, 0.26908401f,
    0.20181301f, 0.05045325f, 0.10090651f, -0.72316325f, -0.48771477f, -0.36999050f, -0.72316325f, 0.50453252f,
    -0.15135975f, -0.01681775f, 0.42044377f, -0.10090651f, -1.02588272f, -0.03363550f, 1.21087801f, -0.75679874f,
    0.65589225f, -0.18499525f, -0.57180351f, 0.31953725f, -0.36999050f, -0.43726152f, -0.35317275f, -0.21863076f,
    -0.33635500f, 0.48771477f, 0.36999050f, -0.30271950f, 0.28590176f, -0.28590176f, 0.20181301f, 0.20181301f,
    -0.55498576f, -0.25226626f, -0.42044377f, 0.16817750f, 0.31953725f, 0.01681775f, -0.26908401f, -0.30271950f,
    -0.10090651f, -0.16817750f, 0.73998100f, 0.26908401f, -0.21863076f, -0.45407927f, -0.77361649f, -0.38680825f,
    0.62225676f, 0.48771477f, -0.55498576f, -0.48771477f, 0.15135975f, 0.70634550f, 0.20181301f, -0.28590176f,
    -0.28590176f, 0.55498576f, -0.21863076f, 0.06727100f, -0.03363550f, 0.45407927f, -0.20181301f, 0.40362602f,
    0.80725205f, 1.04270053f, -0.42044377f, -0.48771477f, -0.82406980f, -0.10090651f, 0.73998100f, 0.08408875f,
    -0.08408875f, 0.45407927f, -0.87452304f, 0.77361649f, 0.90815854f, 0.28590176f, -0.06727100f, 0.25226626f,
    -0.23544851f, -0.58862126f, 0.60543901f, -0.28590176f, -0.87452304f, -0.08408875f, 0.21863076f, 0.08408875f,
    0.03363550f, 0.21863076f, -1.02588272f, -0.06727100f, 0.20181301f, -0.31953725f, 0.45407927f, 0.36999050f,
    -0.13454200f, 0.30271950f, -0.25226626f, -0.43726152f, -0.52135026f, -0.42044377f, 0.38680825f, -0.40362602f,
    0.72316325f, 0.18499525f, 0.35317275f, 0.36999050f, 0.57180351f, -1.04270053f, -0.21863076f, -0.23544851f,
    -0.38680825f, -0.28590176f, -0.28590176f, -0.20181301f, -0.21863076f, -0.06727100f, -0.21863076f, 0.11772425f,
    -0.25226626f, -0.13454200f, 0.52135026f, -0.08408875f, 0.01681775f, -0.31953725f, -0.13454200f, -0.94179404f,
    -0.05045325f, 0.10090651f, -0.28590176f, -0.40362602f, -0.10090651f, 0.25226626f, 0.01681775f, 0.40362602f,
    0.05045325f, 0.25226626f, -0.03363550f, -0.23544851f, 0.35317275f, -0.11772425f, 0.15135975f, 0.01681775f,
    0.18499525f, 0.50453252f, 0.57180351f, -0.47089702f, -0.45407927f, -0.30271950f, -0.30271950f, -0.18499525f,
    0.47089702f, 0.35317275f, -0.06727100f, -0.11772425f, -0.01681775f, -0.31953725f, -0.40362602f, -0.50453252f,
    -0.01681775f, 0.06727100f, -0.31953725f, -0.11772425f, -0.31953725f, -0.42044377f, -0.05045325f, 0.03363550f,
    -0.40362602f, 0.16817750f, 0.01681775f, -0.06727100f, 0.08408875f, 0.28590176f, -0.15135975f, -0.25226626f,
    -0.23544851f, -0.03363550f, -0.16817750f, -0.50453252f, 0.26908401f, 0.18499525f, -0.03363550f, -0.11772425f,
    0.11772425f, -0.10090651f, -0.13454200f, -0.25226626f, 0.20181301f, -0.28590176f, -0.75679874f, 0.43726152f,
    0.33635500f, -0.50453252f, 0.52135026f, -1.37905550f, 2.13585424f, -1.21087801f, 0.0000000000e+00f, 0.15135975f,
    0.11772425f, 0.72316325f, -0.33635500f, 0.26908401f, -0.68952775f, 0.21863076f, 0.28590176f, -0.01681775f,
    -0.55498576f, -0.45407927f, -0.65589225f, 0.05045325f, 0.03363550f, 0.40362602f, 0.25226626f, -0.36999050f
};

// /* [16] float */
static const float onnx__Conv_191[16] = {
    0.02002827f, -0.08180894f, -0.02479809f, 0.06127596f, -0.03919600f, 0.03482970f, 0.01907305f, -0.00246613f,
    0.04196759f, 0.02515416f, 0.05755555f, -0.04183447f, -0.03118646f, 0.02186859f, 0.04012919f, 0.03608524f
};

// /* [16 × 16 × 7] float32 (dequantized from int8, scale=0.00583812, zp=0) */
static const float onnx__Conv_193[1792] = {
    -0.08757186f, 0.21601059f, -0.38531619f, -0.22184871f, -0.23352496f, 0.12843873f, -0.02335250f, -0.07589561f,
    0.28022996f, 0.13427685f, -0.05838124f, 0.28022996f, 0.14595310f, 0.01751437f, 0.19849622f, -0.28022996f,
    -0.14011498f, -0.05254312f, 0.16930559f, 0.06421936f, -0.08757186f, 0.11676248f, -0.14011498f, -0.21601059f,
    -0.08173373f, -0.08757186f, 0.01751437f, -0.26855370f, -0.02919062f, -0.16346747f, -0.02919062f, -0.30358246f,
    0.01167625f, 0.18098184f, -0.17514372f, 0.04086687f, -0.14011498f, -0.25103933f, 0.32693493f, 0.22184871f,
    0.16346747f, 0.00583812f, 0.18681997f, 0.01167625f, -0.21017247f, -0.26855370f, -0.09924811f, -0.20433435f,
    -0.01751437f, 0.02919062f, 0.05838124f, 0.07005749f, -0.14595310f, 0.04670499f, -0.12260061f, -0.18098184f,
    -0.11092436f, -0.30942059f, 0.07589561f, -0.03502874f, 0.09924811f, 0.27439183f, -0.05838124f, 0.10508624f,
    0.02919062f, 0.02335250f, -0.09924811f, -0.04086687f, -0.02919062f, -0.25687745f, -0.11676248f, -0.02335250f,
    0.02335250f, -0.12843873f, -0.04086687f, -0.04670499f, -0.03502874f, 0.12260061f, 0.23352496f, -0.00583812f,
    -0.03502874f, 0.04086687f, 0.02919062f, 0.05838124f, -0.19265810f, 0.11092436f, -0.13427685f, -0.28606808f,
    0.14595310f, -0.19849622f, -0.10508624f, 0.25687745f, 0.21601059f, 0.04670499f, -0.16930559f, -0.12260061f,
    0.08173373f, -0.18098184f, -0.09924811f, -0.09340999f, -0.09340999f, 0.08757186f, -0.07589561f, 0.16346747f,
    0.04670499f, -0.22184871f, 0.02919062f, -0.27439183f, 0.17514372f, -0.07005749f, 0.28606808f, -0.11092436f,
    0.11676248f, -0.19265810f, -0.14595310f, -0.04086687f, 0.01751437f, 0.0000000000e+00f, -0.09340999f, 0.12843873f,
    0.0000000000e+00f, -0.33277306f, -0.04086687f, 0.10508624f, -0.11092436f, -0.12843873f, -0.30358246f, 0.02919062f,
    -0.15762936f, 0.08757186f, 0.0000000000e+00f, 0.06421936f, -0.05254312f, 0.10508624f, 0.08757186f, -0.06421936f,
    -0.05254312f, -0.07005749f, -0.11092436f, 0.04086687f, -0.02919062f, -0.18098184f, -0.17514372f, 0.00583812f,
    0.01751437f, -0.15179123f, -0.25687745f, -0.16930559f, 0.32109684f, 0.12260061f, -0.13427685f, -0.26855370f,
    -0.15762936f, -0.23352496f, 0.05254312f, 0.11676248f, -0.26271558f, -0.21017247f, -0.08173373f, 0.46121180f,
    -0.08757186f, 0.02919062f, 0.17514372f, 0.15762936f, -0.04670499f, -0.03502874f, 0.02919062f, 0.08757186f,
    0.34444931f, -0.11676248f, -0.28606808f, 0.03502874f, 0.15762936f, -0.14595310f, -0.18098184f, 0.04670499f,
    -0.04670499f, -0.19265810f, 0.00583812f, 0.26271558f, 0.40866870f, -0.12260061f, -0.12843873f, 0.01167625f,
    -0.15762936f, 0.15179123f, 0.17514372f, 0.11092436f, -0.11092436f, -0.22768684f, 0.0000000000e+00f, -0.11676248f,
    0.04086687f, -0.22184871f, 0.05838124f, 0.0000000000e+00f, 0.14011498f, -0.11092436f, -0.19849622f, -0.25687745f,
    0.04670499f, 0.14595310f, 0.0000000000e+00f, -0.23352496f, 0.03502874f, -0.05838124f, -0.11092436f, -0.07005749f,
    -0.08757186f, 0.10508624f, -0.21017247f, 0.36780182f, 0.18098184f, 0.15179123f, 0.18098184f, 0.03502874f,
    -0.19849622f, 0.34444931f, -0.06421936f, 0.0000000000e+00f, -0.04670499f, 0.04670499f, 0.17514372f, 0.0000000000e+00f,
    0.20433435f, 0.23352496f, -0.16930559f, 0.14595310f, -0.33277306f, 0.11676248f, -0.09924811f, -0.28022996f,
    -0.39115432f, 0.29774433f, 0.08757186f, 0.21017247f, -0.05838124f, 0.11092436f, 0.38531619f, -0.09340999f,
    -0.36780182f, -0.28606808f, 0.08173373f, -0.14011498f, 0.11676248f, -0.14011498f, -0.24520122f, -0.09924811f,
    0.28606808f, 0.33277306f, 0.0000000000e+00f, 0.24520122f, -0.04086687f, 0.29190621f, -0.18098184f, 0.01751437f,
    0.44369742f, -0.14595310f, 0.10508624f, 0.25103933f, 0.28606808f, -0.18681997f, -0.15179123f, 0.00583812f,
    0.01167625f, -0.04670499f, -0.08757186f, 0.07589561f, -0.12260061f, 0.02335250f, -0.21601059f, -0.02335250f,
    0.08173373f, -0.23936309f, 0.05254312f, -0.05838124f, -0.25687745f, 0.10508624f, 0.08173373f, 0.07589561f,
    -0.04670499f, 0.23936309f, 0.12260061f, -0.11676248f, 0.02335250f, -0.00583812f, -0.17514372f, -0.04670499f,
    0.05838124f, 0.10508624f, 0.03502874f, -0.07589561f, -0.10508624f, 0.18098184f, -0.09924811f, 0.07005749f,
    0.09924811f, -0.12260061f, -0.19265810f, 0.10508624f, 0.19849622f, 0.47872618f, 0.18681997f, -0.19849622f,
    0.17514372f, -0.00583812f, -0.14011498f, -0.35028744f, -0.25103933f, -0.04670499f, 0.0000000000e+00f, 0.12843873f,
    -0.24520122f, -0.33277306f, 0.20433435f, 0.08757186f, -0.12843873f, -0.10508624f, -0.02335250f, -0.32693493f,
    0.33277306f, -0.02919062f, 0.30358246f, 0.03502874f, 0.12843873f, 0.0000000000e+00f, 0.15179123f, 0.18098184f,
    0.33861119f, 0.20433435f, 0.27439183f, -0.08757186f, 0.19265810f, 0.08757186f, 0.02919062f, 0.08173373f,
    -0.18098184f, 0.07005749f, -0.06421936f, 0.08173373f, -0.17514372f, -0.01167625f, 0.09340999f, 0.03502874f,
    -0.02919062f, 0.06421936f, 0.04086687f, 0.00583812f, 0.06421936f, -0.06421936f, -0.14595310f, 0.14595310f,
    0.04086687f, -0.11092436f, -0.12843873f, -0.04670499f, 0.04670499f, -0.09924811f, -0.04086687f, 0.0000000000e+00f,
    -0.04670499f, -0.02919062f, -0.01751437f, -0.02919062f, -0.11092436f, 0.02919062f, -0.11676248f, -0.04670499f,
    -0.13427685f, -0.02335250f, -0.14595310f, -0.05838124f, 0.17514372f, 0.09340999f, 0.09924811f, -0.06421936f,
    0.02919062f, -0.02335250f, 0.01751437f, -0.09924811f, 0.01167625f, -0.03502874f, 0.07005749f, -0.14595310f,
    -0.08757186f, -0.08757186f, 0.0000000000e+00f, 0.00583812f, 0.03502874f, -0.01751437f, -0.05254312f, -0.02919062f,
    -0.04086687f, 0.06421936f, -0.12843873f, 0.07589561f, -0.17514372f, -0.09924811f, -0.14595310f, -0.11092436f,
    0.0000000000e+00f, -0.04086687f, 0.02335250f, -0.16930559f, -0.09924811f, -0.02919062f, -0.15179123f, 0.05254312f,
    0.0000000000e+00f, -0.05254312f, -0.01167625f, -0.09924811f, -0.07005749f, -0.02919062f, 0.07589561f, -0.05254312f,
    -0.29190621f, -0.06421936f, 0.04086687f, 0.05254312f, -0.02335250f, 0.06421936f, 0.09340999f, -0.04670499f,
    -0.18098184f, 0.07589561f, -0.08757186f, 0.06421936f, -0.23936309f, 0.02919062f, -0.00583812f, -0.07005749f,
    0.01751437f, -0.09340999f, 0.08757186f, 0.03502874f, 0.08173373f, 0.12843873f, -0.07589561f, 0.0000000000e+00f,
    -0.08757186f, -0.00583812f, -0.00583812f, -0.11092436f, -0.02919062f, 0.18681997f, 0.08757186f, -0.30942059f,
    -0.28606808f, -0.25103933f, 0.04670499f, -0.34444931f, -0.09340999f, -0.04670499f, 0.10508624f, 0.02335250f,
    0.16930559f, -0.19265810f, 0.16930559f, -0.22184871f, 0.14011498f, -0.07589561f, -0.04086687f, 0.17514372f,
    -0.16930559f, -0.12260061f, -0.05838124f, 0.26271558f, 0.18681997f, -0.02919062f, 0.01167625f, -0.24520122f,
    0.10508624f, -0.00583812f, -0.21017247f, -0.51959306f, -0.20433435f, -0.14595310f, -0.21601059f, 0.25103933f,
    -0.04086687f, -0.05838124f, -0.16930559f, -0.12843873f, 0.0000000000e+00f, -0.12843873f, -0.08173373f, -0.14011498f,
    -0.08173373f, -0.45537367f, 0.28022996f, -0.00583812f, 0.06421936f, -0.09340999f, -0.18098184f, 0.03502874f,
    0.10508624f, -0.04086687f, 0.25687745f, -0.01167625f, 0.26855370f, -0.09924811f, -0.07589561f, 0.05254312f,
    0.02335250f, 0.04086687f, -0.15179123f, 0.15179123f, 0.01751437f, 0.14011498f, 0.10508624f, -0.33277306f,
    -0.04086687f, -0.05254312f, -0.14595310f, -0.14595310f, -0.15762936f, -0.10508624f, -0.26271558f, 0.06421936f,
    0.23352496f, 0.07589561f, 0.13427685f, -0.01751437f, 0.13427685f, 0.16930559f, 0.09924811f, -0.07005749f,
    0.21601059f, 0.09340999f, -0.26855370f, 0.17514372f, 0.12843873f, -0.21017247f, 0.15762936f, 0.16346747f,
    0.03502874f, 0.04670499f, -0.04670499f, -0.15762936f, -0.11676248f, -0.21601059f, -0.16930559f, -0.12260061f,
    -0.11092436f, 0.10508624f, -0.21017247f, 0.05254312f, -0.01167625f, -0.22768684f, -0.15179123f, -0.05838124f,
    0.15762936f, -0.08173373f, -0.01167625f, 0.05838124f, 0.18681997f, -0.21017247f, -0.02919062f, -0.11676248f,
    0.21601059f, 0.02335250f, 0.28022996f, 0.12843873f, -0.33861119f, 0.0000000000e+00f, -0.44369742f, 0.16346747f,
    -0.10508624f, -0.18681997f, -0.22768684f, -0.07005749f, 0.22768684f, -0.35028744f, -0.04086687f, 0.23936309f,
    -0.10508624f, 0.05838124f, -0.18098184f, 0.15762936f, 0.13427685f, -0.14011498f, 0.10508624f, 0.02335250f,
    0.14595310f, 0.16930559f, -0.09340999f, -0.50207865f, -0.23352496f, 0.50791681f, -0.25103933f, -0.04086687f,
    0.09924811f, 0.0000000000e+00f, 0.04670499f, -0.28606808f, 0.21601059f, -0.13427685f, 0.01751437f, 0.36780182f,
    0.05838124f, 0.01751437f, -0.04670499f, -0.41450682f, -0.24520122f, -0.02335250f, 0.11676248f, -0.15762936f,
    0.09340999f, -0.29774433f, 0.15762936f, 0.03502874f, -0.02335250f, -0.21601059f, 0.08757186f, -0.29190621f,
    0.10508624f, 0.05838124f, 0.15762936f, 0.04670499f, -0.11092436f, 0.37363994f, 0.16930559f, -0.27439183f,
    -0.17514372f, 0.00583812f, -0.18681997f, 0.06421936f, 0.12260061f, -0.08173373f, 0.10508624f, 0.09340999f,
    0.14595310f, 0.23936309f, -0.04086687f, -0.02919062f, 0.05838124f, 0.15762936f, 0.13427685f, -0.32693493f,
    0.18681997f, 0.09924811f, 0.25687745f, 0.01751437f, -0.29774433f, 0.15762936f, 0.01167625f, -0.01751437f,
    0.25103933f, -0.05838124f, -0.40283057f, -0.20433435f, -0.04670499f, -0.12843873f, 0.02919062f, 0.30358246f,
    0.04670499f, 0.26271558f, -0.18681997f, -0.00583812f, 0.02919062f, -0.25103933f, 0.03502874f, 0.27439183f,
    -0.26271558f, -0.08757186f, 0.01751437f, 0.08173373f, 0.01167625f, 0.06421936f, 0.04670499f, -0.16930559f,
    -0.16930559f, -0.16346747f, -0.29774433f, 0.15762936f, -0.03502874f, -0.04670499f, 0.13427685f, 0.09340999f,
    -0.02919062f, -0.18681997f, 0.12260061f, 0.26855370f, -0.15179123f, -0.35612556f, -0.05838124f, -0.27439183f,
    0.27439183f, -0.07589561f, 0.03502874f, 0.04086687f, -0.03502874f, 0.01167625f, -0.32109684f, 0.06421936f,
    -0.26271558f, -0.26855370f, -0.49040243f, 0.12260061f, -0.26271558f, -0.01751437f, 0.09924811f, -0.10508624f,
    0.20433435f, -0.41450682f, 0.07005749f, 0.24520122f, 0.02335250f, 0.11676248f, 0.14011498f, -0.45537367f,
    -0.01751437f, -0.22184871f, 0.24520122f, 0.23936309f, 0.13427685f, 0.03502874f, -0.15762936f, -0.36196369f,
    0.15179123f, 0.24520122f, -0.49624056f, 0.38531619f, 0.32693493f, 0.15179123f, -0.16346747f, 0.02919062f,
    0.19849622f, -0.08757186f, -0.33277306f, -0.11092436f, -0.29190621f, -0.32693493f, 0.28606808f, 0.15762936f,
    0.00583812f, 0.12260061f, -0.20433435f, 0.16346747f, -0.22768684f, 0.46704993f, 0.36780182f, -0.19265810f,
    -0.14011498f, 0.08173373f, 0.12843873f, 0.0000000000e+00f, -0.12843873f, -0.01751437f, -0.07589561f, -0.01167625f,
    0.21017247f, 0.25103933f, -0.02919062f, -0.14011498f, -0.06421936f, -0.10508624f, 0.30942059f, -0.00583812f,
    -0.08173373f, 0.35612556f, -0.11676248f, 0.16930559f, -0.10508624f, -0.09340999f, 0.16930559f, 0.01751437f,
    0.03502874f, -0.02335250f, -0.17514372f, -0.33861119f, 0.04086687f, -0.17514372f, 0.21017247f, 0.34444931f,
    -0.02919062f, -0.04670499f, 0.22768684f, 0.01751437f, -0.37947807f, 0.14595310f, -0.28022996f, -0.11676248f,
    0.28022996f, 0.49624056f, 0.17514372f, -0.74144179f, 0.72392738f, -0.23352496f, -0.35612556f, -0.31525871f,
    0.18681997f, -0.02919062f, -0.11092436f, -0.29190621f, -0.05838124f, -0.05838124f, 0.04086687f, -0.01167625f,
    -0.31525871f, -0.05838124f, -0.09340999f, 0.40866870f, 0.03502874f, 0.54294556f, 0.19265810f, 0.25687745f,
    -0.11092436f, -0.26855370f, 0.04670499f, 0.26855370f, -0.09924811f, 0.04670499f, -0.03502874f, 0.25687745f,
    -0.47288805f, -0.31525871f, 0.15179123f, 0.02335250f, 0.14595310f, -0.06421936f, 0.16346747f, 0.05838124f,
    -0.14011498f, -0.22184871f, -0.07005749f, 0.13427685f, 0.03502874f, -0.02335250f, 0.47872618f, 0.09924811f,
    0.30942059f, -0.06421936f, -0.02335250f, 0.05838124f, -0.24520122f, -0.16346747f, -0.18098184f, 0.18681997f,
    -0.14011498f, 0.36780182f, 0.32693493f, -0.02919062f, -0.23936309f, -0.39115432f, -0.03502874f, 0.09924811f,
    0.14595310f, -0.19849622f, -0.06421936f, -0.30358246f, -0.21017247f, -0.04670499f, 0.39699244f, -0.12260061f,
    -0.28606808f, -0.17514372f, -0.13427685f, -0.13427685f, 0.32109684f, 0.03502874f, -0.19849622f, -0.58381242f,
    0.24520122f, 0.00583812f, 0.37947807f, 0.12843873f, -0.44953555f, -0.09924811f, 0.04086687f, -0.12260061f,
    0.29190621f, -0.03502874f, -0.11676248f, 0.63051742f, 0.17514372f, 0.67138427f, -0.47288805f, -0.23936309f,
    -0.01751437f, -0.26855370f, 0.02335250f, -0.28022996f, -0.09924811f, 0.28022996f, 0.14595310f, 0.22768684f,
    -0.09340999f, -0.52543116f, 0.11092436f, -0.13427685f, 0.12843873f, -0.26271558f, -0.16346747f, -0.32693493f,
    0.02919062f, -0.02919062f, 0.09924811f, -0.21601059f, -0.05254312f, 0.18098184f, -0.16930559f, -0.00583812f,
    -0.05254312f, -0.00583812f, -0.19265810f, -0.31525871f, 0.14011498f, 0.37947807f, -0.17514372f, -0.44369742f,
    0.04086687f, -0.18681997f, -0.27439183f, -0.07589561f, -0.14595310f, 0.19265810f, -0.05838124f, -0.22184871f,
    -0.24520122f, 0.15179123f, 0.29190621f, -0.26855370f, -0.05254312f, 0.03502874f, -0.31525871f, 0.09340999f,
    0.11676248f, -0.18098184f, -0.00583812f, 0.19849622f, -0.21601059f, 0.21601059f, -0.02919062f, 0.01751437f,
    -0.02335250f, -0.04086687f, -0.09924811f, -0.05838124f, 0.18681997f, 0.11676248f, -0.43202117f, 0.02335250f,
    0.06421936f, -0.18098184f, 0.09924811f, 0.18681997f, 0.49040243f, 0.20433435f, -0.28606808f, -0.15762936f,
    0.25687745f, 0.23936309f, -0.07005749f, -0.08757186f, -0.16346747f, 0.09340999f, 0.09924811f, -0.33861119f,
    0.17514372f, 0.30358246f, -0.60716492f, 0.06421936f, 0.01751437f, 0.22768684f, 0.11676248f, 0.32693493f,
    -0.03502874f, -0.16346747f, -0.29190621f, 0.09924811f, 0.01167625f, 0.27439183f, 0.12260061f, -0.19849622f,
    -0.23352496f, -0.11092436f, -0.09340999f, -0.10508624f, -0.05254312f, -0.11676248f, -0.02919062f, -0.14595310f,
    -0.12843873f, -0.47872618f, 0.30358246f, 0.36780182f, 0.39699244f, -0.04670499f, -0.33861119f, 0.03502874f,
    0.03502874f, 0.15179123f, 0.21601059f, 0.05254312f, 0.43785930f, -0.32693493f, 0.02919062f, 0.22768684f,
    -0.07005749f, -0.26271558f, -0.32109684f, 0.15179123f, -0.20433435f, -0.37947807f, -0.01167625f, 0.31525871f,
    0.38531619f, 0.22768684f, 0.41450682f, 0.28022996f, -0.23352496f, -0.30358246f, -0.17514372f, 0.04670499f,
    -0.08173373f, -0.24520122f, 0.21601059f, -0.17514372f, -0.32109684f, -0.19265810f, 0.32109684f, -0.22184871f,
    0.26855370f, 0.09924811f, 0.15762936f, 0.25103933f, 0.06421936f, 0.28606808f, 0.31525871f, 0.51959306f,
    0.09340999f, 0.20433435f, -0.25103933f, -0.11092436f, -0.11092436f, 0.42034495f, 0.07005749f, 0.34444931f,
    -0.22184871f, -0.22184871f, -0.25687745f, -0.29190621f, -0.11676248f, -0.15762936f, -0.04086687f, -0.15762936f,
    -0.08757186f, -0.02919062f, -0.11676248f, 0.35028744f, -0.35612556f, 0.32109684f, -0.07005749f, 0.00583812f,
    -0.24520122f, -0.48456430f, 0.22768684f, 0.21017247f, 0.04086687f, -0.07005749f, 0.0000000000e+00f, 0.0000000000e+00f,
    -0.16930559f, 0.04670499f, 0.18098184f, 0.42034495f, -0.02335250f, -0.15179123f, 0.05838124f, -0.21017247f,
    -0.38531619f, -0.16930559f, 0.22184871f, -0.08757186f, -0.12260061f, -0.18681997f, -0.43785930f, 0.27439183f,
    -0.07589561f, 0.20433435f, 0.07005749f, -0.08757186f, 0.21601059f, 0.00583812f, 0.21601059f, 0.12843873f,
    0.14595310f, 0.15179123f, -0.26271558f, 0.12260061f, 0.18681997f, -0.30358246f, -0.04670499f, -0.28022996f,
    0.17514372f, 0.02919062f, -0.28022996f, -0.07589561f, 0.01167625f, 0.00583812f, -0.05254312f, -0.17514372f,
    -0.11676248f, -0.14595310f, 0.01167625f, -0.21017247f, 0.16346747f, -0.68306053f, -0.19849622f, 0.13427685f,
    -0.03502874f, 0.06421936f, 0.05254312f, 0.21601059f, -0.00583812f, 0.18098184f, -0.14595310f, 0.15179123f,
    -0.11676248f, 0.21601059f, 0.35028744f, -0.00583812f, -0.11092436f, -0.02919062f, 0.01751437f, 0.30942059f,
    -0.16930559f, 0.01167625f, -0.21017247f, 0.05838124f, -0.06421936f, 0.26855370f, -0.12260061f, -0.34444931f,
    -0.21601059f, 0.00583812f, 0.04670499f, -0.19849622f, 0.08757186f, 0.03502874f, -0.26271558f, 0.01167625f,
    -0.01167625f, 0.17514372f, 0.04670499f, -0.14011498f, 0.08757186f, 0.35028744f, -0.11092436f, -0.29774433f,
    0.06421936f, -0.10508624f, -0.12843873f, -0.32693493f, -0.30942059f, 0.07005749f, -0.09340999f, 0.08173373f,
    0.05838124f, -0.05254312f, 0.29774433f, 0.0000000000e+00f, -0.02335250f, 0.12260061f, -0.24520122f, -0.10508624f,
    -0.39699244f, -0.24520122f, -0.09340999f, -0.12843873f, 0.03502874f, -0.32109684f, 0.15762936f, -0.25687745f,
    0.22184871f, 0.29190621f, 0.32693493f, 0.27439183f, 0.04086687f, -0.26271558f, -0.23936309f, 0.35028744f,
    0.02335250f, -0.12260061f, -0.07589561f, -0.08757186f, -0.42618304f, 0.00583812f, 0.05838124f, 0.08757186f,
    -0.21601059f, -0.11676248f, -0.03502874f, 0.22184871f, 0.07005749f, -0.31525871f, -0.02919062f, -0.06421936f,
    0.09340999f, -0.09924811f, 0.00583812f, 0.0000000000e+00f, -0.11676248f, 0.35028744f, -0.20433435f, -0.16930559f,
    -0.05838124f, -0.11676248f, 0.01167625f, 0.14595310f, 0.12843873f, 0.25687745f, -0.16930559f, 0.29190621f,
    -0.03502874f, 0.25103933f, 0.10508624f, -0.03502874f, 0.02919062f, -0.08173373f, -0.29774433f, 0.05254312f,
    0.25103933f, 0.15179123f, 0.18681997f, 0.09340999f, 0.05838124f, -0.28606808f, -0.02919062f, -0.45537367f,
    -0.08173373f, -0.03502874f, -0.03502874f, -0.28022996f, -0.40283057f, 0.11676248f, -0.33861119f, -0.19265810f,
    -0.08173373f, 0.13427685f, 0.16346747f, 0.29190621f, -0.08757186f, -0.00583812f, -0.25103933f, -0.10508624f,
    0.14595310f, 0.04086687f, -0.15762936f, 0.19849622f, -0.04086687f, 0.01751437f, -0.29190621f, -0.01751437f,
    0.29190621f, -0.21017247f, -0.11092436f, 0.15179123f, 0.12843873f, 0.07589561f, -0.19265810f, 0.17514372f,
    0.15179123f, 0.11676248f, 0.27439183f, -0.05838124f, -0.19265810f, -0.30942059f, 0.04670499f, -0.03502874f,
    -0.11092436f, -0.25687745f, -0.20433435f, -0.18681997f, -0.11092436f, 0.00583812f, -0.20433435f, 0.17514372f,
    0.12843873f, 0.01751437f, -0.35612556f, -0.32693493f, 0.03502874f, 0.03502874f, -0.07005749f, -0.09924811f,
    -0.04086687f, -0.28606808f, -0.14595310f, -0.11092436f, 0.03502874f, -0.30942059f, 0.15179123f, 0.01167625f,
    -0.09340999f, 0.26271558f, -0.15762936f, 0.08757186f, -0.07005749f, -0.02335250f, 0.22184871f, 0.11676248f,
    -0.16930559f, -0.15762936f, 0.18098184f, -0.28022996f, 0.04086687f, 0.02919062f, -0.06421936f, -0.04086687f,
    -0.17514372f, 0.06421936f, 0.14011498f, -0.32109684f, 0.06421936f, -0.18098184f, 0.0000000000e+00f, -0.01167625f,
    0.10508624f, 0.00583812f, 0.23936309f, -0.16930559f, -0.10508624f, -0.13427685f, 0.04086687f, -0.02335250f,
    -0.09924811f, -0.05254312f, -0.14595310f, 0.37947807f, 0.12260061f, 0.16930559f, 0.0000000000e+00f, -0.17514372f,
    -0.39699244f, 0.01751437f, 0.02335250f, 0.02335250f, -0.07589561f, -0.10508624f, -0.11676248f, 0.03502874f,
    -0.08173373f, -0.02919062f, -0.06421936f, 0.05838124f, -0.14595310f, -0.22768684f, 0.0000000000e+00f, -0.14595310f,
    0.04670499f, 0.09924811f, 0.04670499f, -0.15179123f, 0.12843873f, -0.38531619f, -0.00583812f, 0.03502874f,
    0.02919062f, 0.13427685f, -0.21601059f, 0.07005749f, -0.02335250f, 0.09340999f, 0.12843873f, -0.43785930f,
    -0.09340999f, 0.04670499f, 0.02335250f, 0.29190621f, 0.14595310f, -0.33861119f, 0.08173373f, -0.10508624f,
    0.07589561f, 0.33277306f, 0.17514372f, -0.14011498f, -0.18681997f, -0.46704993f, -0.15179123f, -0.01167625f,
    -0.19849622f, -0.11676248f, 0.18681997f, -0.07005749f, 0.07589561f, -0.14011498f, -0.25103933f, -0.09340999f,
    -0.14011498f, 0.18098184f, -0.03502874f, 0.00583812f, -0.04670499f, 0.14011498f, 0.22184871f, -0.18098184f,
    0.08757186f, 0.22768684f, 0.15179123f, -0.17514372f, 0.11092436f, -0.07589561f, -0.13427685f, 0.19849622f,
    0.01751437f, -0.00583812f, 0.53710741f, -0.14595310f, 0.08173373f, -0.22184871f, -0.15762936f, 0.12843873f,
    -0.11676248f, 0.08757186f, 0.05838124f, -0.19265810f, 0.07589561f, -0.05838124f, 0.02335250f, 0.07005749f,
    0.15762936f, 0.19265810f, 0.12843873f, 0.0000000000e+00f, 0.06421936f, -0.15762936f, 0.15179123f, 0.27439183f,
    -0.06421936f, -0.07005749f, 0.14595310f, -0.08757186f, -0.11676248f, -0.26271558f, -0.20433435f, -0.30942059f,
    -0.03502874f, -0.00583812f, 0.03502874f, -0.14595310f, 0.07005749f, -0.01167625f, -0.20433435f, -0.17514372f,
    0.00583812f, 0.0000000000e+00f, 0.02335250f, 0.0000000000e+00f, -0.01167625f, 0.01751437f, 0.09924811f, 0.16346747f,
    -0.13427685f, -0.01751437f, 0.05838124f, -0.14595310f, 0.04086687f, -0.17514372f, -0.02335250f, -0.15179123f,
    -0.11092436f, 0.16346747f, 0.26855370f, -0.09340999f, -0.13427685f, -0.32693493f, 0.08173373f, 0.19849622f,
    -0.16930559f, -0.04670499f, -0.39115432f, 0.08173373f, 0.07589561f, -0.05254312f, -0.28606808f, 0.22184871f,
    0.34444931f, 0.16346747f, -0.23936309f, -0.05838124f, 0.18098184f, -0.09924811f, -0.00583812f, -0.14011498f,
    -0.03502874f, -0.02919062f, -0.01751437f, -0.05838124f, -0.09924811f, -0.27439183f, -0.21017247f, 0.44953555f,
    0.02919062f, 0.26271558f, 0.10508624f, 0.05838124f, -0.07589561f, 0.02919062f, 0.0000000000e+00f, 0.12260061f,
    0.00583812f, 0.18098184f, 0.14011498f, 0.08757186f, -0.11676248f, 0.19849622f, -0.30358246f, 0.04086687f,
    -0.25103933f, 0.21601059f, -0.07589561f, -0.34444931f, -0.02919062f, 0.17514372f, 0.04086687f, 0.21601059f,
    -0.11676248f, 0.11092436f, 0.04086687f, -0.08173373f, 0.43202117f, -0.21601059f, 0.21601059f, -0.22768684f,
    -0.01751437f, -0.42618304f, -0.28022996f, -0.08173373f, -0.04086687f, 0.18098184f, -0.16346747f, -0.02919062f,
    0.04086687f, -0.32693493f, -0.20433435f, 0.08757186f, 0.04670499f, -0.13427685f, -0.08757186f, -0.14011498f,
    -0.05838124f, -0.22184871f, -0.15179123f, -0.03502874f, -0.09340999f, 0.20433435f, -0.11092436f, -0.08757186f,
    0.53126931f, -0.01167625f, 0.25687745f, -0.08173373f, 0.19265810f, 0.11676248f, 0.16346747f, 0.02335250f,
    -0.29774433f, 0.16346747f, 0.36196369f, -0.15762936f, -0.12843873f, -0.16346747f, 0.33277306f, -0.12260061f,
    -0.21017247f, -0.05838124f, 0.0000000000e+00f, -0.03502874f, -0.12843873f, 0.03502874f, 0.22184871f, 0.15179123f,
    0.12843873f, 0.10508624f, 0.21601059f, -0.02335250f, 0.11092436f, -0.02335250f, 0.36780182f, 0.0000000000e+00f,
    0.07005749f, -0.05254312f, -0.02335250f, 0.26271558f, 0.13427685f, -0.32693493f, 0.14595310f, -0.17514372f,
    -0.25103933f, -0.17514372f, 0.19265810f, 0.15762936f, -0.25103933f, -0.18098184f, 0.10508624f, -0.01167625f,
    -0.15762936f, -0.05254312f, -0.00583812f, 0.10508624f, 0.15762936f, 0.05838124f, -0.32693493f, 0.14595310f,
    -0.28606808f, -0.09924811f, 0.10508624f, 0.27439183f, 0.29774433f, 0.23352496f, 0.11676248f, -0.24520122f,
    0.12843873f, -0.09340999f, -0.12260061f, 0.15179123f, 0.02335250f, 0.02919062f, -0.11676248f, -0.14011498f,
    0.09924811f, -0.03502874f, -0.10508624f, -0.05254312f, 0.10508624f, 0.22768684f, -0.06421936f, 0.28606808f,
    -0.12260061f, 0.16346747f, 0.05838124f, -0.04670499f, 0.30942059f, -0.04670499f, -0.44369742f, -0.11092436f,
    -0.03502874f, -0.10508624f, 0.06421936f, -0.07005749f, 0.08173373f, 0.25103933f, -0.07589561f, 0.26271558f,
    0.09340999f, -0.03502874f, 0.00583812f, -0.30358246f, 0.07005749f, 0.37363994f, -0.11676248f, -0.08757186f,
    0.03502874f, -0.09340999f, 0.04086687f, 0.18681997f, 0.14595310f, -0.04086687f, -0.11676248f, 0.16930559f,
    -0.00583812f, -0.15179123f, -0.28022996f, 0.39115432f, -0.23352496f, 0.18098184f, -0.16930559f, -0.07005749f,
    0.07005749f, -0.24520122f, -0.07005749f, -0.02919062f, -0.11092436f, -0.13427685f, 0.14011498f, 0.07589561f,
    0.08173373f, 0.21017247f, 0.26271558f, 0.19265810f, 0.15762936f, -0.43202117f, -0.26271558f, 0.22184871f,
    0.11092436f, -0.38531619f, 0.01751437f, -0.35612556f, -0.15179123f, -0.51375490f, -0.30358246f, -0.01167625f,
    0.21017247f, 0.12260061f, -0.04086687f, 0.11676248f, 0.09924811f, -0.17514372f, 0.40866870f, 0.40866870f,
    0.10508624f, -0.29774433f, -0.06421936f, 0.0000000000e+00f, 0.15179123f, -0.17514372f, 0.18098184f, 0.12843873f,
    -0.24520122f, -0.23352496f, -0.49624056f, -0.05838124f, 0.17514372f, 0.02919062f, 0.03502874f, 0.01167625f,
    0.20433435f, 0.22768684f, -0.16346747f, -0.04670499f, 0.15762936f, -0.18098184f, 0.26855370f, 0.07005749f,
    -0.19849622f, -0.26855370f, -0.12843873f, -0.20433435f, 0.0000000000e+00f, 0.01167625f, 0.05838124f, -0.18681997f,
    -0.09340999f, 0.16346747f, -0.14011498f, -0.26855370f, 0.04086687f, 0.22768684f, 0.02919062f, 0.05838124f,
    -0.65386987f, -0.22184871f, -0.09924811f, 0.01167625f, 0.02919062f, 0.55462182f, 0.23352496f, -0.01751437f,
    0.12843873f, -0.14011498f, 0.02335250f, 0.01751437f, -0.02919062f, -0.07589561f, 0.01167625f, 0.33861119f,
    0.14595310f, -0.07589561f, -0.01167625f, -0.00583812f, -0.28022996f, 0.13427685f, -0.09340999f, 0.19265810f,
    0.18681997f, -0.04086687f, 0.15762936f, 0.05254312f, 0.09340999f, -0.08757186f, -0.26271558f, -0.15179123f,
    -0.04670499f, 0.08757186f, -0.20433435f, -0.25687745f, -0.24520122f, 0.18681997f, 0.13427685f, 0.35612556f,
    -0.21601059f, -0.03502874f, -0.05254312f, -0.20433435f, -0.35028744f, -0.00583812f, 0.12260061f, 0.26271558f
};

// /* [16] float */
static const float onnx__Conv_194[16] = {
    0.54239792f, 0.31374282f, -0.31562805f, 0.58768910f, 0.61905968f, -0.05792145f, 0.35774201f, 0.13769786f,
    0.42083740f, -0.04156299f, 0.27185810f, 0.71144295f, 0.21042168f, 0.22291359f, -0.21687055f, 0.14497912f
};

// /* [16 × 16 × 7] float32 (dequantized from int8, scale=0.00476271, zp=0) */
static const float onnx__Conv_196[1792] = {
    0.09525421f, 0.17622028f, -0.35244057f, 0.24289824f, 0.00476271f, -0.06191524f, 0.18098301f, -0.38101685f,
    0.29052535f, -0.06191524f, -0.09049150f, -0.35720330f, 0.06191524f, 0.03810168f, -0.01428813f, -0.03333898f,
    -0.06191524f, 0.19527113f, 0.03333898f, -0.46198294f, -0.10477963f, 0.17622028f, -0.04762711f, 0.06191524f,
    -0.03810168f, 0.09525421f, -0.24289824f, -0.05715252f, -0.05238982f, 0.09049150f, -0.04762711f, 0.20955926f,
    -0.00476271f, -0.03810168f, -0.27147451f, -0.16193216f, 0.16669486f, 0.10001692f, 0.10477963f, 0.32862702f,
    -0.00952542f, 0.46198294f, -0.22384739f, -0.31910160f, 0.10477963f, 0.01905084f, 0.05238982f, 0.26671180f,
    0.08572879f, -0.21432197f, 0.18574572f, -0.07144066f, 0.29528806f, -0.11906777f, 0.26194909f, -0.02857626f,
    0.18574572f, -0.31910160f, 0.15716945f, -0.16193216f, -0.10001692f, -0.01905084f, 0.00952542f, -0.05715252f,
    0.04762711f, 0.27623722f, -0.09049150f, 0.21432197f, -0.12859319f, -0.19050843f, 0.0000000000e+00f, 0.13335590f,
    -0.16193216f, -0.20003384f, 0.11430505f, -0.08096608f, -0.03333898f, 0.13335590f, 0.02857626f, 0.02381355f,
    -0.21432197f, -0.35244057f, -0.25718638f, -0.03333898f, -0.07620337f, -0.16193216f, -0.02381355f, -0.39530498f,
    -0.08572879f, -0.14288132f, -0.23813553f, -0.04286439f, -0.34291515f, -0.26194909f, -0.13335590f, -0.09049150f,
    -0.06191524f, -0.08096608f, 0.25718638f, -0.17145757f, -0.09049150f, 0.27623722f, 0.26671180f, 0.11430505f,
    -0.22384739f, 0.06667795f, 0.49055919f, -0.00476271f, -0.14764403f, -0.05715252f, 0.03333898f, -0.07144066f,
    -0.35720330f, -0.06667795f, -0.35720330f, -0.06191524f, -0.03333898f, 0.01905084f, -0.04286439f, -0.12859319f,
    -0.01905084f, -0.09049150f, -0.37625414f, 0.08572879f, -0.07620337f, 0.22384739f, 0.28099993f, -0.15240674f,
    -0.10954234f, 0.34767786f, -0.11906777f, 0.21908468f, -0.02857626f, -0.11430505f, 0.31910160f, -0.03333898f,
    0.06667795f, 0.29528806f, -0.15240674f, -0.10477963f, -0.12383047f, 0.05715252f, -0.20955926f, 0.17145757f,
    -0.24289824f, 0.03810168f, 0.00952542f, -0.03333898f, 0.03810168f, -0.10954234f, -0.01428813f, 0.27623722f,
    -0.29052535f, -0.01428813f, -0.10477963f, 0.09049150f, -0.09049150f, -0.14288132f, 0.08572879f, -0.08572879f,
    -0.21908468f, 0.19527113f, 0.02857626f, -0.06667795f, -0.08096608f, 0.20955926f, 0.04762711f, 0.15240674f,
    -0.00476271f, 0.06191524f, -0.36672872f, -0.00952542f, 0.23813553f, 0.22384739f, 0.03333898f, 0.02857626f,
    -0.15716945f, -0.14764403f, 0.05238982f, 0.04762711f, -0.24289824f, 0.45722020f, 0.08096608f, 0.05238982f,
    -0.21908468f, 0.03333898f, -0.15716945f, -0.16669486f, -0.12859319f, -0.36672872f, 0.12383047f, -0.21432197f,
    -0.21432197f, -0.06667795f, 0.35244057f, -0.13335590f, 0.12859319f, 0.12859319f, -0.05715252f, 0.16193216f,
    -0.48103377f, 0.00952542f, 0.10001692f, -0.05238982f, -0.05715252f, -0.24766095f, 0.05715252f, 0.26194909f,
    0.09525421f, 0.06191524f, 0.10954234f, 0.10477963f, -0.02381355f, -0.10477963f, -0.08572879f, -0.16669486f,
    0.21908468f, -0.27147451f, -0.36196601f, -0.10477963f, -0.20003384f, 0.10954234f, 0.11906777f, 0.11906777f,
    0.07620337f, 0.13335590f, 0.18098301f, 0.14288132f, -0.05238982f, -0.03333898f, -0.07144066f, -0.03333898f,
    -0.15240674f, -0.01905084f, 0.05715252f, 0.07144066f, 0.11430505f, -0.01428813f, -0.03810168f, 0.18098301f,
    0.01905084f, 0.34767786f, 0.02381355f, -0.05715252f, 0.09049150f, 0.22384739f, 0.10001692f, -0.09525421f,
    0.00476271f, 0.23337282f, -0.10954234f, 0.02381355f, 0.13811861f, -0.13335590f, -0.06191524f, -0.03333898f,
    -0.08572879f, 0.39054227f, 0.18098301f, 0.12383047f, -0.24289824f, -0.19050843f, 0.00952542f, 0.05238982f,
    -0.07620337f, 0.14288132f, 0.06667795f, 0.05715252f, 0.14764403f, 0.22861010f, 0.12859319f, 0.14764403f,
    0.33338973f, -0.03810168f, -0.11906777f, -0.00476271f, -0.04762711f, 0.01428813f, 0.11430505f, -0.03810168f,
    0.05238982f, 0.09049150f, -0.16669486f, 0.22861010f, 0.15716945f, 0.14288132f, -0.12383047f, 0.00476271f,
    0.0000000000e+00f, -0.06667795f, -0.12383047f, 0.13335590f, -0.24289824f, -0.21432197f, 0.08096608f, 0.13335590f,
    -0.03810168f, -0.12859319f, 0.00476271f, 0.08572879f, 0.0000000000e+00f, 0.22384739f, 0.43816936f, 0.03810168f,
    0.11430505f, 0.17145757f, -0.02857626f, -0.11430505f, -0.13335590f, -0.05715252f, -0.08572879f, -0.00952542f,
    0.0000000000e+00f, -0.10001692f, 0.35720330f, 0.06667795f, 0.16193216f, -0.04762711f, 0.08096608f, 0.19527113f,
    0.01905084f, 0.11430505f, -0.07620337f, -0.44293207f, 0.17145757f, -0.06667795f, -0.04762711f, 0.31910160f,
    -0.13811861f, 0.06191524f, -0.10001692f, -0.04762711f, 0.21908468f, 0.14764403f, 0.20003384f, -0.01428813f,
    0.09049150f, 0.00476271f, -0.15716945f, 0.07144066f, 0.29528806f, -0.13335590f, -0.23813553f, 0.20003384f,
    0.06667795f, 0.06667795f, 0.15716945f, -0.11906777f, 0.14764403f, -0.01905084f, -0.01428813f, -0.20003384f,
    -0.11906777f, -0.04286439f, -0.05715252f, -0.10477963f, -0.12859319f, -0.21432197f, -0.24766095f, -0.00476271f,
    -0.10954234f, -0.03333898f, 0.02857626f, 0.17145757f, 0.12383047f, 0.40959311f, -0.20479655f, -0.09049150f,
    0.20479655f, 0.02381355f, -0.25718638f, -0.05238982f, 0.04286439f, -0.11906777f, 0.05715252f, -0.07620337f,
    0.01428813f, 0.00952542f, 0.07144066f, 0.13335590f, -0.22384739f, -0.00476271f, 0.14764403f, 0.03333898f,
    0.20955926f, -0.12859319f, -0.13811861f, -0.10001692f, -0.05238982f, -0.19527113f, 0.10954234f, 0.18098301f,
    -0.01428813f, -0.13335590f, -0.05238982f, 0.34767786f, -0.08572879f, -0.35720330f, -0.33815244f, 0.34291515f,
    0.16193216f, -0.15716945f, -0.15240674f, 0.04762711f, 0.00476271f, 0.06191524f, 0.05715252f, -0.09525421f,
    0.07144066f, 0.11906777f, -0.04286439f, -0.15716945f, -0.09525421f, 0.24766095f, -0.00952542f, -0.26671180f,
    -0.18574572f, 0.01905084f, -0.10954234f, -0.18098301f, 0.11430505f, -0.25718638f, 0.04762711f, 0.01905084f,
    0.10954234f, 0.09525421f, 0.04286439f, 0.18574572f, -0.05238982f, 0.28576264f, 0.09525421f, -0.03810168f,
    0.14288132f, 0.03333898f, 0.01905084f, 0.21432197f, 0.18098301f, -0.07620337f, 0.02857626f, 0.03810168f,
    0.03333898f, -0.10001692f, -0.17622028f, 0.31910160f, -0.01905084f, -0.28099993f, 0.04286439f, 0.22861010f,
    0.22384739f, -0.16669486f, 0.12859319f, -0.10001692f, 0.04762711f, -0.16193216f, 0.02381355f, -0.05715252f,
    -0.10954234f, -0.09525421f, -0.03810168f, 0.02381355f, -0.09525421f, -0.03333898f, -0.03810168f, -0.20479655f,
    -0.13335590f, -0.40959311f, 0.0000000000e+00f, -0.08096608f, -0.08572879f, -0.10954234f, 0.23337282f, 0.09049150f,
    0.14764403f, -0.17145757f, 0.11906777f, 0.03333898f, 0.01428813f, 0.13811861f, -0.07620337f, -0.00476271f,
    0.02381355f, 0.19527113f, -0.10477963f, -0.15716945f, 0.19527113f, -0.06191524f, 0.06191524f, -0.08096608f,
    -0.04762711f, -0.07620337f, -0.00476271f, -0.10477963f, -0.05715252f, 0.12383047f, -0.00952542f, -0.08572879f,
    0.12859319f, 0.25718638f, 0.03333898f, -0.23337282f, -0.03333898f, -0.08096608f, -0.00952542f, 0.20003384f,
    -0.04762711f, 0.02381355f, 0.00476271f, -0.18574572f, 0.04286439f, -0.00476271f, -0.11430505f, -0.02381355f,
    0.03333898f, 0.19050843f, 0.02857626f, -0.01905084f, 0.03810168f, -0.07144066f, -0.06667795f, -0.04286439f,
    0.02381355f, -0.25242364f, -0.28099993f, 0.03333898f, -0.06667795f, 0.03333898f, 0.08572879f, 0.04762711f,
    0.20955926f, 0.07620337f, 0.01428813f, 0.01428813f, -0.14764403f, 0.06191524f, -0.11430505f, -0.14288132f,
    -0.04286439f, 0.01905084f, -0.06191524f, -0.05715252f, -0.02381355f, 0.08096608f, -0.24289824f, 0.18574572f,
    -0.09049150f, -0.04286439f, -0.16193216f, -0.07144066f, 0.18574572f, -0.04286439f, -0.20955926f, 0.13811861f,
    -0.05238982f, 0.04286439f, 0.10001692f, 0.12383047f, 0.04286439f, 0.29052535f, 0.04286439f, 0.08096608f,
    -0.44769478f, 0.05238982f, 0.17145757f, -0.08572879f, -0.08572879f, -0.08572879f, -0.06191524f, 0.23337282f,
    0.02381355f, 0.04286439f, 0.05238982f, 0.10001692f, -0.10477963f, 0.07144066f, 0.42388123f, -0.00476271f,
    0.23813553f, 0.0000000000e+00f, 0.10477963f, 0.16193216f, -0.13335590f, -0.17622028f, 0.08096608f, 0.10001692f,
    -0.47150835f, 0.01905084f, -0.19050843f, -0.37149143f, -0.20955926f, -0.14764403f, 0.08096608f, -0.03333898f,
    0.03810168f, 0.06667795f, 0.14764403f, -0.05238982f, 0.02857626f, 0.07144066f, 0.08572879f, -0.09049150f,
    -0.17622028f, -0.08572879f, 0.02857626f, -0.13335590f, -0.01905084f, -0.06191524f, 0.03333898f, 0.05715252f,
    -0.30957618f, -0.02381355f, -0.09525421f, 0.21432197f, 0.13335590f, -0.06667795f, -0.02381355f, 0.08572879f,
    0.00952542f, -0.04286439f, -0.01905084f, 0.06667795f, 0.16669486f, -0.22384739f, 0.00952542f, 0.35720330f,
    0.17622028f, 0.08572879f, 0.23813553f, 0.13335590f, -0.02381355f, -0.04286439f, 0.27147451f, 0.01905084f,
    -0.36196601f, -0.11906777f, -0.02857626f, 0.03333898f, 0.12383047f, -0.06191524f, 0.01428813f, 0.00952542f,
    -0.21432197f, -0.11906777f, 0.03333898f, -0.08572879f, -0.01905084f, -0.06191524f, -0.13335590f, 0.28576264f,
    0.21432197f, 0.12859319f, -0.10954234f, -0.06191524f, -0.23813553f, -0.22384739f, -0.06667795f, 0.13811861f,
    0.12859319f, 0.00952542f, 0.02381355f, -0.01428813f, -0.27623722f, -0.04762711f, -0.04762711f, -0.00476271f,
    -0.23337282f, 0.03333898f, -0.07620337f, -0.09525421f, 0.06191524f, -0.06667795f, -0.04762711f, 0.11430505f,
    -0.10954234f, -0.23337282f, -0.24766095f, 0.05238982f, 0.24766095f, 0.00952542f, -0.10001692f, 0.07620337f,
    -0.19527113f, -0.14288132f, -0.19050843f, -0.00952542f, -0.07620337f, 0.26671180f, 0.11906777f, 0.03810168f,
    0.23337282f, -0.17145757f, -0.19527113f, 0.09525421f, -0.18574572f, 0.02381355f, 0.24289824f, -0.07144066f,
    -0.30957618f, -0.02857626f, -0.27623722f, 0.05715252f, 0.03810168f, 0.14764403f, 0.11430505f, -0.03333898f,
    0.08572879f, -0.10954234f, 0.01905084f, 0.21432197f, 0.03810168f, -0.39530498f, 0.09049150f, 0.05238982f,
    -0.13811861f, 0.12859319f, -0.22861010f, 0.08572879f, 0.11430505f, 0.0000000000e+00f, 0.13811861f, -0.18574572f,
    0.12383047f, 0.23337282f, -0.14288132f, 0.10001692f, -0.04286439f, 0.02857626f, 0.08096608f, -0.01428813f,
    -0.03333898f, 0.04762711f, 0.24289824f, -0.07144066f, -0.08572879f, -0.09525421f, 0.04286439f, 0.01905084f,
    0.07144066f, 0.17622028f, -0.20479655f, -0.00952542f, -0.05715252f, 0.09525421f, 0.21432197f, 0.11906777f,
    0.05238982f, 0.32862702f, 0.21432197f, -0.08096608f, 0.28099993f, -0.08572879f, 0.19050843f, 0.33338973f,
    0.07144066f, -0.15240674f, -0.03333898f, -0.03333898f, -0.24289824f, 0.10477963f, 0.14764403f, -0.06667795f,
    -0.07144066f, 0.16669486f, 0.13335590f, -0.19050843f, -0.17145757f, 0.02381355f, -0.16193216f, -0.13335590f,
    0.06667795f, -0.12859319f, 0.22384739f, 0.18574572f, 0.02381355f, 0.28099993f, -0.19050843f, 0.39530498f,
    -0.01428813f, -0.14288132f, -0.02381355f, -0.22384739f, 0.24289824f, 0.05715252f, -0.00952542f, -0.22384739f,
    0.13335590f, 0.01905084f, 0.06191524f, 0.05238982f, -0.05715252f, 0.04286439f, -0.11430505f, -0.02381355f,
    -0.01905084f, 0.25718638f, 0.12859319f, 0.10477963f, -0.05238982f, 0.16669486f, 0.05238982f, -0.14764403f,
    0.30957618f, 0.06191524f, -0.00476271f, 0.11906777f, 0.04286439f, 0.06191524f, 0.08572879f, 0.06191524f,
    0.00476271f, 0.08572879f, -0.01905084f, 0.09525421f, 0.03810168f, 0.06667795f, 0.03810168f, -0.21432197f,
    0.00476271f, -0.10477963f, 0.13335590f, 0.07144066f, 0.10954234f, -0.02857626f, 0.00476271f, -0.14288132f,
    0.01905084f, 0.18574572f, -0.06191524f, 0.07144066f, 0.08096608f, 0.21908468f, 0.15716945f, 0.02857626f,
    -0.12383047f, 0.00952542f, 0.17622028f, 0.12859319f, 0.10001692f, 0.00952542f, 0.04762711f, -0.10954234f,
    -0.02857626f, -0.10001692f, -0.09049150f, -0.05715252f, 0.0000000000e+00f, 0.10001692f, -0.04286439f, 0.09525421f,
    0.07144066f, 0.15716945f, 0.04286439f, -0.11906777f, -0.12383047f, -0.12859319f, 0.20003384f, 0.32386431f,
    0.21432197f, 0.10001692f, -0.07144066f, 0.04762711f, -0.11430505f, 0.06667795f, -0.05715252f, -0.07620337f,
    0.02381355f, 0.09525421f, -0.07144066f, 0.00952542f, 0.01428813f, -0.07620337f, -0.15716945f, -0.02381355f,
    -0.00476271f, 0.12383047f, -0.02857626f, -0.18098301f, -0.03333898f, 0.14764403f, 0.05238982f, 0.02857626f,
    0.10477963f, 0.15716945f, 0.15716945f, -0.09525421f, 0.07620337f, 0.19050843f, 0.00952542f, 0.22861010f,
    0.12859319f, 0.04762711f, 0.00952542f, 0.29052535f, -0.00952542f, -0.06667795f, -0.13811861f, 0.00952542f,
    0.06191524f, -0.10477963f, 0.06667795f, -0.07620337f, -0.40483040f, 0.17145757f, -0.22861010f, 0.30005077f,
    0.10954234f, -0.11430505f, -0.20003384f, 0.12383047f, 0.01905084f, 0.11430505f, -0.26671180f, -0.02381355f,
    0.09525421f, 0.10477963f, -0.13335590f, -0.06191524f, -0.10954234f, 0.01428813f, 0.05238982f, -0.03333898f,
    -0.07620337f, 0.06191524f, -0.38101685f, -0.18098301f, -0.09049150f, -0.17145757f, -0.28576264f, -0.02381355f,
    -0.04762711f, -0.38101685f, -0.29528806f, -0.06191524f, 0.18098301f, -0.10477963f, 0.19527113f, -0.19527113f,
    0.09049150f, -0.12859319f, 0.06667795f, 0.07620337f, 0.18098301f, -0.10001692f, -0.01905084f, 0.30957618f,
    0.16193216f, -0.42388123f, -0.12383047f, -0.05715252f, -0.15240674f, -0.05238982f, 0.04286439f, -0.22384739f,
    -0.15240674f, -0.23337282f, -0.00476271f, 0.09049150f, 0.01428813f, -0.16193216f, -0.09049150f, 0.0000000000e+00f,
    -0.13811861f, 0.22384739f, -0.14764403f, 0.03810168f, 0.20479655f, 0.07144066f, -0.03810168f, 0.20003384f,
    0.15240674f, -0.20479655f, 0.12859319f, 0.21432197f, 0.00476271f, 0.50008458f, 0.08572879f, 0.07144066f,
    0.20003384f, 0.38101685f, 0.02857626f, -0.04286439f, -0.15716945f, 0.06191524f, -0.13811861f, 0.27147451f,
    0.21432197f, 0.20955926f, 0.25242364f, 0.43816936f, -0.22384739f, 0.04286439f, -0.04286439f, -0.36196601f,
    -0.13811861f, 0.10001692f, 0.10477963f, 0.09049150f, 0.07144066f, -0.03810168f, 0.04286439f, -0.29528806f,
    0.02381355f, 0.13811861f, 0.44769478f, -0.10477963f, -0.12859319f, 0.01905084f, 0.0000000000e+00f, 0.02381355f,
    0.02857626f, -0.02381355f, 0.12383047f, -0.15716945f, -0.08096608f, -0.02381355f, -0.41911852f, -0.15716945f,
    0.26194909f, 0.19050843f, -0.04762711f, -0.01428813f, -0.25242364f, 0.45245749f, -0.09049150f, -0.03333898f,
    -0.04762711f, -0.10477963f, 0.00476271f, -0.05238982f, -0.24289824f, 0.19527113f, 0.29528806f, -0.16669486f,
    -0.05715252f, 0.05238982f, -0.16193216f, -0.06191524f, 0.29528806f, -0.01428813f, -0.20003384f, -0.17145757f,
    -0.16193216f, -0.10954234f, -0.33815244f, 0.17145757f, 0.18574572f, 0.23813553f, -0.39530498f, -0.11906777f,
    -0.03810168f, 0.17622028f, -0.06667795f, 0.15240674f, 0.10477963f, -0.12859319f, 0.09525421f, -0.12859319f,
    -0.04286439f, -0.10477963f, -0.16193216f, -0.19527113f, -0.26671180f, -0.19527113f, 0.02381355f, -0.18574572f,
    -0.24289824f, 0.06667795f, -0.15240674f, -0.17145757f, -0.07144066f, 0.11430505f, -0.03810168f, -0.08096608f,
    -0.25718638f, 0.18574572f, -0.07620337f, -0.12383047f, 0.17145757f, 0.20003384f, 0.10001692f, -0.19050843f,
    -0.15716945f, -0.00476271f, -0.11430505f, 0.17622028f, 0.01428813f, -0.22384739f, 0.04762711f, -0.04762711f,
    0.29052535f, 0.05715252f, 0.01428813f, -0.27147451f, -0.05238982f, 0.08096608f, 0.07620337f, 0.15240674f,
    0.20003384f, 0.46198294f, 0.04762711f, -0.09049150f, 0.25242364f, 0.11430505f, 0.26194909f, 0.07144066f,
    0.21432197f, 0.11906777f, -0.10001692f, -0.30957618f, 0.15240674f, 0.05238982f, 0.07144066f, 0.22384739f,
    0.23813553f, 0.07620337f, 0.12859319f, -0.10001692f, -0.20955926f, -0.03810168f, -0.07144066f, 0.10477963f,
    0.04286439f, -0.11906777f, -0.00952542f, 0.04286439f, -0.15716945f, -0.11906777f, -0.21908468f, 0.41435581f,
    -0.05238982f, 0.01428813f, 0.24766095f, -0.36672872f, 0.15240674f, 0.10954234f, -0.21432197f, 0.03810168f,
    -0.09525421f, 0.28576264f, 0.09525421f, -0.02857626f, -0.10954234f, -0.22861010f, 0.18574572f, 0.33338973f,
    0.21432197f, -0.10001692f, -0.07144066f, 0.33338973f, -0.14288132f, -0.01428813f, 0.22384739f, 0.06667795f,
    -0.18098301f, 0.13811861f, 0.03810168f, -0.07144066f, 0.23337282f, 0.19527113f, 0.26671180f, -0.02857626f,
    -0.24289824f, 0.03333898f, -0.00952542f, -0.20003384f, -0.16669486f, -0.18574572f, -0.16669486f, -0.25718638f,
    0.21908468f, -0.22384739f, 0.23337282f, 0.11430505f, 0.04762711f, 0.18574572f, -0.20003384f, -0.12859319f,
    0.02857626f, -0.27147451f, 0.16669486f, 0.29052535f, 0.0000000000e+00f, 0.23813553f, -0.26194909f, 0.0000000000e+00f,
    0.07620337f, 0.08572879f, -0.30957618f, -0.20003384f, 0.28576264f, 0.07144066f, 0.01905084f, -0.21432197f,
    -0.04762711f, -0.19527113f, 0.07620337f, 0.11430505f, 0.09049150f, 0.15716945f, 0.02857626f, -0.12383047f,
    0.29052535f, -0.28576264f, -0.42864394f, -0.18574572f, -0.06191524f, 0.03810168f, 0.42864394f, -0.31910160f,
    -0.54294902f, -0.21432197f, -0.01905084f, 0.24766095f, -0.14764403f, -0.04286439f, -0.17622028f, 0.07620337f,
    0.46198294f, 0.17622028f, -0.18098301f, -0.22384739f, -0.01428813f, 0.29528806f, -0.22861010f, -0.06667795f,
    0.0000000000e+00f, -0.05715252f, -0.22384739f, -0.07620337f, -0.14764403f, -0.02381355f, -0.03333898f, 0.17622028f,
    -0.07620337f, 0.04762711f, -0.15240674f, -0.29528806f, 0.08572879f, -0.31433889f, 0.10477963f, 0.07144066f,
    0.13335590f, 0.01428813f, -0.24289824f, -0.12383047f, -0.12859319f, 0.05238982f, -0.05715252f, -0.06667795f,
    -0.10477963f, -0.16669486f, 0.03810168f, -0.09049150f, 0.04762711f, -0.13811861f, -0.10477963f, 0.0000000000e+00f,
    -0.29052535f, 0.01428813f, 0.10477963f, -0.15716945f, -0.13811861f, 0.06667795f, 0.0000000000e+00f, -0.04762711f,
    -0.20003384f, 0.01905084f, 0.19050843f, -0.08096608f, 0.19050843f, 0.20003384f, 0.14288132f, -0.33338973f,
    0.27623722f, -0.20003384f, 0.16669486f, -0.19527113f, 0.15240674f, 0.01905084f, 0.20479655f, 0.12383047f,
    -0.00952542f, -0.00952542f, 0.19050843f, -0.13811861f, -0.13335590f, 0.40483040f, 0.07620337f, 0.10477963f,
    0.04286439f, 0.02381355f, 0.02381355f, 0.00952542f, -0.02857626f, 0.19050843f, 0.00476271f, -0.23813553f,
    -0.08096608f, -0.08096608f, 0.40483040f, 0.20479655f, 0.21908468f, -0.00952542f, -0.22384739f, -0.20003384f,
    -0.12383047f, -0.32386431f, -0.17622028f, 0.05715252f, 0.01428813f, -0.10477963f, 0.22861010f, -0.26671180f,
    -0.11906777f, -0.10001692f, 0.01905084f, -0.46198294f, 0.12859319f, 0.18098301f, -0.00476271f, 0.05238982f,
    0.06191524f, -0.60486424f, 0.06667795f, -0.12859319f, 0.20955926f, 0.44769478f, 0.03333898f, 0.27147451f,
    0.26671180f, -0.04286439f, -0.14288132f, 0.10477963f, -0.04286439f, -0.18574572f, 0.02857626f, 0.02381355f,
    -0.20955926f, -0.20003384f, -0.03810168f, 0.14288132f, 0.07620337f, 0.06191524f, -0.07620337f, 0.01905084f,
    0.15240674f, 0.06191524f, 0.10001692f, -0.16193216f, -0.26671180f, 0.07620337f, 0.16669486f, -0.40959311f,
